<?xml version="1.0"?>
<opencv_storage>
<cascade>
  <stageType>BOOST</stageType>
  <featureType>LBP</featureType>
  <height>48</height>
  <width>48</width>
  <stageParams>
    <boostType>GAB</boostType>
    <minHitRate>9.9500000476837158e-01</minHitRate>
    <maxFalseAlarm>5.0000000000000000e-01</maxFalseAlarm>
    <weightTrimRate>9.4999999999999996e-01</weightTrimRate>
    <maxDepth>1</maxDepth>
    <maxWeakCount>100</maxWeakCount></stageParams>
  <featureParams>
    <maxCatCount>256</maxCatCount>
    <featSize>1</featSize></featureParams>
  <stageNum>20</stageNum>
  <stages>
    <!-- stage 0 -->
    <_>
      <maxWeakCount>6</maxWeakCount>
      <stageThreshold>-1.1741384267807007e+00</stageThreshold>
      <weakClassifiers>
        <_>
          <internalNodes>
            0 -1 102 -580329522 -327940 -69684 -2298134 -595014008
            -1431639830 -659763576 -578237816</internalNodes>
          <leafValues>
            -5.3855419158935547e-01 6.6687899827957153e-01</leafValues></_>
        <_>
          <internalNodes>
            0 -1 153 1726885630 -325025801 -17236993 -1463622110
            -51384577 -857347085 -324343090 -2064193597</internalNodes>
          <leafValues>
            -6.9656580686569214e-01 4.1234034299850464e-01</leafValues></_>
        <_>
          <internalNodes>
            0 -1 115 -1115736777 301838717 -67430107 -1073881258
            -226823914 -533400337 -135490476 -1124681710</internalNodes>
          <leafValues>
            -4.9343433976173401e-01 4.5845958590507507e-01</leafValues></_>
        <_>
          <internalNodes>
            0 -1 179 1686005282 -1435835766 -358028686 -501549256
            1937734006 -243756221 2003775556 -331619228</internalNodes>
          <leafValues>
            -5.9636932611465454e-01 3.5877519845962524e-01</leafValues></_>
        <_>
          <internalNodes>
            0 -1 64 -106043192 2003299524 -24366368 -1593216 -1360075010
            -145244602 -1363219201 -772426587</internalNodes>
          <leafValues>
            -4.1715276241302490e-01 4.6218547224998474e-01</leafValues></_>
        <_>
          <internalNodes>
            0 -1 235 -355666556 -1614831454 -1805864834 851109606
            -137883380 -1209609222 -4146546 -490214513</internalNodes>
          <leafValues>
            -4.9611261487007141e-01 4.0211406350135803e-01</leafValues></_></weakClassifiers></_>
    <!-- stage 1 -->
    <_>
      <maxWeakCount>9</maxWeakCount>
      <stageThreshold>-8.5072451829910278e-01</stageThreshold>
      <weakClassifiers>
        <_>
          <internalNodes>
            0 -1 108 -462101266 -173084673 -252379138 -34323538
            -454254418 -2069168662 -320017170 -1594374678</internalNodes>
          <leafValues>
            -4.8363095521926880e-01 5.3530091047286987e-01</leafValues></_>
        <_>
          <internalNodes>
            0 -1 144 1903747325 1439732223 284821694 1920088031
            -171779841 1356908991 1823729901 796643083</internalNodes>
          <leafValues>
            -4.4127684831619263e-01 4.1397497057914734e-01</leafValues></_>
        <_>
          <internalNodes>
            0 -1 158 1606410202 -542204994 -1220395334 933440050
            -606871656 -890573222 -2097185 -1073754341</internalNodes>
          <leafValues>
            -3.9238443970680237e-01 4.6663662791252136e-01</leafValues></_>
        <_>
          <internalNodes>
            0 -1 27 -570425934 1365025538 -639239214 1566416994
            -24379910 38049936 -236847696 352711729</internalNodes>
          <leafValues>
            -6.0485607385635376e-01 2.8066468238830566e-01</leafValues></_>
        <_>
          <internalNodes>
            0 -1 76 -776122300 521367809 -117263649 -1258056359
            -240396929 824132459 -718558983 1061154816</internalNodes>
          <leafValues>
            -4.6651321649551392e-01 3.3496508002281189e-01</leafValues></_>
        <_>
          <internalNodes>
            0 -1 182 -247571825 -651198806 -1359278482 -96829842
            -209751277 -1350598785 -25203169 -13895970</internalNodes>
          <leafValues>
            -3.5896286368370056e-01 4.3815022706985474e-01</leafValues></_>
        <_>
          <internalNodes>
            0 -1 187 1544485276 -123410022 -633284242 595757834
            -132187702 -645144049 1478162894 433584471</internalNodes>
          <leafValues>
            -5.3223282098770142e-01 3.4040400385856628e-01</leafValues></_>
        <_>
          <internalNodes>
            0 -1 52 -598564709 -1290292481 1567501247 -1073771750
            -547702818 327061199 -1072886838 -286554422</internalNodes>
          <leafValues>
            -3.5232624411582947e-01 4.4341459870338440e-01</leafValues></_>
        <_>
          <internalNodes>
            0 -1 63 -1107362570 295677200 -767305698 -1074016090
            -1164973825 -1465351503 -23321 31143121</internalNodes>
          <leafValues>
            -4.8551008105278015e-01 3.1641569733619690e-01</leafValues></_></weakClassifiers></_>
    <!-- stage 2 -->
    <_>
      <maxWeakCount>8</maxWeakCount>
      <stageThreshold>-1.1529300212860107e+00</stageThreshold>
      <weakClassifiers>
        <_>
          <internalNodes>
            0 -1 157 -285250001 -1560346697 -16777474 -1931433056 -39041
            408354807 -285217170 -1325926409</internalNodes>
          <leafValues>
            -4.6289992332458496e-01 5.6439507007598877e-01</leafValues></_>
        <_>
          <internalNodes>
            0 -1 206 -286324177 718192511 -395313665 -83955994
            2112834877 -17891660 -303059971 -320819676</internalNodes>
          <leafValues>
            -5.1515066623687744e-01 4.3687760829925537e-01</leafValues></_>
        <_>
          <internalNodes>
            0 -1 152 -293605713 585564007 -227021125 -265879733
            -629205219 1128267118 -319887156 -495978517</internalNodes>
          <leafValues>
            -5.1914381980895996e-01 3.9925852417945862e-01</leafValues></_>
        <_>
          <internalNodes>
            0 -1 98 -582230196 -637542817 -1117790723 -605028769
            -1634012662 -1429164608 -2001793255 -639631393</internalNodes>
          <leafValues>
            -3.9216542243957520e-01 4.9720150232315063e-01</leafValues></_>
        <_>
          <internalNodes>
            0 -1 145 1283374933 -1300299913 -1074135209 -79724813
            -947948553 -1879835249 -17137701 -324208800</internalNodes>
          <leafValues>
            -4.2130899429321289e-01 4.2231994867324829e-01</leafValues></_>
        <_>
          <internalNodes>
            0 -1 120 -1658888381 191811070 -4199812 -68262 965692692
            -289407693 -574630639 -638059240</internalNodes>
          <leafValues>
            -4.2605599761009216e-01 3.9451700448989868e-01</leafValues></_>
        <_>
          <internalNodes>
            0 -1 174 2144042564 1862141742 -1192560514 -1429558656
            -2374127 -321014499 -134798447 -1346687232</internalNodes>
          <leafValues>
            -5.1135516166687012e-01 3.2830572128295898e-01</leafValues></_>
        <_>
          <internalNodes>
            0 -1 109 -658710562 -1865299177 286586143 -572549974
            -936732258 -1192717321 -1973383782 99570717</internalNodes>
          <leafValues>
            -5.0654220581054688e-01 3.2607051730155945e-01</leafValues></_></weakClassifiers></_>
    <!-- stage 3 -->
    <_>
      <maxWeakCount>9</maxWeakCount>
      <stageThreshold>-1.2792772054672241e+00</stageThreshold>
      <weakClassifiers>
        <_>
          <internalNodes>
            0 -1 119 1618388198 -454758945 -17399809 -1359303730
            -420583825 -453444289 -286366038 -1527286521</internalNodes>
          <leafValues>
            -5.4416477680206299e-01 4.8401889204978943e-01</leafValues></_>
        <_>
          <internalNodes>
            0 -1 115 -1111509709 -1846213185 1610235185 -33661346
            -69290604 -1586186246 -176626352 -1090602444</internalNodes>
          <leafValues>
            -4.2493265867233276e-01 4.5911109447479248e-01</leafValues></_>
        <_>
          <internalNodes>
            0 -1 174 -1092671785 1124044730 -85131401 -88102225
            -33619278 -1393068139 -4143 -3162200</internalNodes>
          <leafValues>
            -3.3467841148376465e-01 5.4942113161087036e-01</leafValues></_>
        <_>
          <internalNodes>
            0 -1 154 1819083026 -1599404990 1179711836 -2054963005
            500126068 -520421216 -214143216 -1246595884</internalNodes>
          <leafValues>
            -5.4097253084182739e-01 3.4329736232757568e-01</leafValues></_>
        <_>
          <internalNodes>
            0 -1 203 -521174366 -1058567481 -219746627 -756289589
            -92907721 -990577665 -495664393 -67993601</internalNodes>
          <leafValues>
            -3.7906497716903687e-01 4.5008516311645508e-01</leafValues></_>
        <_>
          <internalNodes>
            0 -1 175 720314997 -454657174 -1561984065 -1570755269
            -4524103 -73178853 -713609136 -282433868</internalNodes>
          <leafValues>
            -5.2221399545669556e-01 3.4115138649940491e-01</leafValues></_>
        <_>
          <internalNodes>
            0 -1 225 -1334936898 -1732891036 -1721222341 -56481076
            -1846909870 631652560 -210962757 -7614021</internalNodes>
          <leafValues>
            -3.9012482762336731e-01 4.6916434168815613e-01</leafValues></_>
        <_>
          <internalNodes>
            0 -1 31 -639639980 -799084321 -300166183 -73948205
            -1697465856 -1199669015 -1819727280 -1965312838</internalNodes>
          <leafValues>
            -4.8080989718437195e-01 3.5687524080276489e-01</leafValues></_>
        <_>
          <internalNodes>
            0 -1 81 -976288491 1710227455 1064270850 -16840727 805246908
            -403718288 -282252226 -201955144</internalNodes>
          <leafValues>
            -3.9154925942420959e-01 4.3419867753982544e-01</leafValues></_></weakClassifiers></_>
    <!-- stage 4 -->
    <_>
      <maxWeakCount>11</maxWeakCount>
      <stageThreshold>-7.8028368949890137e-01</stageThreshold>
      <weakClassifiers>
        <_>
          <internalNodes>
            0 -1 114 1156992623 1157091327 -151357441 -168628994
            -841036596 -855711745 -825233713 -553648157</internalNodes>
          <leafValues>
            -2.5993722677230835e-01 5.8760386705398560e-01</leafValues></_>
        <_>
          <internalNodes>
            0 -1 101 464857687 -360714357 -17891477 -88408225 -872421966
            1115422703 1609823349 -4983740</internalNodes>
          <leafValues>
            -3.3728581666946411e-01 4.5931851863861084e-01</leafValues></_>
        <_>
          <internalNodes>
            0 -1 139 1384049177 -754974725 1673512739 -1951207633
            2012730367 -167806985 -1325432732 -1611934702</internalNodes>
          <leafValues>
            -3.5179018974304199e-01 3.9769122004508972e-01</leafValues></_>
        <_>
          <internalNodes>
            0 -1 150 -1398213 -2115327125 1065344571 -1611788485
            -1073989872 -957186769 -71483582 -17107164</internalNodes>
          <leafValues>
            -3.5489255189895630e-01 3.9833927154541016e-01</leafValues></_>
        <_>
          <internalNodes>
            0 -1 185 1862149727 -21200905 2096986047 -1343429841
            -1083393 -318898177 -33655516 -33557110</internalNodes>
          <leafValues>
            -3.4690991044044495e-01 4.3067681789398193e-01</leafValues></_>
        <_>
          <internalNodes>
            0 -1 106 2139745845 -1775012565 -73224257 -1090323525
            1480425213 -882933955 1289252022 -274993346</internalNodes>
          <leafValues>
            -2.9845952987670898e-01 4.5803239941596985e-01</leafValues></_>
        <_>
          <internalNodes>
            0 -1 128 -78135513 738113503 -1217857614 178794118
            -505625630 1682098893 -721930 -271581249</internalNodes>
          <leafValues>
            -4.2408716678619385e-01 3.4260442852973938e-01</leafValues></_>
        <_>
          <internalNodes>
            0 -1 216 -436779983 416384341 -9484483 -176722447
            -2064055087 -520458279 1601658405 -876660427</internalNodes>
          <leafValues>
            -3.0705320835113525e-01 4.3978789448738098e-01</leafValues></_>
        <_>
          <internalNodes>
            0 -1 188 -492112062 -1528020330 -1378317054 -201726867
            1732474896 -67732524 -14424575 -1073758682</internalNodes>
          <leafValues>
            -4.1809102892875671e-01 3.2505434751510620e-01</leafValues></_>
        <_>
          <internalNodes>
            0 -1 186 -595647975 -1296204016 -1375830082 -202116526
            2110612600 -185073676 -16826371 -184827906</internalNodes>
          <leafValues>
            -2.9484170675277710e-01 4.5839890837669373e-01</leafValues></_>
        <_>
          <internalNodes>
            0 -1 144 -243273999 -1728786433 -1122862850 -1334777325
            -1111736325 -1795883017 -1472008983 -1430589630</internalNodes>
          <leafValues>
            -3.9948552846908569e-01 3.6138162016868591e-01</leafValues></_></weakClassifiers></_>
    <!-- stage 5 -->
    <_>
      <maxWeakCount>12</maxWeakCount>
      <stageThreshold>-1.2371039390563965e+00</stageThreshold>
      <weakClassifiers>
        <_>
          <internalNodes>
            0 -1 96 -799375144 469409500 -839038503 1340721373
            -579369986 -564524322 -1060256293 -975468322</internalNodes>
          <leafValues>
            -3.1522792577743530e-01 5.1867222785949707e-01</leafValues></_>
        <_>
          <internalNodes>
            0 -1 201 1819250405 -1706300674 2138324991 -1753345
            1283214847 -1996685313 1042697871 -1577153</internalNodes>
          <leafValues>
            -3.0221590399742126e-01 4.4791460037231445e-01</leafValues></_>
        <_>
          <internalNodes>
            0 -1 60 -100705023 -573614202 -1781768777 1465838474
            -170225536 462358806 -587408183 482479331</internalNodes>
          <leafValues>
            -4.6669200062751770e-01 2.8458833694458008e-01</leafValues></_>
        <_>
          <internalNodes>
            0 -1 124 -1878984566 -448568722 -681000464 -212670778
            -285815872 -288494672 -595530276 -438153336</internalNodes>
          <leafValues>
            -3.7884071469306946e-01 3.2101017236709595e-01</leafValues></_>
        <_>
          <internalNodes>
            0 -1 200 -760069593 -1297417649 -800008585 -531375547
            1124548927 1351258761 2607145 -234947201</internalNodes>
          <leafValues>
            -3.8650757074356079e-01 3.1753218173980713e-01</leafValues></_>
        <_>
          <internalNodes>
            0 -1 77 1981207130 2074079903 -142724213 992122251
            1342362331 -1867042569 343617674 262389767</internalNodes>
          <leafValues>
            -4.6701705455780029e-01 2.7257868647575378e-01</leafValues></_>
        <_>
          <internalNodes>
            0 -1 87 -838869743 134523200 -1122823715 -1079012515
            -2002674283 -821055055 -51004464 449935665</internalNodes>
          <leafValues>
            -4.7761213779449463e-01 2.9581359028816223e-01</leafValues></_>
        <_>
          <internalNodes>
            0 -1 212 -942474474 1930789144 -775916036 -1675329394
            -643116644 1138776359 -13010593 1892416987</internalNodes>
          <leafValues>
            -5.4987508058547974e-01 2.2004830837249756e-01</leafValues></_>
        <_>
          <internalNodes>
            0 -1 23 -606233506 -631546534 -2003316006 -1456291816
            -560227048 -1735733590 -1948758840 -1998591910</internalNodes>
          <leafValues>
            -4.9879512190818787e-01 2.3276497423648834e-01</leafValues></_>
        <_>
          <internalNodes>
            0 -1 179 -485820890 -1035917181 -459786697 -451755152
            1989147630 -2004672205 2000368290 -113294235</internalNodes>
          <leafValues>
            -3.9214840531349182e-01 3.0893945693969727e-01</leafValues></_>
        <_>
          <internalNodes>
            0 -1 244 -653183216 -245680587 1389714940 827826542
            -336713590 -104200166 -1165090054 -1197249906</internalNodes>
          <leafValues>
            -3.5830882191658020e-01 3.4406900405883789e-01</leafValues></_>
        <_>
          <internalNodes>
            0 -1 186 -968941533 50679857 -1424883432 -1280085222
            2031686064 -1439362541 -1475778081 -480084610</internalNodes>
          <leafValues>
            -3.7931635975837708e-01 3.0475714802742004e-01</leafValues></_></weakClassifiers></_>
    <!-- stage 6 -->
    <_>
      <maxWeakCount>13</maxWeakCount>
      <stageThreshold>-8.2327783107757568e-01</stageThreshold>
      <weakClassifiers>
        <_>
          <internalNodes>
            0 -1 147 -226498010 585100271 -218170626 -218308641
            -134238340 1744826367 -1041773459 1710227275</internalNodes>
          <leafValues>
            -3.8919776678085327e-01 4.7726631164550781e-01</leafValues></_>
        <_>
          <internalNodes>
            0 -1 51 -721031554 -545155305 -701317289 -206316735
            -728904033 -2052721854 -737181777 -2135972258</internalNodes>
          <leafValues>
            -3.5892203450202942e-01 3.5296398401260376e-01</leafValues></_>
        <_>
          <internalNodes>
            0 -1 203 -1573402097 -1058702339 -492717893 -209588757
            1932948275 1142313708 -495893473 1945270143</internalNodes>
          <leafValues>
            -4.0301978588104248e-01 2.8415015339851379e-01</leafValues></_>
        <_>
          <internalNodes>
            0 -1 137 -40020103 -1440492773 -38217861 -72106137
            -616671809 -2086005261 -1615888389 -21686448</internalNodes>
          <leafValues>
            -2.8599488735198975e-01 4.0238812565803528e-01</leafValues></_>
        <_>
          <internalNodes>
            0 -1 39 -706947874 -1179266561 -274798113 -2015065302
            -782969377 -1130438753 -738930998 -1048258597</internalNodes>
          <leafValues>
            -4.1422122716903687e-01 2.7331379055976868e-01</leafValues></_>
        <_>
          <internalNodes>
            0 -1 25 -184584528 2031684320 -593523745 1607310014
            -35653397 2080393625 -437406824 2098161443</internalNodes>
          <leafValues>
            -4.2468190193176270e-01 2.7451342344284058e-01</leafValues></_>
        <_>
          <internalNodes>
            0 -1 232 -1292760356 2008692087 585902194 -1306334326
            -1303763121 -8434629 -1557972435 -1141759884</internalNodes>
          <leafValues>
            -4.3223574757575989e-01 2.7606219053268433e-01</leafValues></_>
        <_>
          <internalNodes>
            0 -1 35 1474262518 520370127 1288673629 -1691819138
            -801410568 322243870 -582193079 -1367488678</internalNodes>
          <leafValues>
            -3.8941234350204468e-01 2.9700317978858948e-01</leafValues></_>
        <_>
          <internalNodes>
            0 -1 226 -673453096 -1223473775 867718092 -1170295666
            -106248104 229959730 -136194 -1419250790</internalNodes>
          <leafValues>
            -3.8259059190750122e-01 2.9227146506309509e-01</leafValues></_>
        <_>
          <internalNodes>
            0 -1 3 -564469522 -540816499 1796704832 -1618489152
            -80767809 -101165417 -356984165 430943567</internalNodes>
          <leafValues>
            -3.2260325551033020e-01 3.6035868525505066e-01</leafValues></_>
        <_>
          <internalNodes>
            0 -1 125 -285213091 -117704488 -285212691 -539770296
            1786216255 -587333637 -268959941 -49353</internalNodes>
          <leafValues>
            -2.3419719934463501e-01 4.8513779044151306e-01</leafValues></_>
        <_>
          <internalNodes>
            0 -1 111 -1289754038 383192043 -1898122629 -1332812069
            1107018512 128824101 1626339014 -319822081</internalNodes>
          <leafValues>
            -4.0405032038688660e-01 3.0168697237968445e-01</leafValues></_>
        <_>
          <internalNodes>
            0 -1 197 1044809846 -1419713281 -415813249 1609832959
            139723948 2024167611 379289994 2004287820</internalNodes>
          <leafValues>
            -5.3230303525924683e-01 2.0409750938415527e-01</leafValues></_></weakClassifiers></_>
    <!-- stage 7 -->
    <_>
      <maxWeakCount>14</maxWeakCount>
      <stageThreshold>-9.1070067882537842e-01</stageThreshold>
      <weakClassifiers>
        <_>
          <internalNodes>
            0 -1 80 1523109102 1409006527 2121969343 2066282239
            -589701986 -774817961 -458232626 1321979594</internalNodes>
          <leafValues>
            -2.4960455298423767e-01 4.9526324868202209e-01</leafValues></_>
        <_>
          <internalNodes>
            0 -1 218 -1549103422 -1561359218 -82853409 -1088692590
            571719643 42139656 52400563 389497873</internalNodes>
          <leafValues>
            -4.8053005337715149e-01 2.5987547636032104e-01</leafValues></_>
        <_>
          <internalNodes>
            0 -1 117 1715383851 55295253 -468334989 1176493439
            1942549256 61369856 2004301638 1985478330</internalNodes>
          <leafValues>
            -5.3496289253234863e-01 2.0070990920066833e-01</leafValues></_>
        <_>
          <internalNodes>
            0 -1 44 807061736 -134253899 -1660858079 -4963268 680202474
            -341104402 139735465 -713819492</internalNodes>
          <leafValues>
            -3.5406115651130676e-01 3.0459874868392944e-01</leafValues></_>
        <_>
          <internalNodes>
            0 -1 126 1930877110 949881474 1209404196 965345344
            -2125478403 -654574085 -873474607 151995717</internalNodes>
          <leafValues>
            -5.0904899835586548e-01 2.0338660478591919e-01</leafValues></_>
        <_>
          <internalNodes>
            0 -1 133 -921466320 -214396880 -1587805839 -1077960008
            -25183491 -17126977 -589603819 -551857839</internalNodes>
          <leafValues>
            -3.6346137523651123e-01 2.9984205961227417e-01</leafValues></_>
        <_>
          <internalNodes>
            0 -1 112 -68456579 2005298983 -688427269 -76021973
            -654383874 -940651010 -588810817 -14201777</internalNodes>
          <leafValues>
            -2.6595729589462280e-01 4.5753803849220276e-01</leafValues></_>
        <_>
          <internalNodes>
            0 -1 19 -740303394 -540290298 509324286 -1422564736
            -36713510 -1080190523 -1661629794 -1998918946</internalNodes>
          <leafValues>
            -3.7883073091506958e-01 3.0400982499122620e-01</leafValues></_>
        <_>
          <internalNodes>
            0 -1 66 -89999030 -1871170848 396296448 -571788992
            1458896890 -1364461577 -153871215 -102425125</internalNodes>
          <leafValues>
            -3.5236808657646179e-01 3.3088150620460510e-01</leafValues></_>
        <_>
          <internalNodes>
            0 -1 176 -97081291 -541372745 -8487054 -210698506 -4723289
            -823759193 769117195 -800229</internalNodes>
          <leafValues>
            -2.8254327178001404e-01 4.1328310966491699e-01</leafValues></_>
        <_>
          <internalNodes>
            0 -1 182 -261692914 -756552150 -427852042 -101302675
            1904161619 -864780465 1945592599 -13640110</internalNodes>
          <leafValues>
            -3.2158589363098145e-01 3.6526623368263245e-01</leafValues></_>
        <_>
          <internalNodes>
            0 -1 243 -738209072 821223424 1617801256 -1047924514
            -566211076 543411629 -1304124689 -749481269</internalNodes>
          <leafValues>
            -2.7073058485984802e-01 4.2036744952201843e-01</leafValues></_>
        <_>
          <internalNodes>
            0 -1 145 1557462805 -494935667 910828527 -740485893
            1607103923 -976005099 -757433394 -89329820</internalNodes>
          <leafValues>
            -3.4396734833717346e-01 3.2118630409240723e-01</leafValues></_>
        <_>
          <internalNodes>
            0 -1 241 -72596648 964140127 1462129690 959688828
            -1516487686 -1105487722 -1180910657 -229705558</internalNodes>
          <leafValues>
            -3.4394013881683350e-01 3.3930659294128418e-01</leafValues></_></weakClassifiers></_>
    <!-- stage 8 -->
    <_>
      <maxWeakCount>16</maxWeakCount>
      <stageThreshold>-1.2256119251251221e+00</stageThreshold>
      <weakClassifiers>
        <_>
          <internalNodes>
            0 -1 175 1810399477 -823503492 -1560860993 -1573620481
            -4655107 -1096582145 1442566396 1865368820</internalNodes>
          <leafValues>
            -2.6631015539169312e-01 4.6313464641571045e-01</leafValues></_>
        <_>
          <internalNodes>
            0 -1 122 -270571913 745458555 1855286735 -1086885441
            1372273342 220901157 -7132534 807336250</internalNodes>
          <leafValues>
            -4.4029897451400757e-01 2.7096551656723022e-01</leafValues></_>
        <_>
          <internalNodes>
            0 -1 148 -805523855 343025489 -161165138 -170493690
            -834823951 -868289749 -286858033 2100556547</internalNodes>
          <leafValues>
            -4.0297022461891174e-01 2.7262270450592041e-01</leafValues></_>
        <_>
          <internalNodes>
            0 -1 78 -71613360 -146184466 -1082140321 -11926115 -50647556
            -142632228 2128682493 -4715012</internalNodes>
          <leafValues>
            -3.0365186929702759e-01 3.5635116696357727e-01</leafValues></_>
        <_>
          <internalNodes>
            0 -1 168 -946339951 -574649433 -987329069 -939538015
            -810289185 -1896952817 256335639 -808467217</internalNodes>
          <leafValues>
            -2.4206633865833282e-01 4.2288336157798767e-01</leafValues></_>
        <_>
          <internalNodes>
            0 -1 240 -145237163 1440177047 -153651865 -176685061
            -151276872 -14690460 -1157910902 -71848310</internalNodes>
          <leafValues>
            -2.6118764281272888e-01 4.1942539811134338e-01</leafValues></_>
        <_>
          <internalNodes>
            0 -1 163 -462625242 1362179106 1985327930 292501158
            1285589692 536452593 438548458 967832575</internalNodes>
          <leafValues>
            -3.9850568771362305e-01 2.7604132890701294e-01</leafValues></_>
        <_>
          <internalNodes>
            0 -1 127 -1307787290 1120352772 945148450 2069703168
            -1341677602 1254754222 -220623890 -3600256</internalNodes>
          <leafValues>
            -3.2068842649459839e-01 3.4314808249473572e-01</leafValues></_>
        <_>
          <internalNodes>
            0 -1 183 -297447549 1661625750 -520353090 1916137154
            -398599173 -1372944376 -917148948 954702416</internalNodes>
          <leafValues>
            -3.9278694987297058e-01 2.6879757642745972e-01</leafValues></_>
        <_>
          <internalNodes>
            0 -1 105 2145086185 -1040682686 -1444984689 -1166179635
            2069263301 573514459 -1354802232 1032537931</internalNodes>
          <leafValues>
            -3.8908475637435913e-01 2.6161560416221619e-01</leafValues></_>
        <_>
          <internalNodes>
            0 -1 67 -238115049 1031379381 -1329414000 288745324
            -535303106 -1195639922 -1365258030 163538118</internalNodes>
          <leafValues>
            -3.7434068322181702e-01 2.8672781586647034e-01</leafValues></_>
        <_>
          <internalNodes>
            0 -1 55 905738656 320277349 -682156897 400620390 -199315265
            2069178613 -1124161140 777451731</internalNodes>
          <leafValues>
            -4.3076556921005249e-01 2.6325961947441101e-01</leafValues></_>
        <_>
          <internalNodes>
            0 -1 192 -483938465 2063427126 -809855062 -136460599
            -2047656460 -89081858 213715694 -4220743</internalNodes>
          <leafValues>
            -2.6144763827323914e-01 4.4431310892105103e-01</leafValues></_>
        <_>
          <internalNodes>
            0 -1 8 -10843405 -547698100 -1470043395 -853480813 -36865
            -541094511 -281310466 -5268550</internalNodes>
          <leafValues>
            -1.9891606271266937e-01 5.2707564830780029e-01</leafValues></_>
        <_>
          <internalNodes>
            0 -1 202 -711528036 -1221092579 1568064447 -1614872150
            -672205356 -518577275 -640799761 1147077395</internalNodes>
          <leafValues>
            -4.4354122877120972e-01 2.4261592328548431e-01</leafValues></_>
        <_>
          <internalNodes>
            0 -1 245 -14944267 -140799113 1035811837 1922905948
            -1081366327 1073134573 -1457256276 -642118456</internalNodes>
          <leafValues>
            -2.5711882114410400e-01 4.2479473352432251e-01</leafValues></_></weakClassifiers></_>
    <!-- stage 9 -->
    <_>
      <maxWeakCount>16</maxWeakCount>
      <stageThreshold>-7.3907637596130371e-01</stageThreshold>
      <weakClassifiers>
        <_>
          <internalNodes>
            0 -1 115 -167791241 -1845783177 -288323 -1610719462
            -136381026 -1988821163 -1241754284 -1662600654</internalNodes>
          <leafValues>
            -1.4934544265270233e-01 5.0520741939544678e-01</leafValues></_>
        <_>
          <internalNodes>
            0 -1 200 -215494105 -1145061768 -218171685 -219686059
            1093628495 1375621071 53913645 -205595265</internalNodes>
          <leafValues>
            -2.6744565367698669e-01 3.6094284057617188e-01</leafValues></_>
        <_>
          <internalNodes>
            0 -1 90 -277645557 277654387 -619473325 -1084356197
            1082880530 256836385 1597858614 334950399</internalNodes>
          <leafValues>
            -4.2865598201751709e-01 2.2657181322574615e-01</leafValues></_>
        <_>
          <internalNodes>
            0 -1 222 -298972570 1049504311 -160023020 1049534647
            -24422593 -82376443 -81797293 813116160</internalNodes>
          <leafValues>
            -4.9847275018692017e-01 1.8172034621238708e-01</leafValues></_>
        <_>
          <internalNodes>
            0 -1 227 -1057501686 2071921294 -1463224806 2045077004
            -1385749372 968242597 1979766718 -263718129</internalNodes>
          <leafValues>
            -2.9322481155395508e-01 3.2330760359764099e-01</leafValues></_>
        <_>
          <internalNodes>
            0 -1 5 -16845833 -243474621 -125550800 -72085472 -1640449
            -71897201 -536903782 -1100280</internalNodes>
          <leafValues>
            -2.8016996383666992e-01 3.6521524190902710e-01</leafValues></_>
        <_>
          <internalNodes>
            0 -1 54 1594053593 -600093059 1579645245 -590445557
            -277101357 2105494575 2009071614 -21030898</internalNodes>
          <leafValues>
            -2.7092608809471130e-01 3.7436518073081970e-01</leafValues></_>
        <_>
          <internalNodes>
            0 -1 146 -807460584 -1987098366 -872005114 -659606720
            -2116652632 1166254249 -7472151 -572164267</internalNodes>
          <leafValues>
            -3.4003457427024841e-01 3.2033088803291321e-01</leafValues></_>
        <_>
          <internalNodes>
            0 -1 223 -134218755 882373746 -1411391617 2104598751
            -84434955 -1143759121 -1469085056 -1140914454</internalNodes>
          <leafValues>
            -2.4437925219535828e-01 3.8401475548744202e-01</leafValues></_>
        <_>
          <internalNodes>
            0 -1 160 -265571150 -89461010 -1090576525 -206888434
            -43113202 -588380504 2146508771 -82064134</internalNodes>
          <leafValues>
            -2.3984633386135101e-01 4.2370498180389404e-01</leafValues></_>
        <_>
          <internalNodes>
            0 -1 61 507184352 -2117368756 1349976201 -1076914400
            -1187501383 -761283638 469336568 547707571</internalNodes>
          <leafValues>
            -3.8969805836677551e-01 2.7247214317321777e-01</leafValues></_>
        <_>
          <internalNodes>
            0 -1 238 -82849598 -253187804 1646264448 -1310511786
            -514291968 121834372 127185578 -1185</internalNodes>
          <leafValues>
            -2.9534736275672913e-01 3.5032066702842712e-01</leafValues></_>
        <_>
          <internalNodes>
            0 -1 92 -874516045 -2011283324 1527848300 -1336540730
            1488233042 -835998973 -710813284 1358260235</internalNodes>
          <leafValues>
            -4.3883436918258667e-01 2.4269489943981171e-01</leafValues></_>
        <_>
          <internalNodes>
            0 -1 136 1398374116 -1264935014 165075883 -1891103779
            1940256472 -2009022154 -102194230 1488762843</internalNodes>
          <leafValues>
            -3.7729495763778687e-01 2.4664469063282013e-01</leafValues></_>
        <_>
          <internalNodes>
            0 -1 91 -1313163841 592392509 -880667219 -2024997377
            -1201362289 -1157689355 1750201020 1006367658</internalNodes>
          <leafValues>
            -3.3555635809898376e-01 2.9455548524856567e-01</leafValues></_>
        <_>
          <internalNodes>
            0 -1 94 -1022720240 -1821134566 -888923815 958112150
            -754500715 1093888747 -1017789999 -1755475621</internalNodes>
          <leafValues>
            -3.6923080682754517e-01 2.7398908138275146e-01</leafValues></_></weakClassifiers></_>
    <!-- stage 10 -->
    <_>
      <maxWeakCount>18</maxWeakCount>
      <stageThreshold>-1.2459743022918701e+00</stageThreshold>
      <weakClassifiers>
        <_>
          <internalNodes>
            0 -1 193 1056812105 -1677870659 1873635625 -1380250502
            2146385077 -1075446091 -829444935 1877934352</internalNodes>
          <leafValues>
            -2.1644017100334167e-01 4.6377032995223999e-01</leafValues></_>
        <_>
          <internalNodes>
            0 -1 141 -13142149 -1426112515 -89703299 -835617 -13144013
            -1414332441 -25182467 -420595912</internalNodes>
          <leafValues>
            -2.5044736266136169e-01 3.6316400766372681e-01</leafValues></_>
        <_>
          <internalNodes>
            0 -1 120 -543727781 1441725918 -1342264198 -41943206
            -1103114848 -301990538 -843359023 -101204050</internalNodes>
          <leafValues>
            -2.4742792546749115e-01 3.9233770966529846e-01</leafValues></_>
        <_>
          <internalNodes>
            0 -1 118 -387453407 -1716866128 538232631 -1443965009
            -55329865 -324145246 -17685810 -1394093217</internalNodes>
          <leafValues>
            -3.1000217795372009e-01 2.9356732964515686e-01</leafValues></_>
        <_>
          <internalNodes>
            0 -1 159 -739295330 -783912451 -1348526082 602737320
            -549125672 991557686 -2117750 -1073762376</internalNodes>
          <leafValues>
            -3.5185763239860535e-01 2.4483080208301544e-01</leafValues></_>
        <_>
          <internalNodes>
            0 -1 135 1576204504 1060871638 757599581 -1525629473
            -36119585 -1794123000 -35214351 -593834978</internalNodes>
          <leafValues>
            -3.4661647677421570e-01 2.7494841814041138e-01</leafValues></_>
        <_>
          <internalNodes>
            0 -1 214 -67201281 443886208 1055581114 2144858630 33265084
            1029486581 1170716304 -105417769</internalNodes>
          <leafValues>
            -2.5953650474548340e-01 3.5604670643806458e-01</leafValues></_>
        <_>
          <internalNodes>
            0 -1 152 -435035633 80011328 -1240007778 -266938981
            -16579811 1803429802 -1465127992 2012130275</internalNodes>
          <leafValues>
            -4.4565638899803162e-01 2.2997036576271057e-01</leafValues></_>
        <_>
          <internalNodes>
            0 -1 201 1682771685 -481344586 1947548669 -1528328126
            1868389351 147388599 1785473615 1869033332</internalNodes>
          <leafValues>
            -3.8827186822891235e-01 2.3207405209541321e-01</leafValues></_>
        <_>
          <internalNodes>
            0 -1 205 -1183351876 -686779115 -413160005 -1590514022
            -373298288 -333626788 -1342180698 8813798</internalNodes>
          <leafValues>
            -4.7194179892539978e-01 1.9238241016864777e-01</leafValues></_>
        <_>
          <internalNodes>
            0 -1 95 -176161151 -167789345 -424809505 -33756325
            -269500929 -743048513 -295724133 -838877409</internalNodes>
          <leafValues>
            -1.8270984292030334e-01 5.3291201591491699e-01</leafValues></_>
        <_>
          <internalNodes>
            0 -1 68 -1550933206 160375050 -2129066332 1405464913
            -1354070086 537009559 -4013899 903972528</internalNodes>
          <leafValues>
            -3.9176821708679199e-01 2.3030827939510345e-01</leafValues></_>
        <_>
          <internalNodes>
            0 -1 79 2002771574 2015839753 537349167 1892157486
            -149272800 1064510515 -523616200 1004489994</internalNodes>
          <leafValues>
            -4.0008816123008728e-01 2.2934988141059875e-01</leafValues></_>
        <_>
          <internalNodes>
            0 -1 45 -1818764837 -1835037354 -1655417763 -102316330
            -1499766334 -1902157902 -720193461 1463296340</internalNodes>
          <leafValues>
            -3.5922041535377502e-01 2.6027682423591614e-01</leafValues></_>
        <_>
          <internalNodes>
            0 -1 190 1165842935 -674624892 1060830838 -79089923
            1568503646 1574895100 721313333 -1109537387</internalNodes>
          <leafValues>
            -2.5498032569885254e-01 3.9373674988746643e-01</leafValues></_>
        <_>
          <internalNodes>
            0 -1 179 -1099505054 -1536253813 -265749921 -147689356
            2065693670 -1296898261 -1218480794 -69765848</internalNodes>
          <leafValues>
            -3.5650557279586792e-01 2.7005496621131897e-01</leafValues></_>
        <_>
          <internalNodes>
            0 -1 181 -96228825 -1792440658 -3938361 -1308579831
            1663651695 27453103 -1457412629 -409781776</internalNodes>
          <leafValues>
            -3.1572669744491577e-01 3.2649880647659302e-01</leafValues></_>
        <_>
          <internalNodes>
            0 -1 237 -69625893 -746586164 1173800625 -984649731
            -1160057188 -619354395 -1182750294 -68449206</internalNodes>
          <leafValues>
            -2.1393750607967377e-01 4.5237129926681519e-01</leafValues></_></weakClassifiers></_>
    <!-- stage 11 -->
    <_>
      <maxWeakCount>19</maxWeakCount>
      <stageThreshold>-8.9948493242263794e-01</stageThreshold>
      <weakClassifiers>
        <_>
          <internalNodes>
            0 -1 86 -1619068109 325057645 -1375765126 -1373656138
            1878791934 -2028472417 2012501362 1384120190</internalNodes>
          <leafValues>
            -2.2657342255115509e-01 4.5222550630569458e-01</leafValues></_>
        <_>
          <internalNodes>
            0 -1 32 -688209698 1610243903 -545544747 -144973345
            -677586982 -575628613 -1901982326 -2069178626</internalNodes>
          <leafValues>
            -3.6421504616737366e-01 2.7061137557029724e-01</leafValues></_>
        <_>
          <internalNodes>
            0 -1 64 -1246773144 1204809548 -1121385919 -540071803
            -1170213121 -1550598878 -1433425665 -1983014739</internalNodes>
          <leafValues>
            -2.9845619201660156e-01 3.1248000264167786e-01</leafValues></_>
        <_>
          <internalNodes>
            0 -1 210 2024428620 1822068922 -191056002 2082276743
            -1156582725 -4221954 -283936953 503301061</internalNodes>
          <leafValues>
            -3.7283498048782349e-01 2.3049391806125641e-01</leafValues></_>
        <_>
          <internalNodes>
            0 -1 34 2147340338 1509269710 -1172356309 1574897563
            -67349061 -87024918 -36432853 870479578</internalNodes>
          <leafValues>
            -3.2968479394912720e-01 2.6434403657913208e-01</leafValues></_>
        <_>
          <internalNodes>
            0 -1 199 498762960 1657781947 856585174 -205489251 152448954
            -243772917 1600811113 1005740391</internalNodes>
          <leafValues>
            -4.8955398797988892e-01 1.6733549535274506e-01</leafValues></_>
        <_>
          <internalNodes>
            0 -1 213 -27335117 -857266302 1125610623 1043243758
            1775993682 8436724 -52141644 963770095</internalNodes>
          <leafValues>
            -3.3779886364936829e-01 2.6560342311859131e-01</leafValues></_>
        <_>
          <internalNodes>
            0 -1 59 -19038672 -180549944 -179306497 -252924728
            -122834253 364743313 -224807911 -167837182</internalNodes>
          <leafValues>
            -3.4835225343704224e-01 2.5518023967742920e-01</leafValues></_>
        <_>
          <internalNodes>
            0 -1 93 -1322076398 845127096 -888975934 732803334
            -1572671750 -1161876803 -1191137354 2145764551</internalNodes>
          <leafValues>
            -3.4270092844963074e-01 2.4193964898586273e-01</leafValues></_>
        <_>
          <internalNodes>
            0 -1 84 1509741982 -1785032422 -1536647201 -1782667894
            -689963554 -55594026 -1326915634 77303574</internalNodes>
          <leafValues>
            -4.1782656311988831e-01 2.2541528940200806e-01</leafValues></_>
        <_>
          <internalNodes>
            0 -1 219 1074776303 -2097688600 -427137466 -1846160021
            -1453600785 -1063780601 -12724445 -138426521</internalNodes>
          <leafValues>
            -2.4738442897796631e-01 3.5469636321067810e-01</leafValues></_>
        <_>
          <internalNodes>
            0 -1 174 -246570 211787950 273685086 -100073294 -1416346409
            -629027711 -1280623719 -1346424928</internalNodes>
          <leafValues>
            -3.5381144285202026e-01 2.3777440190315247e-01</leafValues></_>
        <_>
          <internalNodes>
            0 -1 183 -865784192 1174831586 1182531995 -203073071
            -355173411 -1164013439 -866385652 829760722</internalNodes>
          <leafValues>
            -4.2765754461288452e-01 2.1402627229690552e-01</leafValues></_>
        <_>
          <internalNodes>
            0 -1 17 -13181346 1432314479 1692404717 1062268271
            -214958408 -1851808819 -84409813 2144695139</internalNodes>
          <leafValues>
            -3.2391005754470825e-01 2.7548763155937195e-01</leafValues></_>
        <_>
          <internalNodes>
            0 -1 246 -1698741424 -220233031 -1039060863 961530349
            -84872564 -1102478556 -543650936 1364660378</internalNodes>
          <leafValues>
            -3.5282838344573975e-01 2.5088754296302795e-01</leafValues></_>
        <_>
          <internalNodes>
            0 -1 30 3807029 262779381 695500804 41751572 -1741862584
            752541708 -1311828144 -235074272</internalNodes>
          <leafValues>
            -3.7808462977409363e-01 2.3714084923267365e-01</leafValues></_>
        <_>
          <internalNodes>
            0 -1 231 -81011549 -68558137 1729756750 1404380141
            -1436435221 -900874689 -1947283650 -139687</internalNodes>
          <leafValues>
            -1.7764906585216522e-01 4.8956543207168579e-01</leafValues></_>
        <_>
          <internalNodes>
            0 -1 206 2125972215 1056854653 1793765866 -203549330
            -105578335 -274167677 793495869 -370698332</internalNodes>
          <leafValues>
            -2.8894361853599548e-01 3.0943083763122559e-01</leafValues></_>
        <_>
          <internalNodes>
            0 -1 57 -1233243961 -1818225889 -44718449 -1929190462
            -628394593 68828090 -820106526 1853816707</internalNodes>
          <leafValues>
            -3.2508978247642517e-01 2.8589552640914917e-01</leafValues></_></weakClassifiers></_>
    <!-- stage 12 -->
    <_>
      <maxWeakCount>18</maxWeakCount>
      <stageThreshold>-9.4942438602447510e-01</stageThreshold>
      <weakClassifiers>
        <_>
          <internalNodes>
            0 -1 195 984156765 -97801303 775425933 -1107371092
            -1360467031 1174077374 1018705471 1572556884</internalNodes>
          <leafValues>
            -2.5586676597595215e-01 4.4208106398582458e-01</leafValues></_>
        <_>
          <internalNodes>
            0 -1 155 1686104866 136217506 1745739279 -16849458
            -131409698 1562292519 -368580056 1151789925</internalNodes>
          <leafValues>
            -5.6275039911270142e-01 1.6566699743270874e-01</leafValues></_>
        <_>
          <internalNodes>
            0 -1 75 1915181588 991911283 101482303 976115479 -743483916
            -1092379769 -542208600 772490496</internalNodes>
          <leafValues>
            -4.2857795953750610e-01 1.9898506999015808e-01</leafValues></_>
        <_>
          <internalNodes>
            0 -1 156 -153682081 -135827506 -1050247 -102892077
            -548481753 -16781378 -725333 -4226</internalNodes>
          <leafValues>
            -1.7865939438343048e-01 5.2136272192001343e-01</leafValues></_>
        <_>
          <internalNodes>
            0 -1 82 -84608058 -1053890175 442037206 -1727213619
            -218181195 61838236 -240284705 205235127</internalNodes>
          <leafValues>
            -3.3273640275001526e-01 2.5914409756660461e-01</leafValues></_>
        <_>
          <internalNodes>
            0 -1 157 -897847757 169579827 1275182351 -807299578
            -1682759629 -1643660621 -392591582 -1259121725</internalNodes>
          <leafValues>
            -3.4794825315475464e-01 2.4215899407863617e-01</leafValues></_>
        <_>
          <internalNodes>
            0 -1 36 -93839521 1610528703 -1141657810 -269616558
            -547884066 480114646 -272580724 -21119233</internalNodes>
          <leafValues>
            -2.4089440703392029e-01 3.5588213801383972e-01</leafValues></_>
        <_>
          <internalNodes>
            0 -1 194 -1426330872 -792794800 -807141794 -683857302
            -579863623 -100739620 59624298 -805321487</internalNodes>
          <leafValues>
            -2.7240204811096191e-01 2.9439571499824524e-01</leafValues></_>
        <_>
          <internalNodes>
            0 -1 154 1981241132 -259289080 -166683330 -981478701
            1435980176 -512509311 -5606050 -1782810948</internalNodes>
          <leafValues>
            -3.3698272705078125e-01 2.5344839692115784e-01</leafValues></_>
        <_>
          <internalNodes>
            0 -1 236 -210833856 1455463802 -25890760 2079306350
            -1290423160 1509254596 -76748150 -221779410</internalNodes>
          <leafValues>
            -2.8425613045692444e-01 3.0562371015548706e-01</leafValues></_>
        <_>
          <internalNodes>
            0 -1 149 -58151419 -719783001 -93828925 -211557944
            1077536140 -960438166 1655368674 -275911859</internalNodes>
          <leafValues>
            -2.9824748635292053e-01 2.9577538371086121e-01</leafValues></_>
        <_>
          <internalNodes>
            0 -1 83 -815380717 1401037730 -1407217040 -630128373
            -572641120 1137679275 -1959871243 240595431</internalNodes>
          <leafValues>
            -3.5912653803825378e-01 2.5570911169052124e-01</leafValues></_>
        <_>
          <internalNodes>
            0 -1 161 -1283774146 1408208393 1979186793 -236125139
            -1879599700 -644538511 -847640586 -1899355</internalNodes>
          <leafValues>
            -2.6296749711036682e-01 3.4453764557838440e-01</leafValues></_>
        <_>
          <internalNodes>
            0 -1 74 -721892134 1179807046 -2126092537 -458717246
            -541041390 -931121135 -726445704 -2069872400</internalNodes>
          <leafValues>
            -4.8188433051109314e-01 1.9502842426300049e-01</leafValues></_>
        <_>
          <internalNodes>
            0 -1 9 -654575937 2130701924 522599487 -67103326 -1196755202
            -1097174220 -1437626949 -269517777</internalNodes>
          <leafValues>
            -2.1982742846012115e-01 4.0312930941581726e-01</leafValues></_>
        <_>
          <internalNodes>
            0 -1 224 1430147989 829797857 -296267905 262973564
            -346047499 -1075069269 -2010740056 -268465712</internalNodes>
          <leafValues>
            -2.7452757954597473e-01 3.2931488752365112e-01</leafValues></_>
        <_>
          <internalNodes>
            0 -1 70 533438977 24783517 -1878767024 732617326 -1609276252
            212840639 -468814516 905966775</internalNodes>
          <leafValues>
            -3.9057508111000061e-01 2.3539279401302338e-01</leafValues></_>
        <_>
          <internalNodes>
            0 -1 113 -29381081 -2074850838 -6425680 1002225991
            1781097267 1713316107 1762896809 -1156628509</internalNodes>
          <leafValues>
            -3.6174297332763672e-01 2.4154688417911530e-01</leafValues></_></weakClassifiers></_>
    <!-- stage 13 -->
    <_>
      <maxWeakCount>19</maxWeakCount>
      <stageThreshold>-1.1986472606658936e+00</stageThreshold>
      <weakClassifiers>
        <_>
          <internalNodes>
            0 -1 42 276813087 1938603503 -1107624072 846659454
            -998944730 -2084735675 1431588893 1407188988</internalNodes>
          <leafValues>
            -1.9042590260505676e-01 4.3512353301048279e-01</leafValues></_>
        <_>
          <internalNodes>
            0 -1 198 7335541 -1226834433 -1608261851 -28969615
            1728829925 177762008 897525825 -2409376</internalNodes>
          <leafValues>
            -3.1661158800125122e-01 2.8094211220741272e-01</leafValues></_>
        <_>
          <internalNodes>
            0 -1 7 -25244417 -9472044 -704602497 520140317 -4203585
            -1098942020 -437613377 -9541</internalNodes>
          <leafValues>
            -1.8808455765247345e-01 4.3348357081413269e-01</leafValues></_>
        <_>
          <internalNodes>
            0 -1 221 -454146398 -388116857 -327030925 2111372015
            -954129805 1679233283 -494945473 997384890</internalNodes>
          <leafValues>
            -3.8174444437026978e-01 2.1726602315902710e-01</leafValues></_>
        <_>
          <internalNodes>
            0 -1 189 1568472863 1006048175 -100886761 -71355562
            -574750770 805269469 -638189618 1509949263</internalNodes>
          <leafValues>
            -2.6534515619277954e-01 3.2082134485244751e-01</leafValues></_>
        <_>
          <internalNodes>
            0 -1 73 -583472514 1026452894 -820712677 -1708540133
            -172438646 -1930790890 1167377483 -2068191702</internalNodes>
          <leafValues>
            -3.0203413963317871e-01 2.7767440676689148e-01</leafValues></_>
        <_>
          <internalNodes>
            0 -1 142 -67169519 188155701 1899966887 -13481007
            -1047953106 -1758520431 -619081543 -212634892</internalNodes>
          <leafValues>
            -3.0579698085784912e-01 2.8702098131179810e-01</leafValues></_>
        <_>
          <internalNodes>
            0 -1 21 -1242364624 903924615 1470893936 -553139456
            889455036 68158511 -82383447 789575153</internalNodes>
          <leafValues>
            -3.3715355396270752e-01 2.4615357816219330e-01</leafValues></_>
        <_>
          <internalNodes>
            0 -1 89 -1809854079 -143143463 -456154134 -186992680
            -437023245 -1073751825 -1348828939 -1017680824</internalNodes>
          <leafValues>
            -3.1304877996444702e-01 2.6627272367477417e-01</leafValues></_>
        <_>
          <internalNodes>
            0 -1 203 -206051786 -579114355 851442427 1939996255
            -226535565 1433731071 -965227915 -9240641</internalNodes>
          <leafValues>
            -2.5707837939262390e-01 3.5083591938018799e-01</leafValues></_>
        <_>
          <internalNodes>
            0 -1 144 755903677 475565403 -225368008 1451285 823814901
            277893891 -1478301524 774049322</internalNodes>
          <leafValues>
            -4.7230976819992065e-01 2.0296646654605865e-01</leafValues></_>
        <_>
          <internalNodes>
            0 -1 166 -41948556 -598771243 246396895 -1156065193
            -2134990416 983610826 -1862416524 -637807155</internalNodes>
          <leafValues>
            -3.3594569563865662e-01 2.4033108353614807e-01</leafValues></_>
        <_>
          <internalNodes>
            0 -1 69 -282700877 1975451135 1064283872 1034250407
            1983576827 -622903297 -118041089 -604650505</internalNodes>
          <leafValues>
            -1.8766684830188751e-01 4.2274361848831177e-01</leafValues></_>
        <_>
          <internalNodes>
            0 -1 50 -870457771 1012186711 -1793667221 -1182251265
            -58065671 795936365 1782442363 985034498</internalNodes>
          <leafValues>
            -3.1627914309501648e-01 2.6199728250503540e-01</leafValues></_>
        <_>
          <internalNodes>
            0 -1 225 -2083914318 399049942 -665839432 -1238847808
            -1251712986 906168280 -1486825649 -544476865</internalNodes>
          <leafValues>
            -3.2579696178436279e-01 2.6682841777801514e-01</leafValues></_>
        <_>
          <internalNodes>
            0 -1 62 -1212977575 -1195835519 -1879114129 -260 -285389217
            -858103955 -50889601 -1113074755</internalNodes>
          <leafValues>
            -2.0969092845916748e-01 3.8553911447525024e-01</leafValues></_>
        <_>
          <internalNodes>
            0 -1 130 -324796965 855606224 -1137955929 968693685
            -292051209 -1095397985 1733653728 -2124297</internalNodes>
          <leafValues>
            -2.2560028731822968e-01 3.8549190759658813e-01</leafValues></_>
        <_>
          <internalNodes>
            0 -1 0 2019225399 -1470464651 -1397031137 -298432458
            -1840917519 1063752757 -1066172821 -327789536</internalNodes>
          <leafValues>
            -2.6822397112846375e-01 3.0876633524894714e-01</leafValues></_>
        <_>
          <internalNodes>
            0 -1 242 2147422456 2079569466 908981929 828708598
            -707987796 554817090 -375849057 -79459766</internalNodes>
          <leafValues>
            -2.6924297213554382e-01 3.2964584231376648e-01</leafValues></_></weakClassifiers></_>
    <!-- stage 14 -->
    <_>
      <maxWeakCount>19</maxWeakCount>
      <stageThreshold>-1.1329933404922485e+00</stageThreshold>
      <weakClassifiers>
        <_>
          <internalNodes>
            0 -1 60 -105128157 -707788954 -47260161 1207938442
            -234965516 531569979 -34013967 983967153</internalNodes>
          <leafValues>
            -1.4329737424850464e-01 4.5082610845565796e-01</leafValues></_>
        <_>
          <internalNodes>
            0 -1 100 1462691757 331255551 725603759 -578821 2134373118
            -1314837 353358284 466613639</internalNodes>
          <leafValues>
            -2.6217702031135559e-01 2.9691079258918762e-01</leafValues></_>
        <_>
          <internalNodes>
            0 -1 182 -215059909 -605051089 -159650049 -142934466
            -1283509481 -32915 2013265887 -258</internalNodes>
          <leafValues>
            -1.9266483187675476e-01 4.3334630131721497e-01</leafValues></_>
        <_>
          <internalNodes>
            0 -1 180 1801005817 745232418 -27926729 -1157926281
            776994283 2061701763 895251544 950090599</internalNodes>
          <leafValues>
            -3.7965917587280273e-01 1.9681128859519958e-01</leafValues></_>
        <_>
          <internalNodes>
            0 -1 33 1953811918 -626197553 -404353026 1961927950
            -1338114118 -1325755553 -1886615158 351596010</internalNodes>
          <leafValues>
            -4.1036185622215271e-01 2.2335903346538544e-01</leafValues></_>
        <_>
          <internalNodes>
            0 -1 229 -48106304 -1832279560 727053395 -639912828
            178823300 1267032517 535286209 1058096625</internalNodes>
          <leafValues>
            -3.7448558211326599e-01 1.9601131975650787e-01</leafValues></_>
        <_>
          <internalNodes>
            0 -1 188 1789812546 -1567771974 911925312 1350420544
            188187286 -1107292 -270304286 569747556</internalNodes>
          <leafValues>
            -4.6466398239135742e-01 1.5716494619846344e-01</leafValues></_>
        <_>
          <internalNodes>
            0 -1 56 319262651 -1552422979 -98481231 1041118780
            -589955137 1207869238 -218120424 -1888096387</internalNodes>
          <leafValues>
            -2.5087177753448486e-01 3.1174528598785400e-01</leafValues></_>
        <_>
          <internalNodes>
            0 -1 145 1815789381 -1707765997 -1149648916 1362460599
            -134928589 -1891894465 -135563346 -30902429</internalNodes>
          <leafValues>
            -2.7409997582435608e-01 2.9783558845520020e-01</leafValues></_>
        <_>
          <internalNodes>
            0 -1 47 603166631 758071863 2089571316 1430604868 23082986
            448704133 -169741467 1978623858</internalNodes>
          <leafValues>
            -3.6463320255279541e-01 2.2041086852550507e-01</leafValues></_>
        <_>
          <internalNodes>
            0 -1 169 520974312 1961429675 -187225253 -1095817333
            -107256778 -1060427119 -1243936237 -973102117</internalNodes>
          <leafValues>
            -2.9489439725875854e-01 2.8947067260742188e-01</leafValues></_>
        <_>
          <internalNodes>
            0 -1 220 867828400 423763786 2136676147 2002432100
            -1547873383 -1152163047 1999989277 1062535440</internalNodes>
          <leafValues>
            -4.4862148165702820e-01 2.0220184326171875e-01</leafValues></_>
        <_>
          <internalNodes>
            0 -1 1 -1389658625 -1126877331 786648673 -1359600064
            -111313041 -8982785 -128682116 -17420387</internalNodes>
          <leafValues>
            -2.7422904968261719e-01 2.9706415534019470e-01</leafValues></_>
        <_>
          <internalNodes>
            0 -1 65 867030922 881562966 1646144413 -725143467 -922117566
            -1349894246 -1662058461 -594751694</internalNodes>
          <leafValues>
            -2.8604811429977417e-01 2.7211502194404602e-01</leafValues></_>
        <_>
          <internalNodes>
            0 -1 243 -648544554 1808003804 1141021064 1659724490
            -1336901440 2029766660 -1707802742 -767043857</internalNodes>
          <leafValues>
            -2.7258351445198059e-01 2.9454836249351501e-01</leafValues></_>
        <_>
          <internalNodes>
            0 -1 164 -481356998 -77745870 -74655307 -1289685778
            317696648 248647891 -1088066807 998243083</internalNodes>
          <leafValues>
            -2.9116633534431458e-01 2.8011530637741089e-01</leafValues></_>
        <_>
          <internalNodes>
            0 -1 24 -1158278946 -1227573485 -763965907 1869523042
            1645115416 1426734715 -1412930904 539669406</internalNodes>
          <leafValues>
            -4.3686559796333313e-01 2.0612269639968872e-01</leafValues></_>
        <_>
          <internalNodes>
            0 -1 40 353901920 1034753912 -754066523 227220001 1894941572
            17502657 -1162948937 -1996488922</internalNodes>
          <leafValues>
            -3.1031244993209839e-01 2.7110284566879272e-01</leafValues></_>
        <_>
          <internalNodes>
            0 -1 46 -784108688 -570904625 801055201 900402632 543834087
            -1645318217 -92951361 -557387325</internalNodes>
          <leafValues>
            -2.4668575823307037e-01 3.3202597498893738e-01</leafValues></_></weakClassifiers></_>
    <!-- stage 15 -->
    <_>
      <maxWeakCount>20</maxWeakCount>
      <stageThreshold>-9.4449388980865479e-01</stageThreshold>
      <weakClassifiers>
        <_>
          <internalNodes>
            0 -1 172 599469804 -2102784065 -1145405646 34172863 -33303
            -1082687653 -4494020 -1350807228</internalNodes>
          <leafValues>
            -2.4372607469558716e-01 4.1012552380561829e-01</leafValues></_>
        <_>
          <internalNodes>
            0 -1 184 -294393334 537822094 -464132352 1617225236
            2003248437 1194550131 -577642789 1475434498</internalNodes>
          <leafValues>
            -6.0629129409790039e-01 1.4870141446590424e-01</leafValues></_>
        <_>
          <internalNodes>
            0 -1 58 -105921152 217032111 393200141 -542179196
            -1169620509 1371008223 811416527 558203424</internalNodes>
          <leafValues>
            -4.0931648015975952e-01 1.9181190431118011e-01</leafValues></_>
        <_>
          <internalNodes>
            0 -1 139 2071974425 -1840254119 -1593398513 -787877827
            -208939073 -215271677 -1513387894 -1680353005</internalNodes>
          <leafValues>
            -2.4970056116580963e-01 2.9549002647399902e-01</leafValues></_>
        <_>
          <internalNodes>
            0 -1 28 -989934390 -1242207585 -8588146 -1075802354
            -799128497 -457199709 -1393020913 790738190</internalNodes>
          <leafValues>
            -3.2426458597183228e-01 2.3972372710704803e-01</leafValues></_>
        <_>
          <internalNodes>
            0 -1 106 244163769 -967450278 2047779505 805366363
            2117973425 -866143712 1721525040 1733489652</internalNodes>
          <leafValues>
            -3.8259151577949524e-01 1.8761517107486725e-01</leafValues></_>
        <_>
          <internalNodes>
            0 -1 162 -675298349 850651828 2140807423 824730607 -50358785
            1272696798 1928738798 -68195533</internalNodes>
          <leafValues>
            -2.6802775263786316e-01 2.8311321139335632e-01</leafValues></_>
        <_>
          <internalNodes>
            0 -1 4 -256979201 -77091328 1318899711 -1995952776
            -352344067 -138660940 -1023706113 -1096081667</internalNodes>
          <leafValues>
            -2.1165043115615845e-01 3.5442587733268738e-01</leafValues></_>
        <_>
          <internalNodes>
            0 -1 232 1914833654 1474292431 264218 -1442137429 -203214133
            -65381382 -1216102656 1931767824</internalNodes>
          <leafValues>
            -4.2152726650238037e-01 1.7909817397594452e-01</leafValues></_>
        <_>
          <internalNodes>
            0 -1 121 100741920 23366618 3141661 -539499836 -2394331
            -1062252483 -623323720 437880832</internalNodes>
          <leafValues>
            -4.4834488630294800e-01 1.9439396262168884e-01</leafValues></_>
        <_>
          <internalNodes>
            0 -1 131 -142359279 1061081023 -851491963 261081823
            -545289733 1788988501 -334498381 -408958557</internalNodes>
          <leafValues>
            -2.3365063965320587e-01 3.3336472511291504e-01</leafValues></_>
        <_>
          <internalNodes>
            0 -1 211 1685202502 306623536 839418679 -58012754
            -1458111670 286397602 896512779 1909750035</internalNodes>
          <leafValues>
            -4.7356009483337402e-01 1.5085022151470184e-01</leafValues></_>
        <_>
          <internalNodes>
            0 -1 198 -680536137 -406847505 -1224549059 -1640423454
            602914030 -352387107 644852680 -1392917</internalNodes>
          <leafValues>
            -1.6607177257537842e-01 4.7519344091415405e-01</leafValues></_>
        <_>
          <internalNodes>
            0 -1 150 -1342507238 -743703595 805031600 -1612275987
            -8618092 -1043104457 532503883 -165681289</internalNodes>
          <leafValues>
            -2.4362918734550476e-01 3.2738032937049866e-01</leafValues></_>
        <_>
          <internalNodes>
            0 -1 228 -1012743168 823116110 805493344 2085609514
            -1589398272 1433330050 -415192470 1426052327</internalNodes>
          <leafValues>
            -3.2939946651458740e-01 2.3844075202941895e-01</leafValues></_>
        <_>
          <internalNodes>
            0 -1 235 -411786852 -1252943812 590611060 451652166
            -211242162 -242833401 -355666294 860338746</internalNodes>
          <leafValues>
            -3.2678297162055969e-01 2.3558579385280609e-01</leafValues></_>
        <_>
          <internalNodes>
            0 -1 2 283436010 1622426621 -1113149540 -269568910
            1992602789 -1320080913 -1224884734 607425198</internalNodes>
          <leafValues>
            -4.5786133408546448e-01 1.6285470128059387e-01</leafValues></_>
        <_>
          <internalNodes>
            0 -1 123 -900542252 -2136202876 -864923333 349208960
            -866280989 1616631461 -1374713678 979359935</internalNodes>
          <leafValues>
            -4.3701884150505066e-01 1.7981648445129395e-01</leafValues></_>
        <_>
          <internalNodes>
            0 -1 22 -612087480 -582952308 -597115717 -1350030002
            -55578540 1604595761 -317346798 530699731</internalNodes>
          <leafValues>
            -3.8290774822235107e-01 2.1196405589580536e-01</leafValues></_>
        <_>
          <internalNodes>
            0 -1 196 1461896740 -901293602 -1573633043 -2055043857
            1264780984 -1046312775 102949795 1408749651</internalNodes>
          <leafValues>
            -4.1891458630561829e-01 1.7656344175338745e-01</leafValues></_></weakClassifiers></_>
    <!-- stage 16 -->
    <_>
      <maxWeakCount>22</maxWeakCount>
      <stageThreshold>-1.1221839189529419e+00</stageThreshold>
      <weakClassifiers>
        <_>
          <internalNodes>
            0 -1 153 1856906982 -861765641 -285573129 -1414616566
            -34607489 -320372737 -324342066 -2065176766</internalNodes>
          <leafValues>
            -3.4728506207466125e-01 3.8483145833015442e-01</leafValues></_>
        <_>
          <internalNodes>
            0 -1 217 -876875903 -4725064 -2014578817 -279712583
            -1961207125 -877859861 63343266 2004342213</internalNodes>
          <leafValues>
            -2.7570807933807373e-01 3.0667495727539062e-01</leafValues></_>
        <_>
          <internalNodes>
            0 -1 103 1596414791 -644321825 -1085842493 -1074635277
            500944333 -1074033517 1535876488 -138719367</internalNodes>
          <leafValues>
            -2.3193320631980896e-01 3.4868070483207703e-01</leafValues></_>
        <_>
          <internalNodes>
            0 -1 29 -783313201 -768743874 -99035938 -537019960
            -625983282 -1299312437 1445020827 1398383119</internalNodes>
          <leafValues>
            -3.1117984652519226e-01 2.4315705895423889e-01</leafValues></_>
        <_>
          <internalNodes>
            0 -1 97 -1087377875 -341598513 -270012421 -4487057 -13893681
            -822157641 -1074282625 -542118101</internalNodes>
          <leafValues>
            -2.2004301846027374e-01 4.1213265061378479e-01</leafValues></_>
        <_>
          <internalNodes>
            0 -1 90 -276877493 -18583687 -8390953 -8765577 -394304973
            -1882861625 -536905974 -537096418</internalNodes>
          <leafValues>
            -1.9532212615013123e-01 4.0119799971580505e-01</leafValues></_>
        <_>
          <internalNodes>
            0 -1 82 -1097009261 -1815289177 -1495598153 -1110577223
            -186845775 362649492 -503410721 -56387737</internalNodes>
          <leafValues>
            -2.5284084677696228e-01 3.2396560907363892e-01</leafValues></_>
        <_>
          <internalNodes>
            0 -1 124 -242689843 -135266706 -184553674 -237850969
            -268654653 -4527 -38244865 -976271475</internalNodes>
          <leafValues>
            -2.0780313014984131e-01 3.7546062469482422e-01</leafValues></_>
        <_>
          <internalNodes>
            0 -1 134 -84182985 -54954755 -1340660069 -571747233
            -84000382 955099127 -1625543765 -671878213</internalNodes>
          <leafValues>
            -1.9798587262630463e-01 3.8425159454345703e-01</leafValues></_>
        <_>
          <internalNodes>
            0 -1 191 -1807560126 2014374353 -52419432 -1196495101
            1766315467 1061122903 2140928075 2096098211</internalNodes>
          <leafValues>
            -4.1333726048469543e-01 2.0530177652835846e-01</leafValues></_>
        <_>
          <internalNodes>
            0 -1 140 -579033507 -1658035821 -908844458 -1127952241
            -542428751 -543203312 -29953295 -1985494524</internalNodes>
          <leafValues>
            -3.2317936420440674e-01 2.2595392167568207e-01</leafValues></_>
        <_>
          <internalNodes>
            0 -1 20 -1644978280 1990076174 -1242705107 -14223165
            1107171319 -1728417245 -755139827 -1066173781</internalNodes>
          <leafValues>
            -2.6088508963584900e-01 2.9721483588218689e-01</leafValues></_>
        <_>
          <internalNodes>
            0 -1 239 -1640238415 -101993535 -67202475 1971159031
            -1581736870 -273384505 1035992791 -1313547</internalNodes>
          <leafValues>
            -1.9755877554416656e-01 4.1013026237487793e-01</leafValues></_>
        <_>
          <internalNodes>
            0 -1 192 124560132 2138891872 -151366620 -144887 1157084540
            -147259690 254501562 -71577196</internalNodes>
          <leafValues>
            -2.2287376224994659e-01 3.5026523470878601e-01</leafValues></_>
        <_>
          <internalNodes>
            0 -1 15 -654385649 2136876079 545314429 826302399 -184796420
            746045186 -1114931315 -1153966246</internalNodes>
          <leafValues>
            -2.5289928913116455e-01 3.3997592329978943e-01</leafValues></_>
        <_>
          <internalNodes>
            0 -1 85 -2099454080 97763758 -1333040382 -1142778364
            -1546981182 -1713759635 198324545 -1175298652</internalNodes>
          <leafValues>
            -3.4358865022659302e-01 2.3028941452503204e-01</leafValues></_>
        <_>
          <internalNodes>
            0 -1 248 1110893308 1384055289 -2071426808 1439946069
            -2083496040 1935403586 -619533426 -1689039550</internalNodes>
          <leafValues>
            -2.8205150365829468e-01 2.8051313757896423e-01</leafValues></_>
        <_>
          <internalNodes>
            0 -1 165 695447090 17334251 -1401681842 285190734 39093060
            478195693 -18615472 -1134298113</internalNodes>
          <leafValues>
            -3.3624914288520813e-01 2.3150195181369781e-01</leafValues></_>
        <_>
          <internalNodes>
            0 -1 116 -1330794495 566406105 2147459629 -33608989
            -1175998227 -311470090 -290521091 -604004173</internalNodes>
          <leafValues>
            -2.0587125420570374e-01 3.8854160904884338e-01</leafValues></_>
        <_>
          <internalNodes>
            0 -1 186 -545282339 -97386648 -1359069398 -34097283
            1564820988 -732233869 1861824317 -1473257473</internalNodes>
          <leafValues>
            -2.5003534555435181e-01 3.4940338134765625e-01</leafValues></_>
        <_>
          <internalNodes>
            0 -1 10 -506480114 -1122509540 -641756172 -1392816524
            -1579432966 -1142787173 -1125413330 550173620</internalNodes>
          <leafValues>
            -4.1161426901817322e-01 2.1630953252315521e-01</leafValues></_>
        <_>
          <internalNodes>
            0 -1 72 -997509213 398579621 -20094145 -861359346 471302143
            -1766065213 -1285641685 -843026157</internalNodes>
          <leafValues>
            -2.5058579444885254e-01 3.2606714963912964e-01</leafValues></_></weakClassifiers></_>
    <!-- stage 17 -->
    <_>
      <maxWeakCount>20</maxWeakCount>
      <stageThreshold>-8.1757092475891113e-01</stageThreshold>
      <weakClassifiers>
        <_>
          <internalNodes>
            0 -1 88 743417602 779870151 -255854866 -429459733 -564358710
            1323073429 -292622594 1149206175</internalNodes>
          <leafValues>
            -3.4647551178932190e-01 3.7597778439521790e-01</leafValues></_>
        <_>
          <internalNodes>
            0 -1 76 472649744 515471712 -553052913 -1257717797
            -237771723 393064781 -987498147 1069448304</internalNodes>
          <leafValues>
            -4.4373777508735657e-01 1.8161256611347198e-01</leafValues></_>
        <_>
          <internalNodes>
            0 -1 16 2080297695 528448507 -231186817 -750602009
            -110117943 1069522943 -10570356 931265163</internalNodes>
          <leafValues>
            -2.1486981213092804e-01 3.3909982442855835e-01</leafValues></_>
        <_>
          <internalNodes>
            0 -1 151 -286427709 1099947656 -1364807697 -204865813
            -16909089 -842008739 -2228268 -788812068</internalNodes>
          <leafValues>
            -2.2406987845897675e-01 3.1052416563034058e-01</leafValues></_>
        <_>
          <internalNodes>
            0 -1 167 -946347055 1402928823 -1048150473 -649207122
            1944809969 -1997020540 -2023394823 -1902386269</internalNodes>
          <leafValues>
            -2.2016230225563049e-01 3.3236378431320190e-01</leafValues></_>
        <_>
          <internalNodes>
            0 -1 46 -1576602704 -1048860901 1462965152 -35187261
            597752823 -1611763841 745913519 -641240581</internalNodes>
          <leafValues>
            -2.5770238041877747e-01 2.7518364787101746e-01</leafValues></_>
        <_>
          <internalNodes>
            0 -1 208 -25498049 939515731 -308351173 1597124411 -144481
            -11012225 -1481643006 1668132896</internalNodes>
          <leafValues>
            -2.4969068169593811e-01 3.0045700073242188e-01</leafValues></_>
        <_>
          <internalNodes>
            0 -1 105 1011286729 -814087994 -720519458 2053101083
            -159042363 844746774 2017548060 2101572355</internalNodes>
          <leafValues>
            -3.4935784339904785e-01 2.3068803548812866e-01</leafValues></_>
        <_>
          <internalNodes>
            0 -1 209 1540562704 -933907711 2136210430 1764271342
            -1086636520 -462694374 655880250 897514846</internalNodes>
          <leafValues>
            -4.5746874809265137e-01 1.4409779012203217e-01</leafValues></_>
        <_>
          <internalNodes>
            0 -1 43 -1190468160 1032138828 563338161 500114210 584775193
            85394408 1740551601 33536418</internalNodes>
          <leafValues>
            -3.2985672354698181e-01 2.2925576567649841e-01</leafValues></_>
        <_>
          <internalNodes>
            0 -1 87 -186 969866087 -536875521 -1123029377 -319291433
            -338745353 -51069453 -1077986056</internalNodes>
          <leafValues>
            -2.2811363637447357e-01 3.4541466832160950e-01</leafValues></_>
        <_>
          <internalNodes>
            0 -1 14 -46677921 -657490183 2117500014 1363237491
            -604530177 1323302387 -28578049 -1062309</internalNodes>
          <leafValues>
            -1.3902133703231812e-01 4.9468180537223816e-01</leafValues></_>
        <_>
          <internalNodes>
            0 -1 18 1543396735 721859438 -470578868 -1373190139
            904835450 1861489600 2066578862 503583032</internalNodes>
          <leafValues>
            -4.6194481849670410e-01 1.6586562991142273e-01</leafValues></_>
        <_>
          <internalNodes>
            0 -1 214 -135298066 1926179693 795521826 2101853004 79502781
            -872668169 -1781996308 -262209</internalNodes>
          <leafValues>
            -2.0373454689979553e-01 3.8441452383995056e-01</leafValues></_>
        <_>
          <internalNodes>
            0 -1 182 806757935 -489746166 -53388174 -24975349
            -1252313321 -1352426230 -471904747 -1643513289</internalNodes>
          <leafValues>
            -3.3346155285835266e-01 2.3157458007335663e-01</leafValues></_>
        <_>
          <internalNodes>
            0 -1 171 -701985074 -2019223987 -84468161 -275882243
            1609922264 -1912635401 -28033475 -1208228757</internalNodes>
          <leafValues>
            -2.4721933901309967e-01 3.1307768821716309e-01</leafValues></_>
        <_>
          <internalNodes>
            0 -1 107 143294477 92370739 -1189624138 -1264701424
            1222544612 1152043050 -865353431 1588568992</internalNodes>
          <leafValues>
            -4.8033595085144043e-01 1.6172537207603455e-01</leafValues></_>
        <_>
          <internalNodes>
            0 -1 12 778046829 150740447 -185635933 719219406 1003649383
            -1074492981 -1080273232 -1502055276</internalNodes>
          <leafValues>
            -3.5345643758773804e-01 2.2293497622013092e-01</leafValues></_>
        <_>
          <internalNodes>
            0 -1 247 -612937508 -607402302 -957700077 1472947529
            -1166740082 -1174010158 -210628405 -146281781</internalNodes>
          <leafValues>
            -1.9006288051605225e-01 4.0405225753784180e-01</leafValues></_>
        <_>
          <internalNodes>
            0 -1 129 -2107170816 2129584934 828637322 -1792833617
            -268524049 206019273 -545025038 -1155456987</internalNodes>
          <leafValues>
            -3.1347829103469849e-01 2.4097546935081482e-01</leafValues></_></weakClassifiers></_>
    <!-- stage 18 -->
    <_>
      <maxWeakCount>23</maxWeakCount>
      <stageThreshold>-9.1869980096817017e-01</stageThreshold>
      <weakClassifiers>
        <_>
          <internalNodes>
            0 -1 104 532561200 2075111289 2147204529 -1356520182
            1423897013 -4194889 -989929987 611514820</internalNodes>
          <leafValues>
            -3.1601732969284058e-01 3.8493293523788452e-01</leafValues></_>
        <_>
          <internalNodes>
            0 -1 99 1072397045 -274994673 -156237971 -68814033 -541702
            -346659025 -105154596 -135792878</internalNodes>
          <leafValues>
            -2.0342293381690979e-01 3.6520260572433472e-01</leafValues></_>
        <_>
          <internalNodes>
            0 -1 112 1340501782 1405511638 -422093163 863474441
            144357598 -1009866053 -594642939 375875309</internalNodes>
          <leafValues>
            -3.7387403845787048e-01 1.9342625141143799e-01</leafValues></_>
        <_>
          <internalNodes>
            0 -1 143 935165926 1020501499 -1553993268 -1417317458
            1462982354 -1879468289 -176949956 -638583829</internalNodes>
          <leafValues>
            -2.6938530802726746e-01 2.6317811012268066e-01</leafValues></_>
        <_>
          <internalNodes>
            0 -1 204 1992163926 2103433181 1866380587 -1145746527
            2066119535 -215506803 -271795873 1029559570</internalNodes>
          <leafValues>
            -3.1092363595962524e-01 2.1661777794361115e-01</leafValues></_>
        <_>
          <internalNodes>
            0 -1 178 -1539120334 -1967656645 -151283182 -8980370
            191011515 1247535167 928183160 1394602750</internalNodes>
          <leafValues>
            -3.4561431407928467e-01 1.9122034311294556e-01</leafValues></_>
        <_>
          <internalNodes>
            0 -1 26 -258944802 -1129047138 -30391170 -1430378326
            -252002082 -54868257 -32996950 14734468</internalNodes>
          <leafValues>
            -5.3742146492004395e-01 1.2576223909854889e-01</leafValues></_>
        <_>
          <internalNodes>
            0 -1 120 395271937 1104084204 -1181818824 -107032418
            958218496 -302358445 -1921295983 431110408</internalNodes>
          <leafValues>
            -4.6598088741302490e-01 1.3088551163673401e-01</leafValues></_>
        <_>
          <internalNodes>
            0 -1 230 -1249247264 -5450244 -1967817079 -1782592363
            -1442070803 -1882386439 248630763 -6994583</internalNodes>
          <leafValues>
            -2.3236007988452911e-01 2.9490143060684204e-01</leafValues></_>
        <_>
          <internalNodes>
            0 -1 160 -2130665310 -391246614 -2109228720 750203036
            -175495932 1902054846 459362288 2135231664</internalNodes>
          <leafValues>
            -4.3618941307067871e-01 1.7106071114540100e-01</leafValues></_>
        <_>
          <internalNodes>
            0 -1 132 -14427357 -840964100 -66743069 -41558289 -8656646
            -909535257 -1332740949 -760414551</internalNodes>
          <leafValues>
            -1.8969422578811646e-01 3.7940946221351624e-01</leafValues></_>
        <_>
          <internalNodes>
            0 -1 207 1288319230 38568490 1221600127 -1145228118
            1770882361 1325903881 -178735218 445536143</internalNodes>
          <leafValues>
            -4.3406963348388672e-01 1.7194496095180511e-01</leafValues></_>
        <_>
          <internalNodes>
            0 -1 110 -1370606083 1029607887 306764581 615706241
            -2039407483 -1325772291 959326000 -1594081347</internalNodes>
          <leafValues>
            -2.9281747341156006e-01 2.3500102758407593e-01</leafValues></_>
        <_>
          <internalNodes>
            0 -1 13 -1048917490 33269844 -1147358462 59791656 -656599719
            2020604665 910809944 541317194</internalNodes>
          <leafValues>
            -3.9508724212646484e-01 1.7685069143772125e-01</leafValues></_>
        <_>
          <internalNodes>
            0 -1 53 -742713184 666467356 -558211656 -746717107 -86396764
            1751873547 -1171517075 -1192549189</internalNodes>
          <leafValues>
            -2.6573666930198669e-01 2.6085808873176575e-01</leafValues></_>
        <_>
          <internalNodes>
            0 -1 233 -762625410 2077222755 451320443 872995036
            -744809617 -184182287 -1849060662 -1652032765</internalNodes>
          <leafValues>
            -2.7670970559120178e-01 2.5125777721405029e-01</leafValues></_>
        <_>
          <internalNodes>
            0 -1 48 -670651752 153082847 -47066339 -1357710250
            -281487650 -905262579 -188563086 118131393</internalNodes>
          <leafValues>
            -3.1434181332588196e-01 2.4395731091499329e-01</leafValues></_>
        <_>
          <internalNodes>
            0 -1 6 1625128881 -1847610916 -1534983948 -8112656 922157555
            444422113 615605695 1861171193</internalNodes>
          <leafValues>
            -2.9449751973152161e-01 2.3709493875503540e-01</leafValues></_>
        <_>
          <internalNodes>
            0 -1 215 -468729564 1435317638 2076634254 1023373036
            -1469597564 1363669168 -1224214286 -1192799249</internalNodes>
          <leafValues>
            -2.6897054910659790e-01 2.6732313632965088e-01</leafValues></_>
        <_>
          <internalNodes>
            0 -1 41 -1207779552 155198943 -742183389 219021548 716124969
            1960726300 1375559152 925116145</internalNodes>
          <leafValues>
            -4.8606655001640320e-01 1.4834393560886383e-01</leafValues></_>
        <_>
          <internalNodes>
            0 -1 200 -1813612953 -1431378197 1677653851 -303314233
            1030222619 2080346055 -482883843 -117513122</internalNodes>
          <leafValues>
            -2.5830674171447754e-01 2.8574806451797485e-01</leafValues></_>
        <_>
          <internalNodes>
            0 -1 234 60008248 858899289 -1036826209 829430200 425554716
            -276485371 -534906122 1222754890</internalNodes>
          <leafValues>
            -3.6270898580551147e-01 2.0027574896812439e-01</leafValues></_>
        <_>
          <internalNodes>
            0 -1 37 -1735804440 351215910 -733769272 1908921233
            414036385 361725137 -1924642418 1162843947</internalNodes>
          <leafValues>
            -2.9525446891784668e-01 2.4701303243637085e-01</leafValues></_></weakClassifiers></_>
    <!-- stage 19 -->
    <_>
      <maxWeakCount>22</maxWeakCount>
      <stageThreshold>-8.2103669643402100e-01</stageThreshold>
      <weakClassifiers>
        <_>
          <internalNodes>
            0 -1 49 36915536 337565631 -1075332741 -1610683951
            1608420208 -31531225 2071878910 1602386194</internalNodes>
          <leafValues>
            -1.5300546586513519e-01 4.2685851454734802e-01</leafValues></_>
        <_>
          <internalNodes>
            0 -1 66 -755826721 -218582160 -412144187 -180761 1927151538
            -273678409 -762657 -35192881</internalNodes>
          <leafValues>
            -1.5998381376266479e-01 4.2184686660766602e-01</leafValues></_>
        <_>
          <internalNodes>
            0 -1 173 203064894 -1162157077 -1137847009 -50290547
            -1760327749 211414713 404340760 457143637</internalNodes>
          <leafValues>
            -4.3095904588699341e-01 1.6741038858890533e-01</leafValues></_>
        <_>
          <internalNodes>
            0 -1 117 781332067 -1887710425 571591763 35216925 1073232776
            1168861253 2131311110 1949548202</internalNodes>
          <leafValues>
            -5.0756388902664185e-01 1.3046394288539886e-01</leafValues></_>
        <_>
          <internalNodes>
            0 -1 175 -85236491 -640986878 -1970828047 -261053603
            -216337479 -929392573 1598976364 -272665708</internalNodes>
          <leafValues>
            -2.6895093917846680e-01 2.6464501023292542e-01</leafValues></_>
        <_>
          <internalNodes>
            0 -1 148 -805557451 545170931 -153653220 1435418883
            -342781537 2047522530 1259520335 2065027843</internalNodes>
          <leafValues>
            -3.2422930002212524e-01 2.1352955698966980e-01</leafValues></_>
        <_>
          <internalNodes>
            0 -1 127 -1324699702 1382526952 -764329248 2035099816
            2075643722 -615608453 -202137642 -8813372</internalNodes>
          <leafValues>
            -2.4608108401298523e-01 2.8684511780738831e-01</leafValues></_>
        <_>
          <internalNodes>
            0 -1 101 454052352 -347152823 -587941009 2131553165
            -676388504 1108889195 -1683538823 235320328</internalNodes>
          <leafValues>
            -4.2744228243827820e-01 1.7061302065849304e-01</leafValues></_>
        <_>
          <internalNodes>
            0 -1 71 29985555 1497625481 -380375361 -1442562167
            -890563989 -881069649 -305425151 -2130145022</internalNodes>
          <leafValues>
            -3.0278789997100830e-01 2.2664064168930054e-01</leafValues></_>
        <_>
          <internalNodes>
            0 -1 38 2146942421 -1114015287 1790801888 -239231757
            -46144070 -1151537535 -1175192229 -209494597</internalNodes>
          <leafValues>
            -1.8219788372516632e-01 3.8677537441253662e-01</leafValues></_>
        <_>
          <internalNodes>
            0 -1 190 -17310726 -221329818 704298870 2130808393
            -583172258 1071576924 -1711444301 -41955979</internalNodes>
          <leafValues>
            -2.2130425274372101e-01 3.3011561632156372e-01</leafValues></_>
        <_>
          <internalNodes>
            0 -1 130 937417021 570659996 2137798191 1402690558
            1810737918 1018922455 2068015013 1072657911</internalNodes>
          <leafValues>
            -2.7528753876686096e-01 2.7752181887626648e-01</leafValues></_>
        <_>
          <internalNodes>
            0 -1 199 -1914992908 -474095225 1603414914 -212938337
            56066964 -166362366 -154735497 -1342527689</internalNodes>
          <leafValues>
            -2.9507151246070862e-01 2.4963258206844330e-01</leafValues></_>
        <_>
          <internalNodes>
            0 -1 249 -742262326 -661872000 8528554 307476054 -1853582720
            810222304 -1824466977 1929597011</internalNodes>
          <leafValues>
            -2.8961080312728882e-01 2.6155191659927368e-01</leafValues></_>
        <_>
          <internalNodes>
            0 -1 138 -1494503580 -2006030902 37642106 -134701446
            -549774444 -645824334 881811572 952336848</internalNodes>
          <leafValues>
            -4.2499634623527527e-01 1.6901466250419617e-01</leafValues></_>
        <_>
          <internalNodes>
            0 -1 154 -268601585 -240306207 2128374909 -179834661
            -1652599616 -273154063 -8454180 -56853115</internalNodes>
          <leafValues>
            -2.5946125388145447e-01 3.0735504627227783e-01</leafValues></_>
        <_>
          <internalNodes>
            0 -1 11 -1742282065 964624379 -1129155067 -104827011
            -1562384999 -1154809973 -444630881 2133849963</internalNodes>
          <leafValues>
            -2.3349155485630035e-01 3.1734344363212585e-01</leafValues></_>
        <_>
          <internalNodes>
            0 -1 89 -176565941 -302019331 -1073912756 -58837048 -8257
            -1207967762 -554183479 -436239109</internalNodes>
          <leafValues>
            -1.9052526354789734e-01 4.1667035222053528e-01</leafValues></_>
        <_>
          <internalNodes>
            0 -1 170 -232749880 216181233 -2060316783 -871352915
            328585753 1062255377 1318324264 -1025717063</internalNodes>
          <leafValues>
            -4.1435533761978149e-01 2.0278012752532959e-01</leafValues></_>
        <_>
          <internalNodes>
            0 -1 241 456017144 -125851521 88383094 1400808156
            -1155651736 -1918391120 -1109983398 -95946168</internalNodes>
          <leafValues>
            -3.2712888717651367e-01 2.2817654907703400e-01</leafValues></_>
        <_>
          <internalNodes>
            0 -1 177 2010325339 -1111501314 2080372190 -1410356065
            -5244022 -1378418729 -520356102 -271493874</internalNodes>
          <leafValues>
            -1.8659926950931549e-01 4.6323752403259277e-01</leafValues></_>
        <_>
          <internalNodes>
            0 -1 52 -59004787 873869587 1360362423 991013303 -1826483898
            302817859 1351288842 570101899</internalNodes>
          <leafValues>
            -3.5202756524085999e-01 2.3294378817081451e-01</leafValues></_></weakClassifiers></_></stages>
  <features>
    <_>
      <rect>
        5 17 7 6</rect></_>
    <_>
      <rect>
        9 20 5 7</rect></_>
    <_>
      <rect>
        12 18 8 6</rect></_>
    <_>
      <rect>
        12 19 7 3</rect></_>
    <_>
      <rect>
        12 20 3 3</rect></_>
    <_>
      <rect>
        12 20 4 5</rect></_>
    <_>
      <rect>
        12 25 5 3</rect></_>
    <_>
      <rect>
        13 19 3 3</rect></_>
    <_>
      <rect>
        13 20 3 2</rect></_>
    <_>
      <rect>
        13 21 3 3</rect></_>
    <_>
      <rect>
        13 21 9 5</rect></_>
    <_>
      <rect>
        13 24 5 2</rect></_>
    <_>
      <rect>
        14 0 4 3</rect></_>
    <_>
      <rect>
        14 18 4 3</rect></_>
    <_>
      <rect>
        14 19 3 2</rect></_>
    <_>
      <rect>
        14 20 3 2</rect></_>
    <_>
      <rect>
        15 21 3 2</rect></_>
    <_>
      <rect>
        15 22 3 3</rect></_>
    <_>
      <rect>
        16 21 4 7</rect></_>
    <_>
      <rect>
        16 23 8 4</rect></_>
    <_>
      <rect>
        16 26 3 1</rect></_>
    <_>
      <rect>
        16 26 3 2</rect></_>
    <_>
      <rect>
        17 22 3 3</rect></_>
    <_>
      <rect>
        17 22 8 4</rect></_>
    <_>
      <rect>
        17 23 5 2</rect></_>
    <_>
      <rect>
        17 24 3 3</rect></_>
    <_>
      <rect>
        17 24 5 3</rect></_>
    <_>
      <rect>
        17 25 3 2</rect></_>
    <_>
      <rect>
        17 25 5 2</rect></_>
    <_>
      <rect>
        17 26 4 1</rect></_>
    <_>
      <rect>
        17 29 7 4</rect></_>
    <_>
      <rect>
        18 19 7 6</rect></_>
    <_>
      <rect>
        18 20 5 4</rect></_>
    <_>
      <rect>
        18 20 5 5</rect></_>
    <_>
      <rect>
        18 22 2 2</rect></_>
    <_>
      <rect>
        18 23 3 2</rect></_>
    <_>
      <rect>
        18 23 5 2</rect></_>
    <_>
      <rect>
        18 24 1 2</rect></_>
    <_>
      <rect>
        18 24 2 1</rect></_>
    <_>
      <rect>
        18 24 5 3</rect></_>
    <_>
      <rect>
        18 25 1 1</rect></_>
    <_>
      <rect>
        18 25 2 2</rect></_>
    <_>
      <rect>
        18 25 3 1</rect></_>
    <_>
      <rect>
        18 26 1 1</rect></_>
    <_>
      <rect>
        18 26 2 1</rect></_>
    <_>
      <rect>
        18 26 3 1</rect></_>
    <_>
      <rect>
        18 27 2 1</rect></_>
    <_>
      <rect>
        18 28 3 2</rect></_>
    <_>
      <rect>
        19 18 4 4</rect></_>
    <_>
      <rect>
        19 21 2 2</rect></_>
    <_>
      <rect>
        19 22 2 2</rect></_>
    <_>
      <rect>
        19 22 3 3</rect></_>
    <_>
      <rect>
        19 22 4 2</rect></_>
    <_>
      <rect>
        19 23 1 1</rect></_>
    <_>
      <rect>
        19 23 2 1</rect></_>
    <_>
      <rect>
        19 23 2 2</rect></_>
    <_>
      <rect>
        19 23 3 2</rect></_>
    <_>
      <rect>
        19 23 4 2</rect></_>
    <_>
      <rect>
        19 24 1 2</rect></_>
    <_>
      <rect>
        19 24 2 1</rect></_>
    <_>
      <rect>
        19 24 2 2</rect></_>
    <_>
      <rect>
        19 25 1 1</rect></_>
    <_>
      <rect>
        19 25 3 2</rect></_>
    <_>
      <rect>
        19 25 3 3</rect></_>
    <_>
      <rect>
        19 26 1 1</rect></_>
    <_>
      <rect>
        19 26 2 1</rect></_>
    <_>
      <rect>
        19 27 2 1</rect></_>
    <_>
      <rect>
        19 27 3 2</rect></_>
    <_>
      <rect>
        19 28 1 1</rect></_>
    <_>
      <rect>
        19 28 2 1</rect></_>
    <_>
      <rect>
        19 28 4 2</rect></_>
    <_>
      <rect>
        20 6 7 8</rect></_>
    <_>
      <rect>
        20 9 8 7</rect></_>
    <_>
      <rect>
        20 19 3 4</rect></_>
    <_>
      <rect>
        20 20 3 4</rect></_>
    <_>
      <rect>
        20 21 2 2</rect></_>
    <_>
      <rect>
        20 22 2 2</rect></_>
    <_>
      <rect>
        20 22 3 2</rect></_>
    <_>
      <rect>
        20 23 1 1</rect></_>
    <_>
      <rect>
        20 23 2 1</rect></_>
    <_>
      <rect>
        20 23 3 2</rect></_>
    <_>
      <rect>
        20 24 1 2</rect></_>
    <_>
      <rect>
        20 24 2 1</rect></_>
    <_>
      <rect>
        20 24 2 2</rect></_>
    <_>
      <rect>
        20 24 4 3</rect></_>
    <_>
      <rect>
        20 25 1 1</rect></_>
    <_>
      <rect>
        20 25 2 1</rect></_>
    <_>
      <rect>
        20 25 2 2</rect></_>
    <_>
      <rect>
        20 25 3 1</rect></_>
    <_>
      <rect>
        20 26 1 1</rect></_>
    <_>
      <rect>
        20 26 2 1</rect></_>
    <_>
      <rect>
        20 26 3 3</rect></_>
    <_>
      <rect>
        20 27 2 1</rect></_>
    <_>
      <rect>
        20 28 2 1</rect></_>
    <_>
      <rect>
        21 18 4 4</rect></_>
    <_>
      <rect>
        21 19 2 2</rect></_>
    <_>
      <rect>
        21 19 3 4</rect></_>
    <_>
      <rect>
        21 20 2 2</rect></_>
    <_>
      <rect>
        21 20 5 5</rect></_>
    <_>
      <rect>
        21 21 2 2</rect></_>
    <_>
      <rect>
        21 21 3 2</rect></_>
    <_>
      <rect>
        21 22 2 2</rect></_>
    <_>
      <rect>
        21 22 4 4</rect></_>
    <_>
      <rect>
        21 23 1 1</rect></_>
    <_>
      <rect>
        21 23 1 2</rect></_>
    <_>
      <rect>
        21 23 2 1</rect></_>
    <_>
      <rect>
        21 23 2 2</rect></_>
    <_>
      <rect>
        21 23 3 2</rect></_>
    <_>
      <rect>
        21 23 3 3</rect></_>
    <_>
      <rect>
        21 23 3 4</rect></_>
    <_>
      <rect>
        21 23 8 6</rect></_>
    <_>
      <rect>
        21 24 2 1</rect></_>
    <_>
      <rect>
        21 24 2 2</rect></_>
    <_>
      <rect>
        21 24 3 1</rect></_>
    <_>
      <rect>
        21 24 3 2</rect></_>
    <_>
      <rect>
        21 25 1 1</rect></_>
    <_>
      <rect>
        21 25 1 2</rect></_>
    <_>
      <rect>
        21 25 2 1</rect></_>
    <_>
      <rect>
        21 25 2 2</rect></_>
    <_>
      <rect>
        21 25 3 2</rect></_>
    <_>
      <rect>
        21 26 1 1</rect></_>
    <_>
      <rect>
        21 26 1 2</rect></_>
    <_>
      <rect>
        21 26 2 1</rect></_>
    <_>
      <rect>
        21 26 2 2</rect></_>
    <_>
      <rect>
        21 27 1 1</rect></_>
    <_>
      <rect>
        21 27 2 1</rect></_>
    <_>
      <rect>
        21 27 2 2</rect></_>
    <_>
      <rect>
        21 28 1 1</rect></_>
    <_>
      <rect>
        21 28 4 2</rect></_>
    <_>
      <rect>
        21 29 1 1</rect></_>
    <_>
      <rect>
        21 29 2 1</rect></_>
    <_>
      <rect>
        22 18 3 3</rect></_>
    <_>
      <rect>
        22 20 2 1</rect></_>
    <_>
      <rect>
        22 20 3 3</rect></_>
    <_>
      <rect>
        22 21 1 1</rect></_>
    <_>
      <rect>
        22 21 2 3</rect></_>
    <_>
      <rect>
        22 22 1 1</rect></_>
    <_>
      <rect>
        22 22 1 2</rect></_>
    <_>
      <rect>
        22 22 2 1</rect></_>
    <_>
      <rect>
        22 22 2 2</rect></_>
    <_>
      <rect>
        22 22 2 3</rect></_>
    <_>
      <rect>
        22 23 1 1</rect></_>
    <_>
      <rect>
        22 23 1 2</rect></_>
    <_>
      <rect>
        22 23 2 1</rect></_>
    <_>
      <rect>
        22 23 2 2</rect></_>
    <_>
      <rect>
        22 24 1 1</rect></_>
    <_>
      <rect>
        22 24 1 2</rect></_>
    <_>
      <rect>
        22 24 2 1</rect></_>
    <_>
      <rect>
        22 24 2 2</rect></_>
    <_>
      <rect>
        22 24 3 1</rect></_>
    <_>
      <rect>
        22 25 1 1</rect></_>
    <_>
      <rect>
        22 25 1 2</rect></_>
    <_>
      <rect>
        22 25 2 1</rect></_>
    <_>
      <rect>
        22 25 2 2</rect></_>
    <_>
      <rect>
        22 26 1 1</rect></_>
    <_>
      <rect>
        22 26 2 1</rect></_>
    <_>
      <rect>
        22 27 1 1</rect></_>
    <_>
      <rect>
        22 27 2 1</rect></_>
    <_>
      <rect>
        22 27 4 2</rect></_>
    <_>
      <rect>
        22 27 4 3</rect></_>
    <_>
      <rect>
        22 28 1 1</rect></_>
    <_>
      <rect>
        22 29 1 1</rect></_>
    <_>
      <rect>
        22 29 2 1</rect></_>
    <_>
      <rect>
        22 29 2 2</rect></_>
    <_>
      <rect>
        22 29 3 1</rect></_>
    <_>
      <rect>
        22 30 2 2</rect></_>
    <_>
      <rect>
        23 17 4 7</rect></_>
    <_>
      <rect>
        23 19 3 2</rect></_>
    <_>
      <rect>
        23 19 3 3</rect></_>
    <_>
      <rect>
        23 21 1 1</rect></_>
    <_>
      <rect>
        23 21 1 3</rect></_>
    <_>
      <rect>
        23 22 1 1</rect></_>
    <_>
      <rect>
        23 22 1 2</rect></_>
    <_>
      <rect>
        23 22 2 2</rect></_>
    <_>
      <rect>
        23 23 1 1</rect></_>
    <_>
      <rect>
        23 23 1 2</rect></_>
    <_>
      <rect>
        23 23 2 2</rect></_>
    <_>
      <rect>
        23 23 2 3</rect></_>
    <_>
      <rect>
        23 23 3 2</rect></_>
    <_>
      <rect>
        23 24 1 1</rect></_>
    <_>
      <rect>
        23 24 1 2</rect></_>
    <_>
      <rect>
        23 24 2 1</rect></_>
    <_>
      <rect>
        23 25 1 1</rect></_>
    <_>
      <rect>
        23 25 1 2</rect></_>
    <_>
      <rect>
        23 25 2 1</rect></_>
    <_>
      <rect>
        23 25 2 2</rect></_>
    <_>
      <rect>
        23 26 1 1</rect></_>
    <_>
      <rect>
        23 26 2 2</rect></_>
    <_>
      <rect>
        23 27 1 1</rect></_>
    <_>
      <rect>
        23 27 2 2</rect></_>
    <_>
      <rect>
        23 28 1 1</rect></_>
    <_>
      <rect>
        23 28 2 1</rect></_>
    <_>
      <rect>
        23 29 1 1</rect></_>
    <_>
      <rect>
        24 21 1 2</rect></_>
    <_>
      <rect>
        24 22 1 1</rect></_>
    <_>
      <rect>
        24 22 1 2</rect></_>
    <_>
      <rect>
        24 22 2 2</rect></_>
    <_>
      <rect>
        24 22 2 3</rect></_>
    <_>
      <rect>
        24 23 1 1</rect></_>
    <_>
      <rect>
        24 23 1 2</rect></_>
    <_>
      <rect>
        24 24 1 1</rect></_>
    <_>
      <rect>
        24 24 1 2</rect></_>
    <_>
      <rect>
        24 24 2 3</rect></_>
    <_>
      <rect>
        24 25 1 1</rect></_>
    <_>
      <rect>
        24 25 2 2</rect></_>
    <_>
      <rect>
