<?xml version="1.0"?>
<opencv_storage>
<cascade>
  <stageType>BOOST</stageType>
  <featureType>HAAR</featureType>
  <height>48</height>
  <width>48</width>
  <stageParams>
    <boostType>GAB</boostType>
    <minHitRate>9.9500000476837158e-01</minHitRate>
    <maxFalseAlarm>5.0000000000000000e-01</maxFalseAlarm>
    <weightTrimRate>9.4999999999999996e-01</weightTrimRate>
    <maxDepth>1</maxDepth>
    <maxWeakCount>100</maxWeakCount></stageParams>
  <featureParams>
    <maxCatCount>0</maxCatCount>
    <featSize>1</featSize>
    <mode>BASIC</mode></featureParams>
  <stageNum>9</stageNum>
  <stages>
    <!-- stage 0 -->
    <_>
      <maxWeakCount>1</maxWeakCount>
      <stageThreshold>8.4103512763977051e-01</stageThreshold>
      <weakClassifiers>
        <_>
          <internalNodes>
            0 -1 25 -1.3783262111246586e-03</internalNodes>
          <leafValues>
            8.4103512763977051e-01 -9.8455595970153809e-01</leafValues></_></weakClassifiers></_>
    <!-- stage 1 -->
    <_>
      <maxWeakCount>4</maxWeakCount>
      <stageThreshold>-1.0099684000015259e+00</stageThreshold>
      <weakClassifiers>
        <_>
          <internalNodes>
            0 -1 17 1.4289647340774536e-02</internalNodes>
          <leafValues>
            -5.9482759237289429e-01 9.0044248104095459e-01</leafValues></_>
        <_>
          <internalNodes>
            0 -1 2 8.5625052452087402e-03</internalNodes>
          <leafValues>
            -4.6818920969963074e-01 8.0262541770935059e-01</leafValues></_>
        <_>
          <internalNodes>
            0 -1 1 -6.5032197162508965e-03</internalNodes>
          <leafValues>
            5.3972321748733521e-01 -5.7610642910003662e-01</leafValues></_>
        <_>
          <internalNodes>
            0 -1 24 3.4409891813993454e-03</internalNodes>
          <leafValues>
            -4.4134798645973206e-01 6.2915480136871338e-01</leafValues></_></weakClassifiers></_>
    <!-- stage 2 -->
    <_>
      <maxWeakCount>5</maxWeakCount>
      <stageThreshold>-6.2458848953247070e-01</stageThreshold>
      <weakClassifiers>
        <_>
          <internalNodes>
            0 -1 20 2.6911394670605659e-02</internalNodes>
          <leafValues>
            -4.5072272419929504e-01 8.8557809591293335e-01</leafValues></_>
        <_>
          <internalNodes>
            0 -1 31 1.6353040700778365e-04</internalNodes>
          <leafValues>
            -9.0757977962493896e-01 4.4606065750122070e-01</leafValues></_>
        <_>
          <internalNodes>
            0 -1 43 8.4364245412871242e-04</internalNodes>
          <leafValues>
            -4.2847800254821777e-01 7.2317457199096680e-01</leafValues></_>
        <_>
          <internalNodes>
            0 -1 26 7.2832242585718632e-03</internalNodes>
          <leafValues>
            -4.7632870078086853e-01 4.9219289422035217e-01</leafValues></_>
        <_>
          <internalNodes>
            0 -1 51 -7.1525966632179916e-05</internalNodes>
          <leafValues>
            -8.2156550884246826e-01 2.8488031029701233e-01</leafValues></_></weakClassifiers></_>
    <!-- stage 3 -->
    <_>
      <maxWeakCount>8</maxWeakCount>
      <stageThreshold>-7.2751313447952271e-01</stageThreshold>
      <weakClassifiers>
        <_>
          <internalNodes>
            0 -1 27 -1.1493008350953460e-03</internalNodes>
          <leafValues>
            7.3949581384658813e-01 -4.6913579106330872e-01</leafValues></_>
        <_>
          <internalNodes>
            0 -1 16 -1.1291399598121643e-02</internalNodes>
          <leafValues>
            7.6259458065032959e-01 -3.0427950620651245e-01</leafValues></_>
        <_>
          <internalNodes>
            0 -1 7 -2.5747492909431458e-03</internalNodes>
          <leafValues>
            6.8354994058609009e-01 -2.5455996394157410e-01</leafValues></_>
        <_>
          <internalNodes>
            0 -1 52 -4.5874873176217079e-03</internalNodes>
          <leafValues>
            8.3822160959243774e-01 -2.0414380729198456e-01</leafValues></_>
        <_>
          <internalNodes>
            0 -1 6 -1.2508691288530827e-03</internalNodes>
          <leafValues>
            6.8483483791351318e-01 -2.7751353383064270e-01</leafValues></_>
        <_>
          <internalNodes>
            0 -1 41 -4.2397885408718139e-05</internalNodes>
          <leafValues>
            -7.9078096151351929e-01 2.6043027639389038e-01</leafValues></_>
        <_>
          <internalNodes>
            0 -1 33 1.1261656181886792e-03</internalNodes>
          <leafValues>
            2.2617661952972412e-01 -8.4451168775558472e-01</leafValues></_>
        <_>
          <internalNodes>
            0 -1 30 3.5697425482794642e-04</internalNodes>
          <leafValues>
            -6.4259737730026245e-01 3.0454105138778687e-01</leafValues></_></weakClassifiers></_>
    <!-- stage 4 -->
    <_>
      <maxWeakCount>8</maxWeakCount>
      <stageThreshold>-1.3016536235809326e+00</stageThreshold>
      <weakClassifiers>
        <_>
          <internalNodes>
            0 -1 4 1.0935368016362190e-02</internalNodes>
          <leafValues>
            -4.9346405267715454e-01 7.1052628755569458e-01</leafValues></_>
        <_>
          <internalNodes>
            0 -1 37 -1.3224736321717501e-03</internalNodes>
          <leafValues>
            6.8304473161697388e-01 -4.4048616290092468e-01</leafValues></_>
        <_>
          <internalNodes>
            0 -1 54 -1.2058248103130609e-04</internalNodes>
          <leafValues>
            5.7556748390197754e-01 -3.6005681753158569e-01</leafValues></_>
        <_>
          <internalNodes>
            0 -1 8 -2.4773718323558569e-03</internalNodes>
          <leafValues>
            5.9037566184997559e-01 -3.3905056118965149e-01</leafValues></_>
        <_>
          <internalNodes>
            0 -1 14 2.2533665469381958e-04</internalNodes>
          <leafValues>
            -2.7303579449653625e-01 7.0396798849105835e-01</leafValues></_>
        <_>
          <internalNodes>
            0 -1 23 -3.6025710869580507e-05</internalNodes>
          <leafValues>
            3.9345031976699829e-01 -5.3866660594940186e-01</leafValues></_>
        <_>
          <internalNodes>
            0 -1 49 -1.6409691306762397e-04</internalNodes>
          <leafValues>
            -8.5430502891540527e-01 2.0422041416168213e-01</leafValues></_>
        <_>
          <internalNodes>
            0 -1 59 5.7270063553005457e-04</internalNodes>
          <leafValues>
            -2.6510435342788696e-01 6.4566725492477417e-01</leafValues></_></weakClassifiers></_>
    <!-- stage 5 -->
    <_>
      <maxWeakCount>8</maxWeakCount>
      <stageThreshold>-1.1804059743881226e+00</stageThreshold>
      <weakClassifiers>
        <_>
          <internalNodes>
            0 -1 42 -8.8742242951411754e-05</internalNodes>
          <leafValues>
            -5.3586494922637939e-01 5.8081704378128052e-01</leafValues></_>
        <_>
          <internalNodes>
            0 -1 38 -2.7053568046540022e-03</internalNodes>
          <leafValues>
            7.2895687818527222e-01 -2.8645315766334534e-01</leafValues></_>
        <_>
          <internalNodes>
            0 -1 35 -1.5837801038287580e-04</internalNodes>
          <leafValues>
            2.1947428584098816e-01 -9.2553317546844482e-01</leafValues></_>
        <_>
          <internalNodes>
            0 -1 52 -5.4650316014885902e-03</internalNodes>
          <leafValues>
            6.5903759002685547e-01 -2.5404998660087585e-01</leafValues></_>
        <_>
          <internalNodes>
            0 -1 32 2.6469595013622893e-06</internalNodes>
          <leafValues>
            -8.2700872421264648e-01 2.0243953168392181e-01</leafValues></_>
        <_>
          <internalNodes>
            0 -1 9 -1.9051047274842858e-03</internalNodes>
          <leafValues>
            5.9878551959991455e-01 -3.3206281065940857e-01</leafValues></_>
        <_>
          <internalNodes>
            0 -1 22 1.4814743772149086e-03</internalNodes>
          <leafValues>
            -6.2030500173568726e-01 2.9174432158470154e-01</leafValues></_>
        <_>
          <internalNodes>
            0 -1 39 1.0395891877124086e-04</internalNodes>
          <leafValues>
            2.1226060390472412e-01 -6.9026589393615723e-01</leafValues></_></weakClassifiers></_>
    <!-- stage 6 -->
    <_>
      <maxWeakCount>9</maxWeakCount>
      <stageThreshold>-7.1942758560180664e-01</stageThreshold>
      <weakClassifiers>
        <_>
          <internalNodes>
            0 -1 21 3.5730134695768356e-02</internalNodes>
          <leafValues>
            -1.7318435013294220e-01 7.8723406791687012e-01</leafValues></_>
        <_>
          <internalNodes>
            0 -1 13 -1.4237950090318918e-03</internalNodes>
          <leafValues>
            5.6294232606887817e-01 -2.5211754441261292e-01</leafValues></_>
        <_>
          <internalNodes>
            0 -1 57 5.6003039935603738e-04</internalNodes>
          <leafValues>
            -2.7520537376403809e-01 6.0911524295806885e-01</leafValues></_>
        <_>
          <internalNodes>
            0 -1 51 1.7656030831858516e-04</internalNodes>
          <leafValues>
            1.8550896644592285e-01 -8.5158413648605347e-01</leafValues></_>
        <_>
          <internalNodes>
            0 -1 46 7.7591648732777685e-05</internalNodes>
          <leafValues>
            -8.2374298572540283e-01 1.8374700844287872e-01</leafValues></_>
        <_>
          <internalNodes>
            0 -1 36 9.7973046649713069e-05</internalNodes>
          <leafValues>
            -4.5924466848373413e-01 3.2975021004676819e-01</leafValues></_>
        <_>
          <internalNodes>
            0 -1 56 1.2018143897876143e-03</internalNodes>
          <leafValues>
            -1.9445477426052094e-01 7.7929753065109253e-01</leafValues></_>
        <_>
          <internalNodes>
            0 -1 28 -2.7936082915402949e-04</internalNodes>
          <leafValues>
            -5.8958286046981812e-01 2.8018191456794739e-01</leafValues></_>
        <_>
          <internalNodes>
            0 -1 29 4.8088550101965666e-04</internalNodes>
          <leafValues>
            2.0737449824810028e-01 -6.2487548589706421e-01</leafValues></_></weakClassifiers></_>
    <!-- stage 7 -->
    <_>
      <maxWeakCount>8</maxWeakCount>
      <stageThreshold>-8.9120167493820190e-01</stageThreshold>
      <weakClassifiers>
        <_>
          <internalNodes>
            0 -1 5 -1.7941206460818648e-03</internalNodes>
          <leafValues>
            6.1493122577667236e-01 -3.8831615447998047e-01</leafValues></_>
        <_>
          <internalNodes>
            0 -1 18 8.4731803508475423e-04</internalNodes>
          <leafValues>
            -3.1971848011016846e-01 4.7562167048454285e-01</leafValues></_>
        <_>
          <internalNodes>
            0 -1 34 1.0989845031872392e-04</internalNodes>
          <leafValues>
            2.1605183184146881e-01 -7.0209944248199463e-01</leafValues></_>
        <_>
          <internalNodes>
            0 -1 12 -5.9883459471166134e-04</internalNodes>
          <leafValues>
            4.9193337559700012e-01 -2.7584028244018555e-01</leafValues></_>
        <_>
          <internalNodes>
            0 -1 10 -6.3874141778796911e-04</internalNodes>
          <leafValues>
            6.1933141946792603e-01 -2.6860815286636353e-01</leafValues></_>
        <_>
          <internalNodes>
            0 -1 47 -5.1079707191092893e-05</internalNodes>
          <leafValues>
            -8.6666280031204224e-01 2.1631570160388947e-01</leafValues></_>
        <_>
          <internalNodes>
            0 -1 50 -4.1264476749347523e-05</internalNodes>
          <leafValues>
            -6.8157565593719482e-01 2.0708075165748596e-01</leafValues></_>
        <_>
          <internalNodes>
            0 -1 3 1.4640868175774813e-03</internalNodes>
          <leafValues>
            -2.4795518815517426e-01 5.8332985639572144e-01</leafValues></_></weakClassifiers></_>
    <!-- stage 8 -->
    <_>
      <maxWeakCount>11</maxWeakCount>
      <stageThreshold>-9.2469602823257446e-01</stageThreshold>
      <weakClassifiers>
        <_>
          <internalNodes>
            0 -1 44 -8.8457146193832159e-04</internalNodes>
          <leafValues>
            7.3439574241638184e-01 -1.8063753843307495e-01</leafValues></_>
        <_>
          <internalNodes>
            0 -1 19 -2.8825493063777685e-04</internalNodes>
          <leafValues>
            3.5380131006240845e-01 -5.3086775541305542e-01</leafValues></_>
        <_>
          <internalNodes>
            0 -1 45 3.3321420778520405e-04</internalNodes>
          <leafValues>
            -2.7145195007324219e-01 5.3180032968521118e-01</leafValues></_>
        <_>
          <internalNodes>
            0 -1 48 1.7716908769216388e-04</internalNodes>
          <leafValues>
            2.3423902690410614e-01 -6.2829256057739258e-01</leafValues></_>
        <_>
          <internalNodes>
            0 -1 58 -2.2557919146493077e-04</internalNodes>
          <leafValues>
            3.5345157980918884e-01 -4.3174201250076294e-01</leafValues></_>
        <_>
          <internalNodes>
            0 -1 0 -1.5706631820648909e-03</internalNodes>
          <leafValues>
            6.1850750446319580e-01 -1.6095907986164093e-01</leafValues></_>
        <_>
          <internalNodes>
            0 -1 53 -8.1151883932761848e-05</internalNodes>
          <leafValues>
            3.8134640455245972e-01 -3.4361112117767334e-01</leafValues></_>
        <_>
          <internalNodes>
            0 -1 55 -1.0120884981006384e-03</internalNodes>
          <leafValues>
            3.0992555618286133e-01 -4.4792291522026062e-01</leafValues></_>
        <_>
          <internalNodes>
            0 -1 11 -3.6937225377187133e-04</internalNodes>
          <leafValues>
            6.2123250961303711e-01 -1.9205170869827271e-01</leafValues></_>
        <_>
          <internalNodes>
            0 -1 40 4.8071719356812537e-04</internalNodes>
          <leafValues>
            1.2892064452171326e-01 -8.9090311527252197e-01</leafValues></_>
        <_>
          <internalNodes>
            0 -1 15 4.5076257083564997e-04</internalNodes>
          <leafValues>
            -2.4641133844852448e-01 5.1353996992111206e-01</leafValues></_></weakClassifiers></_></stages>
  <features>
    <_>
      <rects>
        <_>
          10 21 10 3 -1.</_>
        <_>
          10 22 10 1 3.</_></rects>
      <tilted>0</tilted></_>
    <_>
      <rects>
        <_>
          10 22 20 6 -1.</_>
        <_>
          10 22 10 3 2.</_>
        <_>
          20 25 10 3 2.</_></rects>
      <tilted>0</tilted></_>
    <_>
      <rects>
        <_>
          12 21 24 2 -1.</_>
        <_>
          20 21 8 2 3.</_></rects>
      <tilted>0</tilted></_>
    <_>
      <rects>
        <_>
          12 22 12 2 -1.</_>
        <_>
          12 22 6 1 2.</_>
        <_>
          18 23 6 1 2.</_></rects>
      <tilted>0</tilted></_>
    <_>
      <rects>
        <_>
          15 21 21 3 -1.</_>
        <_>
          22 21 7 3 3.</_></rects>
      <tilted>0</tilted></_>
    <_>
      <rects>
        <_>
          17 25 10 4 -1.</_>
        <_>
          17 25 5 2 2.</_>
        <_>
          22 27 5 2 2.</_></rects>
      <tilted>0</tilted></_>
    <_>
      <rects>
        <_>
          17 26 4 2 -1.</_>
        <_>
          19 26 2 2 2.</_></rects>
      <tilted>0</tilted></_>
    <_>
      <rects>
        <_>
          18 19 13 3 -1.</_>
        <_>
          18 20 13 1 3.</_></rects>
      <tilted>0</tilted></_>
    <_>
      <rects>
        <_>
          18 22 4 6 -1.</_>
        <_>
          18 22 2 3 2.</_>
        <_>
          20 25 2 3 2.</_></rects>
      <tilted>0</tilted></_>
    <_>
      <rects>
        <_>
          18 23 4 4 -1.</_>
        <_>
          18 23 2 2 2.</_>
        <_>
          20 25 2 2 2.</_></rects>
      <tilted>0</tilted></_>
    <_>
      <rects>
        <_>
          18 26 3 2 -1.</_>
        <_>
          19 26 1 2 3.</_></rects>
      <tilted>0</tilted></_>
    <_>
      <rects>
        <_>
          18 27 2 1 -1.</_>
        <_>
          19 27 1 1 2.</_></rects>
      <tilted>0</tilted></_>
    <_>
      <rects>
        <_>
          19 25 2 3 -1.</_>
        <_>
          20 25 1 3 2.</_></rects>
      <tilted>0</tilted></_>
    <_>
      <rects>
        <_>
          19 26 6 2 -1.</_>
        <_>
          21 26 2 2 3.</_></rects>
      <tilted>0</tilted></_>
    <_>
      <rects>
        <_>
          19 28 3 1 -1.</_>
        <_>
          20 28 1 1 3.</_></rects>
      <tilted>0</tilted></_>
    <_>
      <rects>
        <_>
          19 28 3 2 -1.</_>
        <_>
          20 28 1 2 3.</_></rects>
      <tilted>0</tilted></_>
    <_>
      <rects>
        <_>
          20 18 18 6 -1.</_>
        <_>
          20 18 9 3 2.</_>
        <_>
          29 21 9 3 2.</_></rects>
      <tilted>0</tilted></_>
    <_>
      <rects>
        <_>
          20 19 9 9 -1.</_>
        <_>
          20 22 9 3 3.</_></rects>
      <tilted>0</tilted></_>
    <_>
      <rects>
        <_>
          20 21 3 3 -1.</_>
        <_>
          20 22 3 1 3.</_></rects>
      <tilted>0</tilted></_>
    <_>
      <rects>
        <_>
          20 23 2 2 -1.</_>
        <_>
          20 24 2 1 2.</_></rects>
      <tilted>0</tilted></_>
    <_>
      <rects>
        <_>
          21 16 8 15 -1.</_>
        <_>
          21 21 8 5 3.</_></rects>
      <tilted>0</tilted></_>
    <_>
      <rects>
        <_>
          21 18 9 12 -1.</_>
        <_>
          21 22 9 4 3.</_></rects>
      <tilted>0</tilted></_>
    <_>
      <rects>
        <_>
          21 21 12 3 -1.</_>
        <_>
          25 21 4 3 3.</_></rects>
      <tilted>0</tilted></_>
    <_>
      <rects>
        <_>
          21 22 2 2 -1.</_>
        <_>
          21 22 1 1 2.</_>
        <_>
          22 23 1 1 2.</_></rects>
      <tilted>0</tilted></_>
    <_>
      <rects>
        <_>
          21 22 9 9 -1.</_>
        <_>
          24 22 3 9 3.</_></rects>
      <tilted>0</tilted></_>
    <_>
      <rects>
        <_>
          21 22 6 4 -1.</_>
        <_>
          21 24 6 2 2.</_></rects>
      <tilted>0</tilted></_>
    <_>
      <rects>
        <_>
          21 22 18 6 -1.</_>
        <_>
          21 22 9 3 2.</_>
        <_>
          30 25 9 3 2.</_></rects>
      <tilted>0</tilted></_>
    <_>
      <rects>
        <_>
          21 25 6 2 -1.</_>
        <_>
          21 26 6 1 2.</_></rects>
      <tilted>0</tilted></_>
    <_>
      <rects>
        <_>
          21 27 5 3 -1.</_>
        <_>
          21 28 5 1 3.</_></rects>
      <tilted>0</tilted></_>
    <_>
      <rects>
        <_>
          22 20 8 7 -1.</_>
        <_>
          26 20 4 7 2.</_></rects>
      <tilted>0</tilted></_>
    <_>
      <rects>
        <_>
          22 21 4 2 -1.</_>
        <_>
          22 22 4 1 2.</_></rects>
      <tilted>0</tilted></_>
    <_>
      <rects>
        <_>
          22 21 4 3 -1.</_>
        <_>
          22 22 4 1 3.</_></rects>
      <tilted>0</tilted></_>
    <_>
      <rects>
        <_>
          22 22 6 1 -1.</_>
        <_>
          24 22 2 1 3.</_></rects>
      <tilted>0</tilted></_>
    <_>
      <rects>
        <_>
          22 22 6 2 -1.</_>
        <_>
          24 22 2 2 3.</_></rects>
      <tilted>0</tilted></_>
    <_>
      <rects>
        <_>
          22 23 2 1 -1.</_>
        <_>
          23 23 1 1 2.</_></rects>
      <tilted>0</tilted></_>
    <_>
      <rects>
        <_>
          22 23 3 2 -1.</_>
        <_>
          22 24 3 1 2.</_></rects>
      <tilted>0</tilted></_>
    <_>
      <rects>
        <_>
          22 25 3 1 -1.</_>
        <_>
          23 25 1 1 3.</_></rects>
      <tilted>0</tilted></_>
    <_>
      <rects>
        <_>
          22 26 5 3 -1.</_>
        <_>
          22 27 5 1 3.</_></rects>
      <tilted>0</tilted></_>
    <_>
      <rects>
        <_>
          23 19 7 3 -1.</_>
        <_>
          23 20 7 1 3.</_></rects>
      <tilted>0</tilted></_>
    <_>
      <rects>
        <_>
          23 22 3 1 -1.</_>
        <_>
          24 22 1 1 3.</_></rects>
      <tilted>0</tilted></_>
    <_>
      <rects>
        <_>
          23 22 1 3 -1.</_>
        <_>
          23 23 1 1 3.</_></rects>
      <tilted>0</tilted></_>
    <_>
      <rects>
        <_>
          23 22 3 2 -1.</_>
        <_>
          24 22 1 2 3.</_></rects>
      <tilted>0</tilted></_>
    <_>
      <rects>
        <_>
          23 22 1 6 -1.</_>
        <_>
          23 24 1 2 3.</_></rects>
      <tilted>0</tilted></_>
    <_>
      <rects>
        <_>
          23 24 4 3 -1.</_>
        <_>
          23 25 4 1 3.</_></rects>
      <tilted>0</tilted></_>
    <_>
      <rects>
        <_>
          23 26 3 2 -1.</_>
        <_>
          23 27 3 1 2.</_></rects>
      <tilted>0</tilted></_>
    <_>
      <rects>
        <_>
          24 20 1 3 -1.</_>
        <_>
          24 21 1 1 3.</_></rects>
      <tilted>0</tilted></_>
    <_>
      <rects>
        <_>
          24 21 1 3 -1.</_>
        <_>
          24 22 1 1 3.</_></rects>
      <tilted>0</tilted></_>
    <_>
      <rects>
        <_>
          24 22 3 1 -1.</_>
        <_>
          25 22 1 1 3.</_></rects>
      <tilted>0</tilted></_>
    <_>
      <rects>
        <_>
          24 22 3 3 -1.</_>
        <_>
          25 22 1 3 3.</_></rects>
      <tilted>0</tilted></_>
    <_>
      <rects>
        <_>
          25 21 2 4 -1.</_>
        <_>
          25 21 1 2 2.</_>
        <_>
          26 23 1 2 2.</_></rects>
      <tilted>0</tilted></_>
    <_>
      <rects>
        <_>
          25 22 3 1 -1.</_>
        <_>
          26 22 1 1 3.</_></rects>
      <tilted>0</tilted></_>
    <_>
      <rects>
        <_>
          25 23 3 1 -1.</_>
        <_>
          26 23 1 1 3.</_></rects>
      <tilted>0</tilted></_>
    <_>
      <rects>
        <_>
          25 25 6 6 -1.</_>
        <_>
          27 25 2 6 3.</_></rects>
      <tilted>0</tilted></_>
    <_>
      <rects>
        <_>
          26 24 3 2 -1.</_>
        <_>
          27 24 1 2 3.</_></rects>
      <tilted>0</tilted></_>
    <_>
      <rects>
        <_>
          26 25 2 1 -1.</_>
        <_>
          27 25 1 1 2.</_></rects>
      <tilted>0</tilted></_>
    <_>
      <rects>
        <_>
          27 21 6 2 -1.</_>
        <_>
          30 21 3 2 2.</_></rects>
      <tilted>0</tilted></_>
    <_>
      <rects>
        <_>
          28 26 2 4 -1.</_>
        <_>
          29 26 1 4 2.</_></rects>
      <tilted>0</tilted></_>
    <_>
      <rects>
        <_>
          29 23 2 4 -1.</_>
        <_>
          29 23 1 2 2.</_>
        <_>
          30 25 1 2 2.</_></rects>
      <tilted>0</tilted></_>
    <_>
      <rects>
        <_>
          29 24 1 2 -1.</_>
        <_>
          29 25 1 1 2.</_></rects>
      <tilted>0</tilted></_>
    <_>
      <rects>
        <_>
          30 24 3 4 -1.</_>
        <_>
          31 24 1 4 3.</_></rects>
      <tilted>0</tilted></_></features></cascade>
</opencv_storage>
