<?xml version="1.0"?>
<opencv_storage>
<cascade>
  <stageType>BOOST</stageType>
  <featureType>LBP</featureType>
  <height>48</height>
  <width>48</width>
  <stageParams>
    <boostType>GAB</boostType>
    <minHitRate>9.9500000476837158e-01</minHitRate>
    <maxFalseAlarm>5.0000000000000000e-01</maxFalseAlarm>
    <weightTrimRate>9.4999999999999996e-01</weightTrimRate>
    <maxDepth>1</maxDepth>
    <maxWeakCount>100</maxWeakCount></stageParams>
  <featureParams>
    <maxCatCount>256</maxCatCount>
    <featSize>1</featSize></featureParams>
  <stageNum>30</stageNum>
  <stages>
    <!-- stage 0 -->
    <_>
      <maxWeakCount>10</maxWeakCount>
      <stageThreshold>-5.8253425359725952e-01</stageThreshold>
      <weakClassifiers>
        <_>
          <internalNodes>
            0 -1 217 1342226634 1358954496 1160 268435456 -2132758342
            274727040 32910 2</internalNodes>
          <leafValues>
            -1.7064385116100311e-01 7.8452372550964355e-01</leafValues></_>
        <_>
          <internalNodes>
            0 -1 582 -536214512 427827456 -1938940367 897581584
            -2138528608 153093124 -1932000096 -2138963968</internalNodes>
          <leafValues>
            -4.0821886062622070e-01 5.1625078916549683e-01</leafValues></_>
        <_>
          <internalNodes>
            0 -1 304 -8132084 -543479592 -1270870691 -105024929
            -1610372984 -1465730142 143232650 265289455</internalNodes>
          <leafValues>
            -3.6870154738426208e-01 5.0760978460311890e-01</leafValues></_>
        <_>
          <internalNodes>
            0 -1 643 -1837066992 -901762291 -239642277 -666199599
            872841386 -1151152751 -1953364228 -1441660784</internalNodes>
          <leafValues>
            -4.2667761445045471e-01 3.7162744998931885e-01</leafValues></_>
        <_>
          <internalNodes>
            0 -1 181 -805271334 495944159 59278352 419790992 541851899
            -39696327 1679968907 1896547023</internalNodes>
          <leafValues>
            -3.9912772178649902e-01 3.7989717721939087e-01</leafValues></_>
        <_>
          <internalNodes>
            0 -1 652 -647301860 -109969356 -2124380580 319013250
            1108667274 -1435620960 -1172112689 -774927669</internalNodes>
          <leafValues>
            -3.3255034685134888e-01 4.0999868512153625e-01</leafValues></_>
        <_>
          <internalNodes>
            0 -1 575 -781721132 -581834057 285590000 2032173104
            -2138535288 -1934090226 -933122914 -856218945</internalNodes>
          <leafValues>
            -2.8915521502494812e-01 4.6193286776542664e-01</leafValues></_>
        <_>
          <internalNodes>
            0 -1 712 -1273884672 944917058 1355876112 1880426000
            -1433689418 -1474756598 404834585 -1433724896</internalNodes>
          <leafValues>
            -4.0241616964340210e-01 3.1432551145553589e-01</leafValues></_>
        <_>
          <internalNodes>
            0 -1 70 1409649682 1880430734 455780737 260506567
            -1499364256 -532577779 -1232534779 1004123130</internalNodes>
          <leafValues>
            -3.5498648881912231e-01 3.3154726028442383e-01</leafValues></_>
        <_>
          <internalNodes>
            0 -1 638 -120919246 304621454 594591 -251920384 -2130664316
            82161 587499854 -257825983</internalNodes>
          <leafValues>
            -3.7418594956398010e-01 3.2186770439147949e-01</leafValues></_></weakClassifiers></_>
    <!-- stage 1 -->
    <_>
      <maxWeakCount>23</maxWeakCount>
      <stageThreshold>-7.2188735008239746e-01</stageThreshold>
      <weakClassifiers>
        <_>
          <internalNodes>
            0 -1 213 -253296898 1078985744 -1335035907 92277032
            1356906495 948970916 4242431 588</internalNodes>
          <leafValues>
            1.9018816947937012e-01 7.6104897260665894e-01</leafValues></_>
        <_>
          <internalNodes>
            0 -1 151 1968683162 -539773229 -1145069665 2145373159
            -341073510 -156255326 -279697 2147466206</internalNodes>
          <leafValues>
            -1.1578854918479919e-01 5.6792753934860229e-01</leafValues></_>
        <_>
          <internalNodes>
            0 -1 548 -716978724 -1755079489 -384004643 -606997765
            -856828455 -1939860309 -847443489 -537934437</internalNodes>
          <leafValues>
            -2.1326643228530884e-01 4.5452132821083069e-01</leafValues></_>
        <_>
          <internalNodes>
            0 -1 702 -112280692 -104891370 -111205 -1278532982 169913250
            -1173738598 -930297206 733980363</internalNodes>
          <leafValues>
            -2.7681383490562439e-01 2.9524290561676025e-01</leafValues></_>
        <_>
          <internalNodes>
            0 -1 427 -777346416 995035958 -132568066 -1120823519
            -380025464 -1339717415 -895809394 -801396839</internalNodes>
          <leafValues>
            -3.1619030237197876e-01 2.5558647513389587e-01</leafValues></_>
        <_>
          <internalNodes>
            0 -1 648 -421597168 -909237422 -67803525 -245172392
            -1758058590 -469825718 380905087 -1079295546</internalNodes>
          <leafValues>
            -2.3369738459587097e-01 3.2715964317321777e-01</leafValues></_>
        <_>
          <internalNodes>
            0 -1 905 -1060380032 823829317 1624559616 67307522 68157504
            539230240 -2004834166 -1236054385</internalNodes>
          <leafValues>
            -2.7803298830986023e-01 2.6001536846160889e-01</leafValues></_>
        <_>
          <internalNodes>
            0 -1 855 1475859984 1441857744 2045342334 -1658719590
            682477482 145261086 -2004702582 -526128674</internalNodes>
          <leafValues>
            -2.3324236273765564e-01 3.0053627490997314e-01</leafValues></_>
        <_>
          <internalNodes>
            0 -1 643 -1340464848 -478938953 -23542563 2036234586
            860795056 -1564200732 409862316 -221829744</internalNodes>
          <leafValues>
            -2.9562819004058838e-01 2.3498240113258362e-01</leafValues></_>
        <_>
          <internalNodes>
            0 -1 279 -638648098 1359156048 -1190917708 500586069
            1271763101 446108032 -856850293 551904907</internalNodes>
          <leafValues>
            -2.9520797729492188e-01 2.4329265952110291e-01</leafValues></_>
        <_>
          <internalNodes>
            0 -1 15 673705719 -533228233 -302912517 -811101182
            -198337797 1114955510 -630858173 -363466155</internalNodes>
          <leafValues>
            -1.9909967482089996e-01 3.6470833420753479e-01</leafValues></_>
        <_>
          <internalNodes>
            0 -1 730 -496060818 -520428410 178842214 2064584212
            344332194 -969467514 -736970085 -801981878</internalNodes>
          <leafValues>
            -2.4639938771724701e-01 2.9389154911041260e-01</leafValues></_>
        <_>
          <internalNodes>
            0 -1 468 -993033982 550273540 1078591552 833733120
            1347911916 111152327 -152702293 -749211489</internalNodes>
          <leafValues>
            -2.3315583169460297e-01 3.1119245290756226e-01</leafValues></_>
        <_>
          <internalNodes>
            0 -1 524 1474152334 2065236316 -2095538345 294628512
            1648405947 -1396130954 -1717097238 272724621</internalNodes>
          <leafValues>
            -3.0310916900634766e-01 2.4296799302101135e-01</leafValues></_>
        <_>
          <internalNodes>
            0 -1 594 290956219 1001227217 6372369 629975536 -961374786
            -1090732866 1017381764 -5398404</internalNodes>
          <leafValues>
            -2.2974574565887451e-01 3.1151014566421509e-01</leafValues></_>
        <_>
          <internalNodes>
            0 -1 210 -714889080 -1758203694 400116122 -579784938
            1295319643 1776888808 -721901110 1294973003</internalNodes>
          <leafValues>
            -2.7106899023056030e-01 2.6925525069236755e-01</leafValues></_>
        <_>
          <internalNodes>
            0 -1 578 1947269283 -159200200 -468690469 -1164195619
            -1564679800 1046426823 -108235128 -802038013</internalNodes>
          <leafValues>
            -2.5507822632789612e-01 2.8874236345291138e-01</leafValues></_>
        <_>
          <internalNodes>
            0 -1 294 -1041770492 1381053512 -1610310654 -149968633
            537504427 136705680 111760585 -470834245</internalNodes>
          <leafValues>
            -2.1729478240013123e-01 3.3075544238090515e-01</leafValues></_>
        <_>
          <internalNodes>
            0 -1 458 1701234522 822774618 -1070201615 233375847
            -622921272 -2078875445 1646340830 1368124178</internalNodes>
          <leafValues>
            -2.8202867507934570e-01 2.4927429854869843e-01</leafValues></_>
        <_>
          <internalNodes>
            0 -1 518 -871075722 -802694712 -25930893 2143797672
            631726847 -1611485735 -1662962437 -927523776</internalNodes>
          <leafValues>
            -2.4770294129848480e-01 2.9136380553245544e-01</leafValues></_>
        <_>
          <internalNodes>
            0 -1 632 -293893996 200961275 -1855806689 -1007513794
            -266476148 -1409347929 -1880520024 -1420352413</internalNodes>
          <leafValues>
            -2.5378042459487915e-01 2.9531359672546387e-01</leafValues></_>
        <_>
          <internalNodes>
            0 -1 218 -244530572 2077103110 74062361 526465025 1746931882
            -1874751997 -318202693 -869561832</internalNodes>
          <leafValues>
            -2.1665036678314209e-01 3.3818697929382324e-01</leafValues></_>
        <_>
          <internalNodes>
            0 -1 88 1414444919 1043119298 507106999 1833812160
            -412789072 -1142152038 1077217087 -361007317</internalNodes>
          <leafValues>
            -2.1101221442222595e-01 3.4349313378334045e-01</leafValues></_></weakClassifiers></_>
    <!-- stage 2 -->
    <_>
      <maxWeakCount>28</maxWeakCount>
      <stageThreshold>-7.4265110492706299e-01</stageThreshold>
      <weakClassifiers>
        <_>
          <internalNodes>
            0 -1 307 -69206276 -639838018 432631192 465935044
            -1293244248 -1430738514 -2010347000 166718122</internalNodes>
          <leafValues>
            3.5131248831748962e-01 8.0768615007400513e-01</leafValues></_>
        <_>
          <internalNodes>
            0 -1 616 -576727596 1566037997 -652354083 -546312039
            -661747555 -1997621520 1218764765 -812954465</internalNodes>
          <leafValues>
            -8.3520755171775818e-02 5.4827547073364258e-01</leafValues></_>
        <_>
          <internalNodes>
            0 -1 95 1564408794 -90850513 1417197912 -1891830818
            -1422000209 -639987969 -337641794 2144594683</internalNodes>
          <leafValues>
            -2.1488073468208313e-01 3.7839716672897339e-01</leafValues></_>
        <_>
          <internalNodes>
            0 -1 500 -840119152 1910226166 154623865 1907059061
            -335608388 -338190155 187412472 1655836816</internalNodes>
          <leafValues>
            -3.4202015399932861e-01 2.2358416020870209e-01</leafValues></_>
        <_>
          <internalNodes>
            0 -1 720 -10496108 -681683075 -314639941 2139612776
            951039899 -1346690110 -88305746 -1584678</internalNodes>
          <leafValues>
            -2.2773732244968414e-01 3.5548764467239380e-01</leafValues></_>
        <_>
          <internalNodes>
            0 -1 655 -1371763951 -781221972 -335728715 -1149485238
            -18577255 -1910342258 -352794832 -260844207</internalNodes>
          <leafValues>
            -2.2456605732440948e-01 3.2091084122657776e-01</leafValues></_>
        <_>
          <internalNodes>
            0 -1 703 -962492356 -1968569695 -101919019 -289835280
            928756016 -1080194689 646461516 -188115195</internalNodes>
          <leafValues>
            -3.3690005540847778e-01 2.1064215898513794e-01</leafValues></_>
        <_>
          <internalNodes>
            0 -1 220 -1001995558 -783268862 1262589687 -1650426480
            -1336573525 -402585167 -225868629 359133986</internalNodes>
          <leafValues>
            -3.0750226974487305e-01 2.3625275492668152e-01</leafValues></_>
        <_>
          <internalNodes>
            0 -1 585 1155944007 1449546501 1320616405 1463193935
            -661903120 397034090 1960791793 1244099730</internalNodes>
          <leafValues>
            -3.0617418885231018e-01 2.1308839321136475e-01</leafValues></_>
        <_>
          <internalNodes>
            0 -1 578 2057226402 1776715916 1952200927 -102862208
            1753988504 380600331 -44278244 -722379001</internalNodes>
          <leafValues>
            -3.0581444501876831e-01 2.3246221244335175e-01</leafValues></_>
        <_>
          <internalNodes>
            0 -1 137 -203718070 -824880882 553741404 -35880866
            -1411864414 9671048 -1904166360 833222878</internalNodes>
          <leafValues>
            -3.1930848956108093e-01 2.1585372090339661e-01</leafValues></_>
        <_>
          <internalNodes>
            0 -1 163 2020769942 1427703440 -1409284334 -586153728
            -1033599816 -74348160 722803353 899903547</internalNodes>
          <leafValues>
            -2.8515604138374329e-01 2.3500657081604004e-01</leafValues></_>
        <_>
          <internalNodes>
            0 -1 586 -1439283641 354665265 -897067916 -206902573
            611927036 -170137835 -346853684 -653802473</internalNodes>
          <leafValues>
            -2.2049836814403534e-01 2.9424715042114258e-01</leafValues></_>
        <_>
          <internalNodes>
            0 -1 389 -411129854 898532358 -1726341666 -1223089662
            549756107 707799285 448831206 670512198</internalNodes>
          <leafValues>
            -3.2097211480140686e-01 2.0643785595893860e-01</leafValues></_>
        <_>
          <internalNodes>
            0 -1 847 1936712661 -709590986 -473219779 -10943595
            1770171312 -83447656 -1527477590 -1076106354</internalNodes>
          <leafValues>
            -1.6996185481548309e-01 3.8360121846199036e-01</leafValues></_>
        <_>
          <internalNodes>
            0 -1 636 -1353737583 -415910016 -617161231 -151666507
            -8972655 -1413707813 -1344692230 -54867079</internalNodes>
          <leafValues>
            -1.9943070411682129e-01 3.4143316745758057e-01</leafValues></_>
        <_>
          <internalNodes>
            0 -1 452 -199229950 1364128116 942904401 296091076
            -1434377690 1302067987 -1536357240 -260886518</internalNodes>
          <leafValues>
            -2.6434472203254700e-01 2.5889143347740173e-01</leafValues></_>
        <_>
          <internalNodes>
            0 -1 277 -729352140 -777289648 2114663767 -643727294
            1040832509 -778839119 1633378202 1227580426</internalNodes>
          <leafValues>
            -2.6950487494468689e-01 2.5212463736534119e-01</leafValues></_>
        <_>
          <internalNodes>
            0 -1 742 -543172141 -1691289858 -1111854889 898618011
            -789971719 -929253895 -879023157 -1946428781</internalNodes>
          <leafValues>
            -1.3253569602966309e-01 4.9401140213012695e-01</leafValues></_>
        <_>
          <internalNodes>
            0 -1 639 1515968055 57915959 -606107217 -1816029966 -1333277
            -1243595598 -984801044 -536936165</internalNodes>
          <leafValues>
            -1.6829103231430054e-01 3.7670013308525085e-01</leafValues></_>
        <_>
          <internalNodes>
            0 -1 776 -286880856 377098023 479472696 -982737780 849566655
            983468685 -876350401 -1893341963</internalNodes>
          <leafValues>
            -2.5297549366950989e-01 2.5200286507606506e-01</leafValues></_>
        <_>
          <internalNodes>
            0 -1 799 1830284257 -98041165 460032791 -37715481
            -1890328144 -927747588 508323020 -548453353</internalNodes>
          <leafValues>
            -1.8548263609409332e-01 3.4500965476036072e-01</leafValues></_>
        <_>
          <internalNodes>
            0 -1 73 567797486 -1163527474 890910131 -421276833
            -762620962 -292501467 537751338 1651620298</internalNodes>
          <leafValues>
            -2.5166171789169312e-01 2.5784364342689514e-01</leafValues></_>
        <_>
          <internalNodes>
            0 -1 394 -209738343 1429719690 551587544 -745039220 91335095
            2073424291 1806503866 2106548907</internalNodes>
          <leafValues>
            -2.0479910075664520e-01 3.4060776233673096e-01</leafValues></_>
        <_>
          <internalNodes>
            0 -1 710 -650641580 -787356616 -1719610094 -605427196
            -1331480392 -1837093430 1513667726 419831414</internalNodes>
          <leafValues>
            -2.7873775362968445e-01 2.5838842988014221e-01</leafValues></_>
        <_>
          <internalNodes>
            0 -1 844 -2103557824 834535441 -1808726322 1513412029
            -1953038027 -2086429625 482909679 -269160600</internalNodes>
          <leafValues>
            -2.8691187500953674e-01 2.4081179499626160e-01</leafValues></_>
        <_>
          <internalNodes>
            0 -1 723 -328585311 1902552614 -1439286761 -212320528
            -765498949 -17826335 -464867892 -1461472618</internalNodes>
          <leafValues>
            -2.2062586247920990e-01 3.0091434717178345e-01</leafValues></_>
        <_>
          <internalNodes>
            0 -1 180 -62732101 -1727870628 1107770877 2004164607
            -95495988 -1115589096 -1429039425 -367269841</internalNodes>
          <leafValues>
            -1.5201494097709656e-01 4.2133790254592896e-01</leafValues></_></weakClassifiers></_>
    <!-- stage 3 -->
    <_>
      <maxWeakCount>32</maxWeakCount>
      <stageThreshold>-5.4440271854400635e-01</stageThreshold>
      <weakClassifiers>
        <_>
          <internalNodes>
            0 -1 182 -67174450 -2101281 -181536720 -543191843 -52773970
            -14951234 721456042 434895583</internalNodes>
          <leafValues>
            4.5196300745010376e-01 8.1873399019241333e-01</leafValues></_>
        <_>
          <internalNodes>
            0 -1 418 -585376508 -40119859 1475563295 -48236385 -42217073
            -858989876 -652217569 -548405985</internalNodes>
          <leafValues>
            -4.7052375972270966e-02 4.9453279376029968e-01</leafValues></_>
        <_>
          <internalNodes>
            0 -1 643 -1163775439 -286007815 -1114942145 -185049607
            1061859380 -1611477788 -1617519439 -89203056</internalNodes>
          <leafValues>
            -2.5241586565971375e-01 2.6966270804405212e-01</leafValues></_>
        <_>
          <internalNodes>
            0 -1 113 1953824759 -75874874 623826751 1439470618
            2003047423 2062186032 1377857787 1589539803</internalNodes>
          <leafValues>
            -2.4629737436771393e-01 2.6632595062255859e-01</leafValues></_>
        <_>
          <internalNodes>
            0 -1 571 -7890031 -307505725 -993088751 -51023597
            -2023905100 -939862549 -275712856 -192290371</internalNodes>
          <leafValues>
            -2.4633081257343292e-01 2.6879465579986572e-01</leafValues></_>
        <_>
          <internalNodes>
            0 -1 603 -419496585 2665550 -92343317 300753090 3460919
            1146521047 1471656432 -184549665</internalNodes>
          <leafValues>
            -2.3224218189716339e-01 2.8289946913719177e-01</leafValues></_>
        <_>
          <internalNodes>
            0 -1 639 35915317 -755661963 188286367 -1854834114
            -810614481 -403398670 1740376232 -1951070091</internalNodes>
          <leafValues>
            -2.9425284266471863e-01 2.0004312694072723e-01</leafValues></_>
        <_>
          <internalNodes>
            0 -1 186 -1065450786 -575172353 93350700 -911609776
            -718020129 -548402347 3375786 1899323995</internalNodes>
          <leafValues>
            -2.6981559395790100e-01 2.1612948179244995e-01</leafValues></_>
        <_>
          <internalNodes>
            0 -1 697 -494910106 -1910657408 -527359741 -1929396919
            -206895744 -2002087491 -556119183 -847743108</internalNodes>
          <leafValues>
            -2.7826437354087830e-01 2.0170901715755463e-01</leafValues></_>
        <_>
          <internalNodes>
            0 -1 516 2000021324 2071741990 26270776 320657480 1917184974
            -51730874 -400223094 1121182383</internalNodes>
          <leafValues>
            -2.8938859701156616e-01 1.9070050120353699e-01</leafValues></_>
        <_>
          <internalNodes>
            0 -1 719 -213496257 931597911 1059183580 -614709801
            -453676662 -827488050 1821207726 -393886169</internalNodes>
          <leafValues>
            -1.8997459113597870e-01 2.9253536462783813e-01</leafValues></_>
        <_>
          <internalNodes>
            0 -1 538 -271136922 810683422 -1413207766 397611592
            1137738880 309854931 1236780325 603414854</internalNodes>
          <leafValues>
            -3.0593380331993103e-01 1.8022491037845612e-01</leafValues></_>
        <_>
          <internalNodes>
            0 -1 704 1655204464 1117860703 -1727653221 -836686965
            201008033 -1187761461 -1900278895 -1414770428</internalNodes>
          <leafValues>
            -3.3471778035163879e-01 1.6565960645675659e-01</leafValues></_>
        <_>
          <internalNodes>
            0 -1 85 2092300342 41254098 1107107876 1726473629 -641569914
            829989152 1518986610 1607310782</internalNodes>
          <leafValues>
            -2.7520549297332764e-01 2.1437443792819977e-01</leafValues></_>
        <_>
          <internalNodes>
            0 -1 425 -812917985 -600876225 765204828 -1610655431
            -875364438 -1640049135 -1885289432 -1967996367</internalNodes>
          <leafValues>
            -1.7172116041183472e-01 3.2221096754074097e-01</leafValues></_>
        <_>
          <internalNodes>
            0 -1 745 -1885078120 993576603 -1454268521 -1749668694
            623660479 -1463378019 153145290 -616869350</internalNodes>
          <leafValues>
            -2.0840719342231750e-01 2.7319735288619995e-01</leafValues></_>
        <_>
          <internalNodes>
            0 -1 930 -210547856 -198298238 -791785446 1919113571
            -183128436 1619204736 -1033217394 -776746401</internalNodes>
          <leafValues>
            -1.9653937220573425e-01 2.8230291604995728e-01</leafValues></_>
        <_>
          <internalNodes>
            0 -1 569 -1170514896 260263989 -417344799 40059859
            -163940206 -1683510108 -493249392 -573453175</internalNodes>
          <leafValues>
            -2.4025003612041473e-01 2.3991328477859497e-01</leafValues></_>
        <_>
          <internalNodes>
            0 -1 590 -88087181 -701013121 250572019 -144999631
            -153432115 620752326 -269494309 -1076109569</internalNodes>
          <leafValues>
            -1.1996040493249893e-01 4.7559660673141479e-01</leafValues></_>
        <_>
          <internalNodes>
            0 -1 390 -583600335 1078834272 -1209315054 2031439841
            1129159376 16727417 -1173628007 -1064702709</internalNodes>
          <leafValues>
            -1.7849116027355194e-01 3.0259639024734497e-01</leafValues></_>
        <_>
          <internalNodes>
            0 -1 906 -1040712869 1662856970 714114144 824265408
            379205846 1743824198 -423823434 -755501113</internalNodes>
          <leafValues>
            -1.4674948155879974e-01 3.6538541316986084e-01</leafValues></_>
        <_>
          <internalNodes>
            0 -1 703 -73180169 -14045309 -994716073 -151278569
            -1510607690 994009050 843773309 -74465973</internalNodes>
          <leafValues>
            -1.2855654954910278e-01 4.0959224104881287e-01</leafValues></_>
        <_>
          <internalNodes>
            0 -1 654 1945853212 -776600420 -1153775267 -1325102556
            726951374 -1147585882 136490823 411915110</internalNodes>
          <leafValues>
            -2.7552327513694763e-01 2.0902425050735474e-01</leafValues></_>
        <_>
          <internalNodes>
            0 -1 699 -162119671 -965373146 441498846 1188463250
            -110955727 -1073821899 2006750995 -539230095</internalNodes>
          <leafValues>
            -2.5185430049896240e-01 2.2216685116291046e-01</leafValues></_>
        <_>
          <internalNodes>
            0 -1 195 1410621175 -721383260 -1942693094 2097754416
            1151617005 -1350539232 -2009162328 243006223</internalNodes>
          <leafValues>
            -2.2189287841320038e-01 2.6053777337074280e-01</leafValues></_>
        <_>
          <internalNodes>
            0 -1 387 -823227402 965883943 -655963287 -661126205
            -1496020030 402838233 -979066182 295921579</internalNodes>
          <leafValues>
            -2.7249723672866821e-01 2.0873774588108063e-01</leafValues></_>
        <_>
          <internalNodes>
            0 -1 582 1552581633 -104603160 2087696221 1963293881
            -1393580368 -1103491913 508540021 -1667001195</internalNodes>
          <leafValues>
            -2.1773332357406616e-01 2.5680604577064514e-01</leafValues></_>
        <_>
          <internalNodes>
            0 -1 117 -1391677650 -972057778 1627427905 127917002
            -153538006 -1135589233 -815550950 1189718666</internalNodes>
          <leafValues>
            -2.7448108792304993e-01 2.0784722268581390e-01</leafValues></_>
        <_>
          <internalNodes>
            0 -1 963 746392367 135355097 1565111914 -859957371
            2013401943 632904295 1392639780 82852400</internalNodes>
          <leafValues>
            -3.9998549222946167e-01 1.3924668729305267e-01</leafValues></_>
        <_>
          <internalNodes>
            0 -1 668 1372974118 -2065923058 760366910 1749554 -699395124
            -2096344955 1289759498 392684271</internalNodes>
          <leafValues>
            -2.8434750437736511e-01 1.9843220710754395e-01</leafValues></_>
        <_>
          <internalNodes>
            0 -1 879 867325840 816045393 2006080337 1597932496 54791324
            -1097295630 -310035119 -1651422695</internalNodes>
          <leafValues>
            -2.6146522164344788e-01 2.2154445946216583e-01</leafValues></_>
        <_>
          <internalNodes>
            0 -1 216 -131173386 622077031 2022039997 -1114304457
            -1590955638 -225644793 -127900741 1676748514</internalNodes>
          <leafValues>
            -2.3796230554580688e-01 2.3283328115940094e-01</leafValues></_></weakClassifiers></_>
    <!-- stage 4 -->
    <_>
      <maxWeakCount>34</maxWeakCount>
      <stageThreshold>-4.6910381317138672e-01</stageThreshold>
      <weakClassifiers>
        <_>
          <internalNodes>
            0 -1 92 2080358078 -50624074 -580862503 -405282774 956269456
            -40037633 -101782533 2145367039</internalNodes>
          <leafValues>
            4.8694053292274475e-01 8.1554090976715088e-01</leafValues></_>
        <_>
          <internalNodes>
            0 -1 416 -581968036 -715268513 -649617447 -372245857
            1435228121 -734081316 -440019509 -640680241</internalNodes>
          <leafValues>
            -4.1244793683290482e-02 4.8600295186042786e-01</leafValues></_>
        <_>
          <internalNodes>
            0 -1 240 1908715262 1367156797 256310445 1971072520
            -1261256773 2073365456 1893792559 301954035</internalNodes>
          <leafValues>
            -2.7317973971366882e-01 2.2414363920688629e-01</leafValues></_>
        <_>
          <internalNodes>
            0 -1 566 -554973187 -671385093 287815675 1603878346
            -806630008 -1268134179 -405464952 -605956649</internalNodes>
          <leafValues>
            -1.5834766626358032e-01 3.5203477740287781e-01</leafValues></_>
        <_>
          <internalNodes>
            0 -1 760 2146958333 1979660820 724179411 937104342
            -591983988 -1275162180 776092652 -71308314</internalNodes>
          <leafValues>
            -1.8912740051746368e-01 3.1049305200576782e-01</leafValues></_>
        <_>
          <internalNodes>
            0 -1 440 -926021616 1359435552 808678391 1703281608
            1252861176 2094760880 -1731586599 1255612554</internalNodes>
          <leafValues>
            -3.2563620805740356e-01 1.6107113659381866e-01</leafValues></_>
        <_>
          <internalNodes>
            0 -1 636 -298344240 -1346508992 -1542483461 -19546019
            -745176264 -2034392669 595333627 -1124939255</internalNodes>
          <leafValues>
            -2.3503896594047546e-01 2.2927778959274292e-01</leafValues></_>
        <_>
          <internalNodes>
            0 -1 604 -557909474 -562387890 -1125458593 2097208512
            293330871 301159281 -418059526 -85988353</internalNodes>
          <leafValues>
            -1.8437229096889496e-01 2.9996129870414734e-01</leafValues></_>
        <_>
          <internalNodes>
            0 -1 439 -1048648608 1598052508 -2010982313 188355692
            1277169776 2137360771 1277239296 771913032</internalNodes>
          <leafValues>
            -3.7908422946929932e-01 1.3925597071647644e-01</leafValues></_>
        <_>
          <internalNodes>
            0 -1 505 1954545228 -803262310 235832575 890052834
            1480650666 -359765576 -1994069360 1151856354</internalNodes>
          <leafValues>
            -2.7595067024230957e-01 1.8825395405292511e-01</leafValues></_>
        <_>
          <internalNodes>
            0 -1 928 -745835812 -183793787 269131919 -772065020
            -184499990 -2029470004 -1601840162 -802440742</internalNodes>
          <leafValues>
            -1.5859247744083405e-01 3.3543318510055542e-01</leafValues></_>
        <_>
          <internalNodes>
            0 -1 553 -346297699 -34350915 -1266966983 -1355704675
            -347100242 -276830549 -237052925 -851791409</internalNodes>
          <leafValues>
            -1.3378919661045074e-01 3.9097890257835388e-01</leafValues></_>
        <_>
          <internalNodes>
            0 -1 401 1095737378 4982094 -1070593364 1498940358 79236589
            550648022 -247832294 1977050959</internalNodes>
          <leafValues>
            -2.8005337715148926e-01 1.9116704165935516e-01</leafValues></_>
        <_>
          <internalNodes>
            0 -1 582 -1465250736 2139669400 -1063634987 -205399591
            -1462771539 -1140905845 1141571719 -758431583</internalNodes>
          <leafValues>
            -2.3577594757080078e-01 2.2103171050548553e-01</leafValues></_>
        <_>
          <internalNodes>
            0 -1 835 -519584319 982035555 -1691272969 -1088173997
            -1066735671 -1436747342 -2062592803 -2108077</internalNodes>
          <leafValues>
            -1.5796361863613129e-01 3.4937730431556702e-01</leafValues></_>
        <_>
          <internalNodes>
            0 -1 370 -725055525 -105151118 193203902 -68142277
            -352062250 -590022727 1827598026 -1879957</internalNodes>
          <leafValues>
            -1.5501369535923004e-01 3.3773365616798401e-01</leafValues></_>
        <_>
          <internalNodes>
            0 -1 134 641635966 -1302598453 -1977842790 904908493
            -704266053 -1903221864 1448450117 1660748542</internalNodes>
          <leafValues>
            -2.6863846182823181e-01 2.0020949840545654e-01</leafValues></_>
        <_>
          <internalNodes>
            0 -1 255 1298120511 -545439346 74666911 1610296634
            1238215338 479992680 2126556666 -60988510</internalNodes>
          <leafValues>
            -1.6853497922420502e-01 3.1522327661514282e-01</leafValues></_>
        <_>
          <internalNodes>
            0 -1 650 1252928181 876630819 -459354403 1359408694
            1283317209 -323830349 2098175469 -1718392070</internalNodes>
          <leafValues>
            -2.0815567672252655e-01 2.4981851875782013e-01</leafValues></_>
        <_>
          <internalNodes>
            0 -1 532 -957420250 273809684 546611372 1006212762
            1142673938 1077973808 1784488250 316105351</internalNodes>
          <leafValues>
            -3.2506534457206726e-01 1.7177163064479828e-01</leafValues></_>
        <_>
          <internalNodes>
            0 -1 688 -128507887 -1150107369 -1265683885 -1243091289
            -242133061 767793405 1690428959 -940904423</internalNodes>
          <leafValues>
            -1.9225034117698669e-01 2.7750217914581299e-01</leafValues></_>
        <_>
          <internalNodes>
            0 -1 853 -798162792 1962738436 -1604174626 -133685118
            -528613106 -1408282325 -1367168022 -2130554596</internalNodes>
          <leafValues>
            -2.5923833250999451e-01 2.0642067492008209e-01</leafValues></_>
        <_>
          <internalNodes>
            0 -1 578 2048905379 -3684051 -413373957 -741231 2140592008
            -207051675 -5443688 -11805949</internalNodes>
          <leafValues>
            -1.4929105341434479e-01 3.6142680048942566e-01</leafValues></_>
        <_>
          <internalNodes>
            0 -1 647 570581584 207020722 -473283458 1067737766
            1255844330 1235771979 -1597643355 738804294</internalNodes>
          <leafValues>
            -3.4539315104484558e-01 1.6337695717811584e-01</leafValues></_>
        <_>
          <internalNodes>
            0 -1 734 1448080570 1047368490 265533008 1225790538
            605413152 989917076 416499216 -701525170</internalNodes>
          <leafValues>
            -2.0501901209354401e-01 2.5974220037460327e-01</leafValues></_>
        <_>
          <internalNodes>
            0 -1 114 -1849550730 -114907046 -1440026119 -1112725200
            -1911672616 -565001967 1545747960 19870266</internalNodes>
          <leafValues>
            -2.3509708046913147e-01 2.3218138515949249e-01</leafValues></_>
        <_>
          <internalNodes>
            0 -1 97 -560288513 -632050933 -1399903713 -1473936698
            1427039660 981567232 -262943525 -651428545</internalNodes>
          <leafValues>
            -1.6606441140174866e-01 3.3470153808593750e-01</leafValues></_>
        <_>
          <internalNodes>
            0 -1 57 -362882413 -544687882 -308266025 -7344145 -179079231
            -223935164 1717915195 -287379845</internalNodes>
          <leafValues>
            -1.5102869272232056e-01 3.5919567942619324e-01</leafValues></_>
        <_>
          <internalNodes>
            0 -1 603 -958474245 -1035569808 -815595633 -1865850289
            66449811 -1935768402 224392184 -28363913</internalNodes>
          <leafValues>
            -1.7215707898139954e-01 3.0835664272308350e-01</leafValues></_>
        <_>
          <internalNodes>
            0 -1 494 -826556778 -62917845 -1643392877 -920392403
            -352463962 -969717829 -2130233342 -1182480759</internalNodes>
          <leafValues>
            -1.9666226208209991e-01 2.8362450003623962e-01</leafValues></_>
        <_>
          <internalNodes>
            0 -1 541 -286270586 -791820790 242246148 1904954527
            -183192594 537863725 -107756561 -240690709</internalNodes>
          <leafValues>
            -1.5874721109867096e-01 3.5297191143035889e-01</leafValues></_>
        <_>
          <internalNodes>
            0 -1 65 1892129402 1910101078 363790568 1856143879
            1788172768 2006461099 1940555040 394375656</internalNodes>
          <leafValues>
            -3.3487465977668762e-01 1.7495611310005188e-01</leafValues></_>
        <_>
          <internalNodes>
            0 -1 816 -773479628 1483313415 -1824339662 2063991232
            1633756856 1693463104 -1566643222 7466698</internalNodes>
          <leafValues>
            -2.7854445576667786e-01 1.9622544944286346e-01</leafValues></_>
        <_>
          <internalNodes>
            0 -1 631 -424244197 -532500741 -1894287393 -1222609686
            -187974759 1327151532 -1031298481 -293340007</internalNodes>
          <leafValues>
            -1.8241645395755768e-01 3.1765830516815186e-01</leafValues></_></weakClassifiers></_>
    <!-- stage 5 -->
    <_>
      <maxWeakCount>36</maxWeakCount>
      <stageThreshold>-4.7441425919532776e-01</stageThreshold>
      <weakClassifiers>
        <_>
          <internalNodes>
            0 -1 54 -803474706 -488178842 -998250571 -473967807
            535807967 -213407922 -39868773 1907880647</internalNodes>
          <leafValues>
            4.8048624396324158e-01 8.0952382087707520e-01</leafValues></_>
        <_>
          <internalNodes>
            0 -1 301 1569685768 353366287 -786304579 -41187697
            -1653776947 1497406190 -736514977 -575700789</internalNodes>
          <leafValues>
            -8.6356930434703827e-02 3.9788785576820374e-01</leafValues></_>
        <_>
          <internalNodes>
            0 -1 310 -647031298 -679379178 -1455682586 -1619712812
            1025448910 -96229737 -81067830 1432739583</internalNodes>
          <leafValues>
            -2.2313715517520905e-01 2.5420236587524414e-01</leafValues></_>
        <_>
          <internalNodes>
            0 -1 712 -485024256 1780779426 1901695998 -264792391
            -346585549 -370412657 1359492764 -16949519</internalNodes>
          <leafValues>
            -2.5945013761520386e-01 2.1230453252792358e-01</leafValues></_>
        <_>
          <internalNodes>
            0 -1 467 -674255102 -735336826 124877408 -647132320
            611783051 808296209 -748185177 -772820029</internalNodes>
          <leafValues>
            -2.3395602405071259e-01 2.5407028198242188e-01</leafValues></_>
        <_>
          <internalNodes>
            0 -1 378 -1176503361 1058924479 -1979478343 960030582
            -2100220993 -1158876759 -443607364 -50332173</internalNodes>
          <leafValues>
            -1.4478330314159393e-01 3.7343093752861023e-01</leafValues></_>
        <_>
          <internalNodes>
            0 -1 703 -1532392710 -1146427931 1576867031 -195981099
            -1747340234 -1140873511 915070464 -258083387</internalNodes>
          <leafValues>
            -2.2939060628414154e-01 2.3405875265598297e-01</leafValues></_>
        <_>
          <internalNodes>
            0 -1 504 1830249284 -1689099116 -920828556 -539800900
            1263946884 -1431549182 -867343668 1809804527</internalNodes>
          <leafValues>
            -2.8278848528862000e-01 2.0384776592254639e-01</leafValues></_>
        <_>
          <internalNodes>
            0 -1 316 1141558494 1347770912 -1194730547 21935280
            -1339588164 2005003909 -909902550 493346926</internalNodes>
          <leafValues>
            -2.9978358745574951e-01 1.9132956862449646e-01</leafValues></_>
        <_>
          <internalNodes>
            0 -1 782 1181660968 1242212492 -129628105 -918158524
            -1552961116 534736100 -223894042 -126356601</internalNodes>
          <leafValues>
            -2.2830598056316376e-01 2.3941402137279510e-01</leafValues></_>
        <_>
          <internalNodes>
            0 -1 499 -814381680 -1984174384 302023333 -395105161
            -801600604 -371119733 -940743574 -1069447788</internalNodes>
          <leafValues>
            -2.6934215426445007e-01 1.9533091783523560e-01</leafValues></_>
        <_>
          <internalNodes>
            0 -1 652 1535113022 1362387253 1281946551 -1084422076
            833076023 -1091880977 1250046199 367651403</internalNodes>
          <leafValues>
            -2.3092876374721527e-01 2.4880360066890717e-01</leafValues></_>
        <_>
          <internalNodes>
            0 -1 103 1752130411 37234566 46516852 -894425370 1467225893
            671154598 -1194113475 -891360202</internalNodes>
          <leafValues>
            -2.5240951776504517e-01 2.1631395816802979e-01</leafValues></_>
        <_>
          <internalNodes>
            0 -1 136 515804850 -1089955296 708986967 721462081 655664265
            -353125980 -362675265 2054881322</internalNodes>
          <leafValues>
            -2.5559785962104797e-01 2.0624163746833801e-01</leafValues></_>
        <_>
          <internalNodes>
            0 -1 655 -1594429739 -781226865 -335552843 -1686831314
            -329980281 -1050511729 -432838891 -17588155</internalNodes>
          <leafValues>
            -1.8636436760425568e-01 2.7594244480133057e-01</leafValues></_>
        <_>
          <internalNodes>
            0 -1 864 -687868145 1086567182 1717842018 610661038
            -1223433930 549978433 -1298159861 -137368853</internalNodes>
          <leafValues>
            -1.5252603590488434e-01 3.3301147818565369e-01</leafValues></_>
        <_>
          <internalNodes>
            0 -1 632 -1883504641 -1745371653 -240199713 -168304982
            805012877 701312463 -1621005942 -371464362</internalNodes>
          <leafValues>
            -1.2588296830654144e-01 4.0483123064041138e-01</leafValues></_>
        <_>
          <internalNodes>
            0 -1 899 -790627499 2045149341 828873578 1352598310
            934666652 -1447885303 252512138 6017738</internalNodes>
          <leafValues>
            -2.0648567378520966e-01 2.4839276075363159e-01</leafValues></_>
        <_>
          <internalNodes>
            0 -1 876 -1725799023 293782297 -1625952041 -1115507435
            -1431119992 -1958309864 489853689 496175171</internalNodes>
          <leafValues>
            -2.4598596990108490e-01 2.1388590335845947e-01</leafValues></_>
        <_>
          <internalNodes>
            0 -1 107 1708520374 -1198615378 50447039 -1885056881
            -2017087017 -2119852497 -205897461 1792913854</internalNodes>
          <leafValues>
            -2.2625739872455597e-01 2.3363199830055237e-01</leafValues></_>
        <_>
          <internalNodes>
            0 -1 463 -220212301 -603216736 -1818617310 -788446783
            1945865983 -1525293388 1674695075 -774922039</internalNodes>
          <leafValues>
            -1.4282342791557312e-01 3.7119546532630920e-01</leafValues></_>
        <_>
          <internalNodes>
            0 -1 645 2030708753 270925727 1044828744 1087510546
            -1061945045 -722351486 -423040596 712786416</internalNodes>
          <leafValues>
            -3.1458690762519836e-01 1.6866253316402435e-01</leafValues></_>
        <_>
          <internalNodes>
            0 -1 648 -294654703 -1035338798 335533805 -238813239
            -994400341 -101722141 506205261 -67150761</internalNodes>
          <leafValues>
            -1.6334155201911926e-01 3.3438706398010254e-01</leafValues></_>
        <_>
          <internalNodes>
            0 -1 135 -766859586 -63139039 140807488 -1188988143
            699355928 -1586466816 1957251276 1833156667</internalNodes>
          <leafValues>
            -2.3458218574523926e-01 2.3041394352912903e-01</leafValues></_>
        <_>
          <internalNodes>
            0 -1 601 -1028218358 -439358518 -1278516902 -1870398582
            -417136704 490002324 -578443319 -787774526</internalNodes>
          <leafValues>
            -2.0265378057956696e-01 2.6650878787040710e-01</leafValues></_>
        <_>
          <internalNodes>
            0 -1 509 -357936975 1500301979 -449127241 -1275227945
            1252558257 -239053057 978288840 -494548231</internalNodes>
          <leafValues>
            -1.8816290795803070e-01 2.8835478425025940e-01</leafValues></_>
        <_>
          <internalNodes>
            0 -1 283 1113056062 1376429152 -2004723955 969397020
            1410605009 686295048 1761099513 1375152712</internalNodes>
          <leafValues>
            -2.6696199178695679e-01 1.9751457870006561e-01</leafValues></_>
        <_>
          <internalNodes>
            0 -1 313 -40349672 -741653436 615573409 -1017003104
            -173637478 1531592865 -1016401205 -771727188</internalNodes>
          <leafValues>
            -2.2365017235279083e-01 2.4426455795764923e-01</leafValues></_>
        <_>
          <internalNodes>
            0 -1 271 -1942763814 43679026 1628487289 117965830
            -366319781 2100904249 -9727989 554111131</internalNodes>
          <leafValues>
            -2.8094404935836792e-01 1.9269773364067078e-01</leafValues></_>
        <_>
          <internalNodes>
            0 -1 857 -750179328 1037803529 -567254864 -125011258
            125968392 6885472 -701326164 -1528305337</internalNodes>
          <leafValues>
            -2.4638019502162933e-01 2.2273619472980499e-01</leafValues></_>
        <_>
          <internalNodes>
            0 -1 890 1633418645 -63199817 212080728 -254139702
            -1414549016 -1176772086 350915049 519245892</internalNodes>
          <leafValues>
            -2.3016057908535004e-01 2.3614725470542908e-01</leafValues></_>
        <_>
          <internalNodes>
            0 -1 585 1122913253 1426466055 -458141219 868586299
            1547495676 113936860 -643075984 44985763</internalNodes>
          <leafValues>
            -2.9282271862030029e-01 1.9003014266490936e-01</leafValues></_>
        <_>
          <internalNodes>
            0 -1 471 1733540783 -1569642190 -1637343512 435498988
            751267104 1782644001 709934990 -302514177</internalNodes>
          <leafValues>
            -1.5383428335189819e-01 3.5882720351219177e-01</leafValues></_>
        <_>
          <internalNodes>
            0 -1 649 -689042377 -1296828290 95772565 -605302158
            -698986084 388470511 -1010244155 -1343671421</internalNodes>
          <leafValues>
            -1.8303962051868439e-01 3.0343702435493469e-01</leafValues></_>
        <_>
          <internalNodes>
            0 -1 436 -398530132 1770542574 164966906 1565352498
            -394039642 -2133207507 -332400542 1215920647</internalNodes>
          <leafValues>
            -2.8091311454772949e-01 1.9658483564853668e-01</leafValues></_>
        <_>
          <internalNodes>
            0 -1 79 2057457558 914845108 1677984712 -56228974 -300602000
            336620861 1098249243 1936737710</internalNodes>
          <leafValues>
            -3.3365124464035034e-01 1.5900166332721710e-01</leafValues></_></weakClassifiers></_>
    <!-- stage 6 -->
    <_>
      <maxWeakCount>37</maxWeakCount>
      <stageThreshold>-4.6105343103408813e-01</stageThreshold>
      <weakClassifiers>
        <_>
          <internalNodes>
            0 -1 346 -16926500 -728396809 1045415645 496878587
            1794489032 -1168114706 -1145076806 1073720027</internalNodes>
          <leafValues>
            4.7546011209487915e-01 7.9331362247467041e-01</leafValues></_>
        <_>
          <internalNodes>
            0 -1 706 1580076853 -164645889 -2054408207 -475740442
            805154472 -825364482 -1663244130 -577932203</internalNodes>
          <leafValues>
            -8.1230469048023224e-02 4.0425977110862732e-01</leafValues></_>
        <_>
          <internalNodes>
            0 -1 158 -906050818 -538991619 -1014672173 -138047257
            -281345 -51260689 -437820693 1979146719</internalNodes>
          <leafValues>
            -2.1619561314582825e-01 2.7272835373878479e-01</leafValues></_>
        <_>
          <internalNodes>
            0 -1 750 -1033230327 -72760607 767470583 -1192107840
            -402976359 -73428001 -633398467 -671166463</internalNodes>
          <leafValues>
            -2.3094007372856140e-01 2.2509810328483582e-01</leafValues></_>
        <_>
          <internalNodes>
            0 -1 722 -1561459151 -2102514304 -2035069228 1894658990
            -356841901 -2017769493 550200917 -1405996484</internalNodes>
          <leafValues>
            -3.3629021048545837e-01 1.3132576644420624e-01</leafValues></_>
        <_>
          <internalNodes>
            0 -1 629 -23474407 -322973757 1422331205 -1587819019
            -1086618858 2125673131 -1371577710 -1321565920</internalNodes>
          <leafValues>
            -2.0439653098583221e-01 2.5864830613136292e-01</leafValues></_>
        <_>
          <internalNodes>
            0 -1 331 1769664230 895886770 143533672 1501635392
            1724886921 974006763 2138899191 1838113890</internalNodes>
          <leafValues>
            -2.7387943863868713e-01 1.8410353362560272e-01</leafValues></_>
        <_>
          <internalNodes>
            0 -1 643 411185968 -125611371 -258401573 1508654521
            252457149 -1109324105 -1684626119 -84638700</internalNodes>
          <leafValues>
            -2.8745001554489136e-01 1.8022875487804413e-01</leafValues></_>
        <_>
          <internalNodes>
            0 -1 187 154140398 1484599870 586952584 239679734 -90475980
            824687612 -353391330 986578550</internalNodes>
          <leafValues>
            -2.9021444916725159e-01 1.9286844134330750e-01</leafValues></_>
        <_>
          <internalNodes>
            0 -1 851 -203980972 1939543325 723084254 2130851892
            -546616374 -1972706706 -2082043510 1905778136</internalNodes>
          <leafValues>
            -2.3961831629276276e-01 2.2251020371913910e-01</leafValues></_>
        <_>
          <internalNodes>
            0 -1 500 -643277821 1508071390 489489905 -1515349387
            -1650752050 524505743 268123628 1740076034</internalNodes>
          <leafValues>
            -2.2309997677803040e-01 2.2960594296455383e-01</leafValues></_>
        <_>
          <internalNodes>
            0 -1 635 -20147748 1973250525 1753129880 635732650 293540626
            -606666101 -1095305294 135542158</internalNodes>
          <leafValues>
            -3.2569739222526550e-01 1.4988397061824799e-01</leafValues></_>
        <_>
          <internalNodes>
            0 -1 50 -198281609 -590812160 1520884623 1794026429
            1470383653 -619686608 453340733 -1371710115</internalNodes>
          <leafValues>
            -2.1388119459152222e-01 2.2653397917747498e-01</leafValues></_>
        <_>
          <internalNodes>
            0 -1 691 -1576299389 -325191823 -983126987 -1999660043
            -886336177 -822100547 -953303877 -358961291</internalNodes>
          <leafValues>
            -1.7802277207374573e-01 2.7962833642959595e-01</leafValues></_>
        <_>
          <internalNodes>
            0 -1 584 -721453053 326891079 -642654991 -239808269
            1320912562 -671136808 1727972466 -1717058325</internalNodes>
          <leafValues>
            -1.8636170029640198e-01 2.9652523994445801e-01</leafValues></_>
        <_>
          <internalNodes>
            0 -1 555 -877954688 599288482 -1560240991 -1246184257
            1544026524 1440364709 187263056 1604441587</internalNodes>
          <leafValues>
            -2.7094992995262146e-01 1.8789303302764893e-01</leafValues></_>
        <_>
          <internalNodes>
            0 -1 564 1396266143 -347091519 -64223809 -1084419097
            599624474 -1044040327 193746942 -77333926</internalNodes>
          <leafValues>
            -1.4635829627513885e-01 3.4748750925064087e-01</leafValues></_>
        <_>
          <internalNodes>
            0 -1 596 -124010237 -255130195 -145044939 -131255300
            375031981 477611122 -808512813 -35423096</internalNodes>
          <leafValues>
            -1.6010442376136780e-01 3.0655270814895630e-01</leafValues></_>
        <_>
          <internalNodes>
            0 -1 656 -434648285 777439900 -1499587605 919596276
            710069193 -151017512 683353810 -1198660669</internalNodes>
          <leafValues>
            -2.1516765654087067e-01 2.3464103043079376e-01</leafValues></_>
        <_>
          <internalNodes>
            0 -1 266 -151337761 2077588817 -1910157314 -245408709
            -271088979 -27970545 -125157425 -81788998</internalNodes>
          <leafValues>
            -1.1355716735124588e-01 4.4639319181442261e-01</leafValues></_>
        <_>
          <internalNodes>
            0 -1 929 1961782741 -248446035 -983688644 -180214503
            -1206512946 866190615 -1982559526 -68003066</internalNodes>
          <leafValues>
            -1.7304678261280060e-01 2.9646638035774231e-01</leafValues></_>
        <_>
          <internalNodes>
            0 -1 964 1358147889 -1867738383 2040995669 98499377
            -778716197 -1467449191 -1650595045 -1997430801</internalNodes>
          <leafValues>
            -1.5716309845447540e-01 3.1922185420989990e-01</leafValues></_>
        <_>
          <internalNodes>
            0 -1 90 -1878166697 -1268643819 -444491713 -1890010484
            1665356661 2071334644 1346860280 1781161295</internalNodes>
          <leafValues>
            -2.2904823720455170e-01 2.2223199903964996e-01</leafValues></_>
        <_>
          <internalNodes>
            0 -1 800 -1095891454 1923366884 -2093049509 -1294958314
            222836799 -1165139893 187621687 -705366251</internalNodes>
          <leafValues>
            -2.6095238327980042e-01 1.9224555790424347e-01</leafValues></_>
        <_>
          <internalNodes>
            0 -1 783 1388834094 -876828892 120418344 385925922 930076992
            820349571 -94967794 960363499</internalNodes>
          <leafValues>
            -2.2362545132637024e-01 2.2535887360572815e-01</leafValues></_>
        <_>
          <internalNodes>
            0 -1 120 -1730494427 -786074974 208220125 489980421
            -426607943 -336054959 667036094 -1360041921</internalNodes>
          <leafValues>
            -1.8120145797729492e-01 2.7290645241737366e-01</leafValues></_>
        <_>
          <internalNodes>
            0 -1 221 1082115927 1885771060 -1514575486 1009064356
            588769947 -1298642619 2030964061 2144304586</internalNodes>
          <leafValues>
            -1.9855108857154846e-01 2.5289317965507507e-01</leafValues></_>
        <_>
          <internalNodes>
            0 -1 761 -1426203105 -366135907 528260127 -288057232
            389128588 715255735 926799543 -33948683</internalNodes>
          <leafValues>
            -1.8530318140983582e-01 2.7156016230583191e-01</leafValues></_>
        <_>
          <internalNodes>
            0 -1 388 -1883189430 974128740 538084770 -1881398478
            -1597256520 -1328478760 1283603114 1098253666</internalNodes>
          <leafValues>
            -3.4283766150474548e-01 1.5668492019176483e-01</leafValues></_>
        <_>
          <internalNodes>
            0 -1 568 -953938019 1453436531 -283550240 1873871416
            -210301176 -1698935401 -1072855412 -1471985749</internalNodes>
          <leafValues>
            -2.1982674300670624e-01 2.3602998256683350e-01</leafValues></_>
        <_>
          <internalNodes>
            0 -1 397 -148119295 1413726304 -948481530 -671140765
            -1955748915 -1920808811 1430106555 -722487001</internalNodes>
          <leafValues>
            -1.5539552271366119e-01 3.3400103449821472e-01</leafValues></_>
        <_>
          <internalNodes>
            0 -1 659 -363375227 -223506712 -129705154 74943995 258683852
            -312281100 979110422 -104981586</internalNodes>
          <leafValues>
            -1.7985953390598297e-01 2.7970895171165466e-01</leafValues></_>
        <_>
          <internalNodes>
            0 -1 644 -525734752 650328307 2001933902 349361355
            -1277553792 -276585223 675946586 1209340967</internalNodes>
          <leafValues>
            -3.0876427888870239e-01 1.6956633329391479e-01</leafValues></_>
        <_>
          <internalNodes>
            0 -1 71 -625688002 323184335 -1472028280 -1485951665
            1623537776 -82391870 1553577443 1799140458</internalNodes>
          <leafValues>
            -2.5791329145431519e-01 1.9981072843074799e-01</leafValues></_>
        <_>
          <internalNodes>
            0 -1 953 -92682996 1348406352 -1062991736 1389013579
            -490239808 1481182740 -515399062 1344514958</internalNodes>
          <leafValues>
            -2.2751858830451965e-01 2.4006153643131256e-01</leafValues></_>
        <_>
          <internalNodes>
            0 -1 697 -7351341 -1633818287 -122479686 -38016540
            2059256791 -927019933 -152400069 -6744</internalNodes>
          <leafValues>
            -1.2048065662384033e-01 4.2004868388175964e-01</leafValues></_>
        <_>
          <internalNodes>
            0 -1 730 -1026933922 -1060425730 1354280117 -460361697
            -1761440630 -728348 -3707933 -342228408</internalNodes>
          <leafValues>
            -2.0404417812824249e-01 2.6257696747779846e-01</leafValues></_></weakClassifiers></_>
    <!-- stage 7 -->
    <_>
      <maxWeakCount>39</maxWeakCount>
      <stageThreshold>-5.9169554710388184e-01</stageThreshold>
      <weakClassifiers>
        <_>
          <internalNodes>
            0 -1 272 -1538457666 1413761556 2093112831 -1394293252
            -225165388 -1241772252 1739390327 2098944</internalNodes>
          <leafValues>
            3.0672746896743774e-01 7.2828418016433716e-01</leafValues></_>
        <_>
          <internalNodes>
            0 -1 636 247139040 -1481116768 -1058140805 -17332079
            1472269241 -1543786549 -2018175568 -1091522999</internalNodes>
          <leafValues>
            -1.5678696334362030e-01 3.4352663159370422e-01</leafValues></_>
        <_>
          <internalNodes>
            0 -1 175 930162650 -1159743789 387314959 -336615979
            -1879392526 -1091360034 -942953670 1071496762</internalNodes>
          <leafValues>
            -2.5818315148353577e-01 2.1723908185958862e-01</leafValues></_>
        <_>
          <internalNodes>
            0 -1 579 1228670125 375536538 417545469 1429754325
            -255236939 246365957 -391248672 1619546256</internalNodes>
          <leafValues>
            -3.6074817180633545e-01 1.4282399415969849e-01</leafValues></_>
        <_>
          <internalNodes>
            0 -1 444 -955973293 488139775 1608551196 -1142912238
            1567342574 876527291 1794172620 -388533577</internalNodes>
          <leafValues>
            -1.9821879267692566e-01 2.4435581266880035e-01</leafValues></_>
        <_>
          <internalNodes>
            0 -1 154 -1614364426 -839525542 1409591533 -320265564
            -348181509 -608610009 1658008291 1971020491</internalNodes>
          <leafValues>
            -2.2951887547969818e-01 2.0354351401329041e-01</leafValues></_>
        <_>
          <internalNodes>
            0 -1 634 -176394420 -699103530 -1755388417 2128885442
            1155706754 -291313274 -1465893190 166929003</internalNodes>
          <leafValues>
            -3.2191100716590881e-01 1.3213968276977539e-01</leafValues></_>
        <_>
          <internalNodes>
            0 -1 703 -1600006762 -290746974 656459283 -391522701
            214806964 964144881 928529997 -1079002163</internalNodes>
          <leafValues>
            -2.0611269772052765e-01 2.3053978383541107e-01</leafValues></_>
        <_>
          <internalNodes>
            0 -1 509 -1165230799 2145884603 -1673791279 1406368189
            1518077603 -5486985 -1711039480 -1020932221</internalNodes>
          <leafValues>
            -1.7921034991741180e-01 2.6256722211837769e-01</leafValues></_>
        <_>
          <internalNodes>
            0 -1 729 1491008507 1498693101 753568305 307542875 39813076
            -877390265 -1885295968 -1913134282</internalNodes>
          <leafValues>
            -1.8384006619453430e-01 2.5094214081764221e-01</leafValues></_>
        <_>
          <internalNodes>
            0 -1 400 1625804548 339216134 1170486304 1171803392 78096535
            549198303 1879568480 334431975</internalNodes>
          <leafValues>
            -3.1159186363220215e-01 1.5003030002117157e-01</leafValues></_>
        <_>
          <internalNodes>
            0 -1 689 184601944 1617917 1527029017 522205808 198119741
            707362462 -2124607080 -542632958</internalNodes>
          <leafValues>
            -3.0257818102836609e-01 1.5891300141811371e-01</leafValues></_>
        <_>
          <internalNodes>
            0 -1 898 -92537899 1394428253 -564169475 -214461026
            -73407782 -102503779 -264584290 -34897713</internalNodes>
          <leafValues>
            -1.2006128579378128e-01 3.9670744538307190e-01</leafValues></_>
        <_>
          <internalNodes>
            0 -1 333 -1016617116 831115744 1528957554 -712295792
            1339830203 231280772 1686119883 352785610</internalNodes>
          <leafValues>
            -2.5475803017616272e-01 1.8658839166164398e-01</leafValues></_>
        <_>
          <internalNodes>
            0 -1 161 1275735194 1375527926 -1539292331 1569526624
            -169543944 -2033299483 712261307 1204772730</internalNodes>
          <leafValues>
            -2.3859095573425293e-01 2.0219488441944122e-01</leafValues></_>
        <_>
          <internalNodes>
            0 -1 494 -182323591 -577807609 1756616887 -1120276755
            -1254738086 2125641479 -372904818 -236925404</internalNodes>
          <leafValues>
            -1.6436335444450378e-01 2.8965923190116882e-01</leafValues></_>
        <_>
          <internalNodes>
            0 -1 812 -424401888 -1981967144 2020841054 -67228436
            -527689596 -1403744249 -1424770365 -273383608</internalNodes>
          <leafValues>
            -2.3573261499404907e-01 2.0643949508666992e-01</leafValues></_>
        <_>
          <internalNodes>
            0 -1 700 -81803301 -1701724165 -980722413 -740172106
            -1281379918 -17855650 -444474993 -526445</internalNodes>
          <leafValues>
            -1.0216592997312546e-01 4.7306919097900391e-01</leafValues></_>
        <_>
          <internalNodes>
            0 -1 367 -1993473882 -733536248 1087858125 -577787508
            474203809 1350870208 1907166200 1959207810</internalNodes>
          <leafValues>
            -2.6257580518722534e-01 1.8712492287158966e-01</leafValues></_>
        <_>
          <internalNodes>
            0 -1 593 1887890460 1897702708 -514154669 699973034
            744548077 -172717391 1715747406 -716181464</internalNodes>
          <leafValues>
            -2.3721875250339508e-01 2.0298168063163757e-01</leafValues></_>
        <_>
          <internalNodes>
            0 -1 56 135530357 276309628 290488135 3023502 258766321
            264269909 1238646221 550786420</internalNodes>
          <leafValues>
            -3.9828026294708252e-01 1.2842181324958801e-01</leafValues></_>
        <_>
          <internalNodes>
            0 -1 83 1345457879 1031305991 -867854929 -1362763669
            1486685406 1792875077 1797721609 1762710298</internalNodes>
          <leafValues>
            -2.2330254316329956e-01 2.1111974120140076e-01</leafValues></_>
        <_>
          <internalNodes>
            0 -1 446 -2131858410 417495108 324863419 520410444 170860720
            1402681989 206438592 1793487040</internalNodes>
          <leafValues>
            -3.5507896542549133e-01 1.3404874503612518e-01</leafValues></_>
        <_>
          <internalNodes>
            0 -1 686 -552866476 -794210382 -1862199309 -2029325630
            799381992 714248610 1431885548 -977857290</internalNodes>
          <leafValues>
            -2.2029374539852142e-01 2.1646736562252045e-01</leafValues></_>
        <_>
          <internalNodes>
            0 -1 398 -857497542 458064256 1279352978 -112339624
            425328374 101610248 -1316124269 -795880061</internalNodes>
          <leafValues>
            -1.6926658153533936e-01 2.8476408123970032e-01</leafValues></_>
        <_>
          <internalNodes>
            0 -1 725 -991967721 -428941782 -1468052692 -1157182982
            1968313409 -53373919 -275711012 -1400681538</internalNodes>
          <leafValues>
            -1.7959862947463989e-01 2.7112585306167603e-01</leafValues></_>
        <_>
          <internalNodes>
            0 -1 191 -697155337 -1188277916 2075077209 -1793353683
            -561835620 2124108977 2063939999 -1611707095</internalNodes>
          <leafValues>
            -1.5790659189224243e-01 3.0930843949317932e-01</leafValues></_>
        <_>
          <internalNodes>
            0 -1 732 1138730765 1890561838 344606920 159654530
            1577154554 191299763 -106385798 99087331</internalNodes>
          <leafValues>
            -2.3338174819946289e-01 2.1501207351684570e-01</leafValues></_>
        <_>
          <internalNodes>
            0 -1 712 -299880448 -1685749372 1227750324 -367569815
            -620821676 -522067037 1896512025 -626428251</internalNodes>
          <leafValues>
            -2.7151972055435181e-01 1.7799921333789825e-01</leafValues></_>
        <_>
          <internalNodes>
            0 -1 438 -1208790680 -1301443031 -1756547984 1626892533
            -1743924656 118790433 -1959807480 -2145201744</internalNodes>
          <leafValues>
            -2.9131764173507690e-01 1.7039173841476440e-01</leafValues></_>
        <_>
          <internalNodes>
            0 -1 119 1454802519 -263835942 1600476235 -750550177
            -1871535224 -878604095 -69664583 1280002686</internalNodes>
          <leafValues>
            -1.8866255879402161e-01 2.7304086089134216e-01</leafValues></_>
        <_>
          <internalNodes>
            0 -1 852 -1030262111 2104767919 -1458586770 1938826979
            -1578419224 -860167045 -1205159540 -34379258</internalNodes>
          <leafValues>
            -1.8330991268157959e-01 2.7295890450477600e-01</leafValues></_>
        <_>
          <internalNodes>
            0 -1 289 -126617613 1987624906 -1372594812 -1117915002
            -1105874947 1299548158 490151398 2113922050</internalNodes>
          <leafValues>
            -1.6729693114757538e-01 2.9948064684867859e-01</leafValues></_>
        <_>
          <internalNodes>
            0 -1 260 837854208 -36118810 -509871092 -242799030 18068411
            1202457556 1551495782 1288684014</internalNodes>
          <leafValues>
            -2.4370153248310089e-01 2.1209253370761871e-01</leafValues></_>
        <_>
          <internalNodes>
            0 -1 846 -1367187231 -956571255 151215687 -1105573929
            -878676732 -705737581 1570772465 -84921501</internalNodes>
          <leafValues>
            -2.2704823315143585e-01 2.1296772360801697e-01</leafValues></_>
        <_>
          <internalNodes>
            0 -1 839 -629740159 -1320281958 967836761 -1079121316
            -693876744 -1147502174 1369786127 -1648646261</internalNodes>
          <leafValues>
            -1.6631062328815460e-01 2.9299780726432800e-01</leafValues></_>
        <_>
          <internalNodes>
            0 -1 685 1764223873 -1894977578 -1233918029 -1452416338
            -93345837 1779087326 -2077228433 439046267</internalNodes>
          <leafValues>
            -2.0647042989730835e-01 2.4725887179374695e-01</leafValues></_>
        <_>
          <internalNodes>
            0 -1 870 -2007215747 130074566 428369477 -2120469220
            -476673040 -1982667515 -131124176 763394420</internalNodes>
          <leafValues>
            -3.2058948278427124e-01 1.5517687797546387e-01</leafValues></_>
        <_>
          <internalNodes>
            0 -1 639 845418001 -2030236619 2065113503 20302587
            1735362435 1703998088 1101802252 -2032332270</internalNodes>
          <leafValues>
            -2.6467105746269226e-01 1.8443280458450317e-01</leafValues></_></weakClassifiers></_>
    <!-- stage 8 -->
    <_>
      <maxWeakCount>42</maxWeakCount>
      <stageThreshold>-5.1818466186523438e-01</stageThreshold>
      <weakClassifiers>
        <_>
          <internalNodes>
            0 -1 64 -409614 -33562635 1694867488 1878699480 1004273655
            2112994282 251657244 1799205780</internalNodes>
          <leafValues>
            4.5185938477516174e-01 7.7111715078353882e-01</leafValues></_>
        <_>
          <internalNodes>
            0 -1 550 -737682028 -728064009 -664467555 -641736001
            -875602020 1423629334 -867255972 -808231233</internalNodes>
          <leafValues>
            -7.1860507130622864e-02 3.9341938495635986e-01</leafValues></_>
        <_>
          <internalNodes>
            0 -1 499 -1555461036 770544257 -1010653777 -325091085
            -184686716 1825950535 1668916654 -260449356</internalNodes>
          <leafValues>
            -2.5547990202903748e-01 2.0021905004978180e-01</leafValues></_>
        <_>
          <internalNodes>
            0 -1 769 -136899993 -1163530363 -152573797 -757083529
            -1011391582 663986085 -1549315555 -537604527</internalNodes>
          <leafValues>
            -1.9295778870582581e-01 2.5072452425956726e-01</leafValues></_>
        <_>
          <internalNodes>
            0 -1 526 -1901327817 1687812525 -2044850467 -2141828652
            1724011478 343043539 1101271876 -260969993</internalNodes>
          <leafValues>
            -3.1709665060043335e-01 1.3073927164077759e-01</leafValues></_>
        <_>
          <internalNodes>
            0 -1 124 1767341503 993820505 1855088445 484619448 509372319
            1610599537 1820684155 -537481490</internalNodes>
          <leafValues>
            -1.7599304020404816e-01 2.7549260854721069e-01</leafValues></_>
        <_>
          <internalNodes>
            0 -1 350 1982851456 -107240298 -872427559 -1108831068
            587134096 -655891009 -176989694 280718539</internalNodes>
          <leafValues>
            -2.3399311304092407e-01 1.9507744908332825e-01</leafValues></_>
        <_>
          <internalNodes>
            0 -1 784 -772407425 1364218331 -1604918466 593984011
            -2080514084 1598517936 -1260934870 -268459358</internalNodes>
          <leafValues>
            -1.5555419027805328e-01 3.0315071344375610e-01</leafValues></_>
        <_>
          <internalNodes>
            0 -1 408 -776753534 -2136003870 6304544 -840587864
            1112908555 119806132 936882181 -687897729</internalNodes>
          <leafValues>
            -1.8263584375381470e-01 2.3863223195075989e-01</leafValues></_>
        <_>
          <internalNodes>
            0 -1 16 -835474185 -177887779 -1148214910 -34713758
            -822657105 -807812385 -1682717455 -867064201</internalNodes>
          <leafValues>
            -1.5708911418914795e-01 2.8780490159988403e-01</leafValues></_>
        <_>
          <internalNodes>
            0 -1 252 -633610465 432993247 -793381519 1569560922
            -230941793 -2106286153 1302664328 -349736905</internalNodes>
          <leafValues>
            -1.3640449941158295e-01 3.3162745833396912e-01</leafValues></_>
        <_>
          <internalNodes>
            0 -1 578 -1087350749 -417153016 -251111182 -70823285
            -609610020 1265862925 -226346026 -792732793</internalNodes>
          <leafValues>
            -2.0701387524604797e-01 2.2063969075679779e-01</leafValues></_>
        <_>
          <internalNodes>
            0 -1 435 1488557279 1911434317 -860436498 530881323
            -1081221141 -920150777 -988822406 2074310223</internalNodes>
          <leafValues>
            -1.5505267679691315e-01 2.8608924150466919e-01</leafValues></_>
        <_>
          <internalNodes>
            0 -1 426 -712587148 1423043619 -2141370801 -307377703
            395749626 -627653609 -591597788 1787057756</internalNodes>
          <leafValues>
            -2.7677598595619202e-01 1.7085634171962738e-01</leafValues></_>
        <_>
          <internalNodes>
            0 -1 662 1839199030 1919816949 -1817004177 -1947229532
            1039609772 2131705403 1909914542 -308054371</internalNodes>
          <leafValues>
            -1.8136809766292572e-01 2.4486947059631348e-01</leafValues></_>
        <_>
          <internalNodes>
            0 -1 8 709120597 505075964 331471687 1789846697 -1827468297
            936669587 -1810499801 1951886653</internalNodes>
          <leafValues>
            -2.5396290421485901e-01 1.7506700754165649e-01</leafValues></_>
        <_>
          <internalNodes>
            0 -1 638 -1114954962 -1433488657 621774678 -799942590
            -1345047456 -744810565 1004014342 -1292809467</internalNodes>
          <leafValues>
            -2.6673352718353271e-01 1.6386021673679352e-01</leafValues></_>
        <_>
          <internalNodes>
            0 -1 450 -862207064 -873782999 -1631978011 -1077323375
            -26722944 532225181 -286320901 -520126462</internalNodes>
          <leafValues>
            -1.7230944335460663e-01 2.6004514098167419e-01</leafValues></_>
        <_>
          <internalNodes>
            0 -1 319 -1795111440 1991932255 -1577528344 1916047888
            1294377386 1615416081 762823215 78965886</internalNodes>
          <leafValues>
            -3.1318017840385437e-01 1.4702087640762329e-01</leafValues></_>
        <_>
          <internalNodes>
            0 -1 910 -95162170 1359071431 71321314 1104139000 1063502400
            28535052 -787427198 -144706129</internalNodes>
          <leafValues>
            -1.6204632818698883e-01 2.7835208177566528e-01</leafValues></_>
        <_>
          <internalNodes>
            0 -1 623 -1911066676 728506583 1393320277 -647518640
            1341040418 -2031964730 -1535617192 1440570947</internalNodes>
          <leafValues>
            -2.4831728637218475e-01 1.8506380915641785e-01</leafValues></_>
        <_>
          <internalNodes>
            0 -1 740 -299893295 -1304769786 -68296489 -1145378254
            -844840963 -991122241 -491452421 -813828897</internalNodes>
          <leafValues>
            -1.3327996432781219e-01 3.3599954843521118e-01</leafValues></_>
        <_>
          <internalNodes>
            0 -1 989 859864567 -453965872 -1340717281 -2089970861
            -1423273621 29032538 222218595 1456258876</internalNodes>
          <leafValues>
            -2.1334743499755859e-01 2.0960985124111176e-01</leafValues></_>
        <_>
          <internalNodes>
            0 -1 639 1462763447 -106591243 1839125375 -76297034
            -453269789 -403686398 -573725793 -807535017</internalNodes>
          <leafValues>
            -1.2053943425416946e-01 3.7645220756530762e-01</leafValues></_>
        <_>
          <internalNodes>
            0 -1 767 -1836908880 1033259156 1550689627 -1315089076
            451894219 -2017023781 1560221848 -1143390201</internalNodes>
          <leafValues>
            -1.7973768711090088e-01 2.5189125537872314e-01</leafValues></_>
        <_>
          <internalNodes>
            0 -1 592 -1037605149 2119881274 202845766 378323124
            1631489992 -39385032 875635256 1038575090</internalNodes>
          <leafValues>
            -2.4554227292537689e-01 1.8571072816848755e-01</leafValues></_>
        <_>
          <internalNodes>
            0 -1 421 -744961576 -1347361921 -578023637 756044528
            -982273529 1408859874 388310063 393340570</internalNodes>
          <leafValues>
            -2.4410066008567810e-01 1.9068472087383270e-01</leafValues></_>
        <_>
          <internalNodes>
            0 -1 535 -503664657 1788486592 -881828277 -1820825301
            1156428678 -1968525741 61166874 -1644751930</internalNodes>
          <leafValues>
            -1.9651579856872559e-01 2.4533882737159729e-01</leafValues></_>
        <_>
          <internalNodes>
            0 -1 540 1442560795 1045899376 1648265238 847560094
            1825670945 1031324832 666151244 -7225630</internalNodes>
          <leafValues>
            -1.8531180918216705e-01 2.5878003239631653e-01</leafValues></_>
        <_>
          <internalNodes>
            0 -1 697 -1327861693 -1596198255 -793036776 -1259630314
            -138900525 -2119936016 -80627901 -51577363</internalNodes>
          <leafValues>
            -2.0208247005939484e-01 2.3705472052097321e-01</leafValues></_>
        <_>
          <internalNodes>
            0 -1 967 101780753 93538653 156065041 -1797459723
            -1985634386 -1799665727 -578493972 -1929608276</internalNodes>
          <leafValues>
            -1.8103897571563721e-01 2.6103195548057556e-01</leafValues></_>
        <_>
          <internalNodes>
            0 -1 952 -1008278804 -766298086 -1737940982 1611598290
            -367135090 -1861613269 -1216242994 -761797945</internalNodes>
          <leafValues>
            -1.6656237840652466e-01 2.8770557045936584e-01</leafValues></_>
        <_>
          <internalNodes>
            0 -1 935 -345054838 -208185777 7237222 1470865927 -742485618
            827226929 -1974403365 -138695989</internalNodes>
          <leafValues>
            -1.3875208795070648e-01 3.6077371239662170e-01</leafValues></_>
        <_>
          <internalNodes>
            0 -1 904 -168042548 -115920811 -2130696402 -716073742
            -1290529920 -550588794 -355539313 -37508606</internalNodes>
          <leafValues>
            -1.5288519859313965e-01 3.2754945755004883e-01</leafValues></_>
        <_>
          <internalNodes>
            0 -1 250 1472726980 498639544 -1574555053 -45509532
            2033363621 599262460 1554064132 1944461952</internalNodes>
          <leafValues>
            -2.9056572914123535e-01 1.6882152855396271e-01</leafValues></_>
        <_>
          <internalNodes>
            0 -1 701 320997264 372560032 -881356878 2011394218
            -600094207 -1647131677 1572935954 1295655095</internalNodes>
          <leafValues>
            -3.0033722519874573e-01 1.6466863453388214e-01</leafValues></_>
        <_>
          <internalNodes>
            0 -1 979 652509055 2125965191 -2093670718 1817277430
            -1281410219 -1480596707 -71604123 938757509</internalNodes>
          <leafValues>
            -2.2660017013549805e-01 2.1071404218673706e-01</leafValues></_>
        <_>
          <internalNodes>
            0 -1 96 -174462432 777318864 -1513323136 -378877185
            1131975857 485011364 2076915716 733542530</internalNodes>
          <leafValues>
            -2.9444485902786255e-01 1.6755330562591553e-01</leafValues></_>
        <_>
          <internalNodes>
            0 -1 562 -1086794636 -124946333 -104234917 725977120
            -824249834 -386277110 -1413691496 -1393543028</internalNodes>
          <leafValues>
            -2.3457719385623932e-01 2.0651346445083618e-01</leafValues></_>
        <_>
          <internalNodes>
            0 -1 453 1569977270 1937382756 -1858264066 1917845632
            1375259799 -484197338 1005971132 1843896934</internalNodes>
          <leafValues>
            -1.9707177579402924e-01 2.4327568709850311e-01</leafValues></_>
        <_>
          <internalNodes>
            0 -1 775 1181352589 581346063 647738838 1887666324
            1419496153 -1360404271 1002371003 -1204461520</internalNodes>
          <leafValues>
            -2.5060841441154480e-01 1.8945191800594330e-01</leafValues></_>
        <_>
          <internalNodes>
            0 -1 411 97526871 -2065793201 1007264151 -1534827207
            1691886630 1905789818 1137396336 618409852</internalNodes>
          <leafValues>
            -2.9674750566482544e-01 1.6701577603816986e-01</leafValues></_></weakClassifiers></_>
    <!-- stage 9 -->
    <_>
      <maxWeakCount>43</maxWeakCount>
      <stageThreshold>-5.5226546525955200e-01</stageThreshold>
      <weakClassifiers>
        <_>
          <internalNodes>
            0 -1 572 399510016 1874750188 1282045947 546308244
            -539259646 16752506 -865331976 12582992</internalNodes>
          <leafValues>
            2.3067983984947205e-01 7.1275877952575684e-01</leafValues></_>
        <_>
          <internalNodes>
            0 -1 417 1428761052 996392063 364617109 463130794 -280346145
            -798508366 -846209699 -840744733</internalNodes>
          <leafValues>
            -9.8218113183975220e-02 3.6288130283355713e-01</leafValues></_>
        <_>
          <internalNodes>
            0 -1 62 1373632510 -17574019 -170160433 1838519278
            -774397985 2057206491 -80765541 2128459950</internalNodes>
          <leafValues>
            -1.8697322905063629e-01 2.5174677371978760e-01</leafValues></_>
        <_>
          <internalNodes>
            0 -1 761 -227680433 -18432539 -184746713 -427983449
            321435036 -1081881673 859731261 -365211</internalNodes>
          <leafValues>
            -1.7042185366153717e-01 2.7983453869819641e-01</leafValues></_>
        <_>
          <internalNodes>
            0 -1 715 757345844 449471070 -774736513 1945028234
            1215760867 -1931589534 226265550 686650876</internalNodes>
          <leafValues>
            -3.5118243098258972e-01 1.0423706471920013e-01</leafValues></_>
        <_>
          <internalNodes>
            0 -1 439 -2136191968 1602241836 -955856193 -1953524884
            1678246865 1060081894 1236346968 2081715930</internalNodes>
          <leafValues>
            -3.0532041192054749e-01 1.4441598951816559e-01</leafValues></_>
        <_>
          <internalNodes>
            0 -1 576 -1717932495 -1903614759 396095948 -1444420203
            2073975803 -1880199969 981419143 -2037409760</internalNodes>
          <leafValues>
            -2.2023612260818481e-01 1.9115744531154633e-01</leafValues></_>
        <_>
          <internalNodes>
            0 -1 641 -1006269899 -607929485 2002812732 -1312541532
            205450724 1857220518 239431214 -571213929</internalNodes>
          <leafValues>
            -1.6892431676387787e-01 2.3949904739856720e-01</leafValues></_>
        <_>
          <internalNodes>
            0 -1 236 2074073663 -13108460 -1120244961 -714018467
            -90802709 -4589612 -706130279 2013229626</internalNodes>
          <leafValues>
            -1.4954963326454163e-01 3.0275472998619080e-01</leafValues></_>
        <_>
          <internalNodes>
            0 -1 462 1820262351 838640148 -799839414 301734875
            1136246227 547490793 -340845662 1979181639</internalNodes>
          <leafValues>
            -2.0881186425685883e-01 2.0104379951953888e-01</leafValues></_>
        <_>
          <internalNodes>
            0 -1 329 1406010238 1962861190 1805235613 -704968016
            -313558128 2090770603 474814184 1172685774</internalNodes>
          <leafValues>
            -2.3092879354953766e-01 1.8336887657642365e-01</leafValues></_>
        <_>
          <internalNodes>
            0 -1 488 1309345564 378272895 -45834948 1015585448 -74230766
            172315047 -494852290 1353807644</internalNodes>
          <leafValues>
            -2.8564736247062683e-01 1.5024995803833008e-01</leafValues></_>
        <_>
          <internalNodes>
            0 -1 886 1677717489 1075735649 -12192191 387647893 996311968
            -1875252535 538381454 955846976</internalNodes>
          <leafValues>
            -2.5268721580505371e-01 1.7091728746891022e-01</leafValues></_>
        <_>
          <internalNodes>
            0 -1 643 -1652027119 -276111411 -1648748803 2112928729
            344125753 -1680678761 -1152777608 -84517116</internalNodes>
          <leafValues>
            -2.4439552426338196e-01 1.8162739276885986e-01</leafValues></_>
        <_>
          <internalNodes>
            0 -1 860 -204472385 1905344124 347146786 862377762 867954412
            2519077 -1328773014 -1840787798</internalNodes>
          <leafValues>
            -1.7268680036067963e-01 2.5482836365699768e-01</leafValues></_>
        <_>
          <internalNodes>
            0 -1 288 1686086444 72757894 1428304798 -179603230 651411262
            329487136 949420175 1097292426</internalNodes>
          <leafValues>
            -2.3771107196807861e-01 1.8409609794616699e-01</leafValues></_>
        <_>
          <internalNodes>
            0 -1 586 -1566162361 -1965125307 -283960908 -201613246
            504533694 -403524801 1783227789 -635972841</internalNodes>
          <leafValues>
            -1.9383800029754639e-01 2.2317965328693390e-01</leafValues></_>
        <_>
          <internalNodes>
            0 -1 520 -835777407 1419644550 -408712317 -142918787
            -1981832962 93019453 -1426820992 -564177577</internalNodes>
          <leafValues>
            -1.8500211834907532e-01 2.5309604406356812e-01</leafValues></_>
        <_>
          <internalNodes>
            0 -1 941 -1854164203 -1820974117 -605335273 -717794248
            -1678037079 -2099317351 -1326915759 -1999846607</internalNodes>
          <leafValues>
            -1.7230361700057983e-01 2.6868134737014771e-01</leafValues></_>
        <_>
          <internalNodes>
            0 -1 617 1921679817 -471098147 -46297349 -1381290344
            -680538209 1216335867 -461242015 -41172429</internalNodes>
          <leafValues>
            -1.6532249748706818e-01 2.7446746826171875e-01</leafValues></_>
        <_>
          <internalNodes>
            0 -1 66 202657399 998196390 173189629 723871109 945848189
            2071593742 572532539 -80786818</internalNodes>
          <leafValues>
            -1.6764380037784576e-01 2.6764926314353943e-01</leafValues></_>
        <_>
          <internalNodes>
            0 -1 755 -118848891 -350534246 2133241179 1946127952
            -2046044918 -1849907274 -676499853 -1122047</internalNodes>
          <leafValues>
            -1.6895787417888641e-01 2.7000352740287781e-01</leafValues></_>
        <_>
          <internalNodes>
            0 -1 429 1291116782 1956515410 748536648 54333028 1173109474
            1771996533 -2104428490 549174482</internalNodes>
          <leafValues>
            -3.0653077363967896e-01 1.5615390241146088e-01</leafValues></_>
        <_>
          <internalNodes>
            0 -1 564 -65512392 1127502220 122361221 -1829436713
            -1204081359 -1849723539 -515021014 1382274770</internalNodes>
          <leafValues>
            -2.4186000227928162e-01 1.8669621646404266e-01</leafValues></_>
        <_>
          <internalNodes>
            0 -1 644 771975442 982709634 -2059366769 -1235108662
            -197983326 240207293 -1605644261 -600236686</internalNodes>
          <leafValues>
            -2.3130458593368530e-01 1.9712266325950623e-01</leafValues></_>
        <_>
          <internalNodes>
            0 -1 897 1899194033 -1646667948 -292510361 512424301
            -617108020 -2109761699 -1872393026 -67475545</internalNodes>
          <leafValues>
            -1.4393626153469086e-01 3.2149583101272583e-01</leafValues></_>
        <_>
          <internalNodes>
            0 -1 983 452281711 -929306165 884520423 -923882067
            -364907143 856143205 -86560463 1939648988</internalNodes>
          <leafValues>
            -2.0411911606788635e-01 2.2781004011631012e-01</leafValues></_>
        <_>
          <internalNodes>
            0 -1 838 -792724079 -390859279 2136963487 -552036409
            716953324 -1343822343 111803271 -1145093709</internalNodes>
          <leafValues>
            -1.3659594953060150e-01 3.3308002352714539e-01</leafValues></_>
        <_>
          <internalNodes>
            0 -1 632 82824157 1865805675 -2085472317 -1841908109
            -2068337015 201965091 -1218342840 1767052443</internalNodes>
          <leafValues>
            -2.0294941961765289e-01 2.3461410403251648e-01</leafValues></_>
        <_>
          <internalNodes>
            0 -1 918 2054946769 -779894909 291983377 -753096173
            707274682 -617854050 192380367 -1982081177</internalNodes>
          <leafValues>
            -1.4583989977836609e-01 3.1554138660430908e-01</leafValues></_>
        <_>
          <internalNodes>
            0 -1 534 -152857685 -339268474 -127454444 1888461959
            -1332022617 488361203 1356641196 -771762297</internalNodes>
          <leafValues>
            -1.4008772373199463e-01 3.2206287980079651e-01</leafValues></_>
        <_>
          <internalNodes>
            0 -1 448 331221662 2067256095 -1042675391 230426576
            1577660521 1454109219 -1517801460 78444268</internalNodes>
          <leafValues>
            -3.0542615056037903e-01 1.5376876294612885e-01</leafValues></_>
        <_>
          <internalNodes>
            0 -1 452 -192971712 -259321636 -2015690255 1135053052
            -368993919 1662790611 714760220 -1858869201</internalNodes>
          <leafValues>
            -2.1756036579608917e-01 2.1216131746768951e-01</leafValues></_>
        <_>
          <internalNodes>
            0 -1 101 2096587565 7621393 554713827 -1930238206 1293249817
            245838629 962022372 686041204</internalNodes>
          <leafValues>
            -3.2619899511337280e-01 1.4251819252967834e-01</leafValues></_>
        <_>
          <internalNodes>
            0 -1 291 1605796764 345523056 -1569029580 -1627844974
            1018698641 193739805 762691044 -119819691</internalNodes>
          <leafValues>
            -2.1337372064590454e-01 2.2224752604961395e-01</leafValues></_>
        <_>
          <internalNodes>
            0 -1 777 1922004264 1460340630 -533720014 -62792054
            -1425728685 889766850 767822747 497931868</internalNodes>
          <leafValues>
            -2.4462737143039703e-01 1.9065049290657043e-01</leafValues></_>
        <_>
          <internalNodes>
            0 -1 681 -47212367 -2052412101 -1348096327 -405107294
            163110375 179236327 -704884692 -549478238</internalNodes>
          <leafValues>
            -1.6474145650863647e-01 2.7833166718482971e-01</leafValues></_>
        <_>
          <internalNodes>
            0 -1 450 -843442199 -844133460 1727289284 -32550380
            -694435141 805180584 -817139969 -1899034424</internalNodes>
          <leafValues>
            -1.7275479435920715e-01 2.7542906999588013e-01</leafValues></_>
        <_>
          <internalNodes>
            0 -1 542 -916217594 1295624975 555978332 -439434846
            -582271464 2013145104 223085379 1979704135</internalNodes>
          <leafValues>
            -1.9441057741641998e-01 2.3544110357761383e-01</leafValues></_>
        <_>
          <internalNodes>
            0 -1 992 1700543039 -2060623283 1398382049 -2101283879
            -2025031918 2008224910 1544919342 1566150461</internalNodes>
          <leafValues>
            -2.3644275963306427e-01 1.9682745635509491e-01</leafValues></_>
        <_>
          <internalNodes>
            0 -1 776 -655482114 -696442099 -521236938 -719190368
            -1300428370 722603026 -1025331653 137231396</internalNodes>
          <leafValues>
            -2.5371164083480835e-01 1.8459044396877289e-01</leafValues></_>
        <_>
          <internalNodes>
            0 -1 894 -696293635 1687520011 -1454245521 1538588968
            -53889606 -313664814 725924858 -340280902</internalNodes>
          <leafValues>
            -1.4078657329082489e-01 3.2143089175224304e-01</leafValues></_>
        <_>
          <internalNodes>
            0 -1 714 1477758266 -1309044882 -1774906510 1190260770
            -1299014584 413322171 -719728262 -1286768473</internalNodes>
          <leafValues>
            -2.1468040347099304e-01 2.1940948069095612e-01</leafValues></_></weakClassifiers></_>
    <!-- stage 10 -->
    <_>
      <maxWeakCount>38</maxWeakCount>
      <stageThreshold>-3.6843955516815186e-01</stageThreshold>
      <weakClassifiers>
        <_>
          <internalNodes>
            0 -1 704 586680896 652879852 2130460287 -1035952260
            -1409995359 800914915 -1343476492 11010112</internalNodes>
          <leafValues>
            1.0314685106277466e-01 7.0491218566894531e-01</leafValues></_>
        <_>
          <internalNodes>
            0 -1 479 -1048756 -91251347 1941435245 -918691083 -575677
            -1955144750 -5375017 -1342180353</internalNodes>
          <leafValues>
            -4.6919710934162140e-02 4.3160817027091980e-01</leafValues></_>
        <_>
          <internalNodes>
            0 -1 699 -192954085 -675064491 -254478786 -151722409
            -1145309421 -270806349 -241503373 -151137935</internalNodes>
          <leafValues>
            -1.7661654949188232e-01 2.9235535860061646e-01</leafValues></_>
        <_>
          <internalNodes>
            0 -1 719 912432703 180992447 1313576170 -633012385
            -1267366209 1202712549 1825383660 -2147126425</internalNodes>
          <leafValues>
            -2.4642314016819000e-01 1.9333772361278534e-01</leafValues></_>
        <_>
          <internalNodes>
            0 -1 582 -1699058095 497576936 -766863503 -147981955
            -328490827 -1411759205 1351303411 -118551535</internalNodes>
          <leafValues>
            -2.4754928052425385e-01 1.8379816412925720e-01</leafValues></_>
        <_>
          <internalNodes>
            0 -1 67 1291435853 1299853759 -1754427982 -510076350
            2104239069 2132301556 -654397828 -5259650</internalNodes>
          <leafValues>
            -1.7891097068786621e-01 2.5398656725883484e-01</leafValues></_>
        <_>
          <internalNodes>
            0 -1 638 1006149674 169990506 -2028398706 -194252094
            -1218249696 1106837855 2007575055 1388392197</internalNodes>
          <leafValues>
            -3.1493866443634033e-01 1.3927608728408813e-01</leafValues></_>
        <_>
          <internalNodes>
            0 -1 637 2138639410 -40948783 1538868969 -929438891
            -1925536306 911451011 266331963 -1363237320</internalNodes>
          <leafValues>
            -2.2422000765800476e-01 2.0960475504398346e-01</leafValues></_>
        <_>
          <internalNodes>
            0 -1 878 548854465 1796874379 -171353997 1060788260
            414142429 -1110901868 333270493 527914263</internalNodes>
          <leafValues>
            -2.2153927385807037e-01 2.0093996822834015e-01</leafValues></_>
        <_>
          <internalNodes>
            0 -1 118 1247975871 -939593216 224806515 -1115541759
            1686424536 -275289296 -1509444373 -2335430</internalNodes>
          <leafValues>
            -1.7631696164608002e-01 2.4983498454093933e-01</leafValues></_>
        <_>
          <internalNodes>
            0 -1 160 -565511117 -798556416 941620763 -587133208
            -304916179 -1141175249 -1178269159 1512781395</internalNodes>
          <leafValues>
            -1.7080138623714447e-01 2.5062823295593262e-01</leafValues></_>
        <_>
          <internalNodes>
            0 -1 536 -463539449 465202980 1518575570 1774152334
            1210346686 889183935 -472410446 2107627086</internalNodes>
          <leafValues>
            -1.8294459581375122e-01 2.4067485332489014e-01</leafValues></_>
        <_>
          <internalNodes>
            0 -1 774 857692148 -1746729278 -72982539 973598019 737123262
            -876976198 -1729363828 -1204860163</internalNodes>
          <leafValues>
            -1.8331778049468994e-01 2.4237716197967529e-01</leafValues></_>
        <_>
          <internalNodes>
            0 -1 803 -1560209318 -221788437 -1728901614 -1338586368
            1664342602 -1010908982 -1861308289 -174579343</internalNodes>
          <leafValues>
            -2.1217586100101471e-01 2.0496428012847900e-01</leafValues></_>
        <_>
          <internalNodes>
            0 -1 527 -331357344 880694132 1615022114 1089235030
            1486080346 81835578 1750299830 2010244851</internalNodes>
          <leafValues>
            -3.2303854823112488e-01 1.3693895936012268e-01</leafValues></_>
        <_>
          <internalNodes>
            0 -1 665 1384521987 -1028700162 1910476416 1791747135
            -1442673426 -1458614858 199553459 -84776122</internalNodes>
          <leafValues>
            -1.9082647562026978e-01 2.3417866230010986e-01</leafValues></_>
        <_>
          <internalNodes>
            0 -1 621 1416347745 -454318781 -1697973639 869945459
            228350909 1991200447 -324725197 -806630339</internalNodes>
          <leafValues>
            -1.7757840454578400e-01 2.6343047618865967e-01</leafValues></_>
        <_>
          <internalNodes>
            0 -1 169 348028375 -549484542 -156502185 -1653753051
            -1784377351 -1099060591 186774252 -86</internalNodes>
          <leafValues>
            -1.1186046898365021e-01 4.0413236618041992e-01</leafValues></_>
        <_>
          <internalNodes>
            0 -1 863 -1061694673 51807023 440711176 1973216196 828060988
            1082740418 -992639318 -788174098</internalNodes>
          <leafValues>
            -1.8471384048461914e-01 2.3817168176174164e-01</leafValues></_>
        <_>
          <internalNodes>
            0 -1 320 -757557848 1601151716 -183822248 1910571139
            695458715 -1026851867 965009728 764112896</internalNodes>
          <leafValues>
            -2.5924566388130188e-01 1.7702433466911316e-01</leafValues></_>
        <_>
          <internalNodes>
            0 -1 443 -1026714149 1563477819 -1814653137 1000993331
            -547381397 -638406831 1911319530 -874914061</internalNodes>
          <leafValues>
            -1.3040126860141754e-01 3.4514680504798889e-01</leafValues></_>
        <_>
          <internalNodes>
            0 -1 420 1370161456 458202502 -73652586 595659306 1500750246
            -1999609430 1343129891 1266716714</internalNodes>
          <leafValues>
            -2.8413850069046021e-01 1.6769853234291077e-01</leafValues></_>
        <_>
          <internalNodes>
            0 -1 559 -133960401 -1308920734 -696884809 -146613038
            -577380680 71516667 -2006122603 1340662483</internalNodes>
          <leafValues>
            -1.7441861331462860e-01 2.6991480588912964e-01</leafValues></_>
        <_>
          <internalNodes>
            0 -1 312 -193306989 -585668168 -1201868461 -1166449015
            -1097208228 -1102847682 -1091150148 -95845319</internalNodes>
          <leafValues>
            -1.4578273892402649e-01 3.1092131137847900e-01</leafValues></_>
        <_>
          <internalNodes>
            0 -1 793 -1090095212 359563035 1061362173 328345107
            1854692348 -1093480298 56112952 491039219</internalNodes>
          <leafValues>
            -2.7942705154418945e-01 1.7061710357666016e-01</leafValues></_>
        <_>
          <internalNodes>
            0 -1 533 653719311 428509183 34376836 715964256 725254134
            852094501 734543264 -1134616072</internalNodes>
          <leafValues>
            -2.4259130656719208e-01 1.8869344890117645e-01</leafValues></_>
        <_>
          <internalNodes>
            0 -1 954 -703886066 -161631476 276337250 1349340872
            1577489098 -1447792016 -1197544534 -500711333</internalNodes>
          <leafValues>
            -1.6759771108627319e-01 2.7044022083282471e-01</leafValues></_>
        <_>
          <internalNodes>
            0 -1 68 1665551607 -3651330 -1125980673 -538957794
            -720023819 -147647375 1918660605 -283806505</internalNodes>
          <leafValues>
            -1.4877001941204071e-01 3.0551421642303467e-01</leafValues></_>
        <_>
          <internalNodes>
            0 -1 315 1536918558 386403354 -602351420 1038402006
            -100280278 -1873652190 2142717546 428294491</internalNodes>
          <leafValues>
            -2.4848818778991699e-01 1.8959510326385498e-01</leafValues></_>
        <_>
          <internalNodes>
            0 -1 460 -839934269 -1180346913 -285263710 -651873833
            -395075390 -153455113 -869444865 -113612090</internalNodes>
          <leafValues>
            -1.4592501521110535e-01 3.2228612899780273e-01</leafValues></_>
        <_>
          <internalNodes>
            0 -1 620 1962674204 992281510 1785115997 1265654506
            669622099 167811905 -986918809 -683088858</internalNodes>
          <leafValues>
            -2.5300878286361694e-01 1.8832863867282867e-01</leafValues></_>
        <_>
          <internalNodes>
            0 -1 772 -1598674590 1357822600 -1004622652 -217735108
            788482903 1173842750 -1525978501 -1513999583</internalNodes>
          <leafValues>
            -2.5820720195770264e-01 1.9366385042667389e-01</leafValues></_>
        <_>
          <internalNodes>
            0 -1 571 159775061 -316149337 1417321808 -179183214
            502659221 -1226081750 -376788930 1956713476</internalNodes>
          <leafValues>
            -2.2985206544399261e-01 2.2026416659355164e-01</leafValues></_>
        <_>
