<?xml version="1.0"?>
<opencv_storage>
<cascade>
  <stageType>BOOST</stageType>
  <featureType>LBP</featureType>
  <height>48</height>
  <width>48</width>
  <stageParams>
    <boostType>GAB</boostType>
    <minHitRate>9.9500000476837158e-01</minHitRate>
    <maxFalseAlarm>5.0000000000000000e-01</maxFalseAlarm>
    <weightTrimRate>9.4999999999999996e-01</weightTrimRate>
    <maxDepth>1</maxDepth>
    <maxWeakCount>100</maxWeakCount></stageParams>
  <featureParams>
    <maxCatCount>256</maxCatCount>
    <featSize>1</featSize></featureParams>
  <stageNum>30</stageNum>
  <stages>
    <!-- stage 0 -->
    <_>
      <maxWeakCount>13</maxWeakCount>
      <stageThreshold>-7.7610111236572266e-01</stageThreshold>
      <weakClassifiers>
        <_>
          <internalNodes>
            0 -1 246 -1063205682 1358956040 8389832 285213696
            -2077187862 144704130 67405994 8</internalNodes>
          <leafValues>
            -7.1722999215126038e-02 7.8168743848800659e-01</leafValues></_>
        <_>
          <internalNodes>
            0 -1 657 -1607856080 -360543824 -1775216935 1492140436
            768214176 -1481360208 -1433927464 -503316464</internalNodes>
          <leafValues>
            -3.9598932862281799e-01 4.7798207402229309e-01</leafValues></_>
        <_>
          <internalNodes>
            0 -1 496 -751832068 -650136930 -1391689324 525968076
            -1599165768 -1163337277 715163800 -1146098709</internalNodes>
          <leafValues>
            -3.1607064604759216e-01 5.1704299449920654e-01</leafValues></_>
        <_>
          <internalNodes>
            0 -1 462 -468713984 1432369164 -1811561423 -251481856
            -795803476 1661540368 -1529460592 -771506014</internalNodes>
          <leafValues>
            -3.6124655604362488e-01 3.7086808681488037e-01</leafValues></_>
        <_>
          <internalNodes>
            0 -1 69 1893443514 -102960206 1390117207 -203587457
            -240387869 -85219300 458333099 1506655950</internalNodes>
          <leafValues>
            -2.9939004778862000e-01 4.2632353305816650e-01</leafValues></_>
        <_>
          <internalNodes>
            0 -1 715 -997480816 -299334654 1342263380 -188133164
            12624272 981010888 1386366984 -727089147</internalNodes>
          <leafValues>
            -4.0861791372299194e-01 3.0177760124206543e-01</leafValues></_>
        <_>
          <internalNodes>
            0 -1 742 -1024817342 -1035074684 1390041700 -246448083
            -1513971554 1151566088 -1176057907 -126103026</internalNodes>
          <leafValues>
            -2.8548246622085571e-01 3.9784976840019226e-01</leafValues></_>
        <_>
          <internalNodes>
            0 -1 490 -652950576 -539899709 -1646163055 -6995258
            -2058843445 -133064889 -886564181 -888422189</internalNodes>
          <leafValues>
            -2.5350326299667358e-01 4.4485959410667419e-01</leafValues></_>
        <_>
          <internalNodes>
            0 -1 602 1214671396 1346780272 1823954357 1464989525
            -790042388 -796446739 -974174987 -131641161</internalNodes>
          <leafValues>
            -3.1430464982986450e-01 3.5310062766075134e-01</leafValues></_>
        <_>
          <internalNodes>
            0 -1 723 -366830976 813707414 1050923322 -1164213632
            -1328873342 -394094158 404921240 -1130816891</internalNodes>
          <leafValues>
            -3.5486429929733276e-01 2.9467627406120300e-01</leafValues></_>
        <_>
          <internalNodes>
            0 -1 714 -787490416 1428726848 1311119421 2100305962 307080
            -1432170844 1006741740 -607433250</internalNodes>
          <leafValues>
            -2.7883455157279968e-01 3.8024884462356567e-01</leafValues></_>
        <_>
          <internalNodes>
            0 -1 222 1912790002 1932773303 -265284967 359465025 6334127
            135312545 622856074 698860347</internalNodes>
          <leafValues>
            -3.1441348791122437e-01 3.4468534588813782e-01</leafValues></_>
        <_>
          <internalNodes>
            0 -1 472 -286293822 -223472783 -255110448 -708765312
            -402553654 -1092920215 -1991687992 -572536434</internalNodes>
          <leafValues>
            -2.4025622010231018e-01 4.4368427991867065e-01</leafValues></_></weakClassifiers></_>
    <!-- stage 1 -->
    <_>
      <maxWeakCount>23</maxWeakCount>
      <stageThreshold>-6.5006357431411743e-01</stageThreshold>
      <weakClassifiers>
        <_>
          <internalNodes>
            0 -1 182 -1060191490 -797911864 1610612908 -2142355372
            876925675 -262796020 1073801995 1080492235</internalNodes>
          <leafValues>
            2.8715535998344421e-01 7.9171282052993774e-01</leafValues></_>
        <_>
          <internalNodes>
            0 -1 210 -2099202 -604766533 372312364 2105515087 -74453062
            -89790289 172403370 866122222</internalNodes>
          <leafValues>
            -1.2977702915668488e-01 5.3668373823165894e-01</leafValues></_>
        <_>
          <internalNodes>
            0 -1 492 -546586168 -773876787 1564310877 -1077433637
            -988291619 164414860 -909534053 -578074401</internalNodes>
          <leafValues>
            -2.3958736658096313e-01 4.0711376070976257e-01</leafValues></_>
        <_>
          <internalNodes>
            0 -1 599 -896922560 497185120 -397667023 -8060000 -871717856
            -605419795 -334822255 -460648448</internalNodes>
          <leafValues>
            -3.3498898148536682e-01 2.6380300521850586e-01</leafValues></_>
        <_>
          <internalNodes>
            0 -1 723 -23868414 -1079518814 1559313791 -120109479
            -555771150 -101974437 1160814488 -21275751</internalNodes>
          <leafValues>
            -2.6765194535255432e-01 3.2172122597694397e-01</leafValues></_>
        <_>
          <internalNodes>
            0 -1 722 -550510828 -121924097 -73470053 334692526
            -391992406 -87628118 -1454047554 -271581301</internalNodes>
          <leafValues>
            -2.1192693710327148e-01 3.8585242629051208e-01</leafValues></_>
        <_>
          <internalNodes>
            0 -1 647 -1693742672 -1925345656 -1463204623 -17845003
            -75201920 -1435443553 -2018929426 -1091921303</internalNodes>
          <leafValues>
            -2.5857540965080261e-01 2.9927542805671692e-01</leafValues></_>
        <_>
          <internalNodes>
            0 -1 81 -970817286 -649620790 652775099 587242258 -231980871
            -14017870 1917874827 1799581975</internalNodes>
          <leafValues>
            -2.7155837416648865e-01 2.7112856507301331e-01</leafValues></_>
        <_>
          <internalNodes>
            0 -1 882 -762978140 290423200 276972032 826769442 -234873342
            40206338 1799430280 -206613809</internalNodes>
          <leafValues>
            -2.3251071572303772e-01 3.1312158703804016e-01</leafValues></_>
        <_>
          <internalNodes>
            0 -1 912 -495978715 1411357197 2015519778 1359046212
            1762625928 806226561 -486368566 -1306009465</internalNodes>
          <leafValues>
            -2.1336485445499420e-01 3.2689583301544189e-01</leafValues></_>
        <_>
          <internalNodes>
            0 -1 470 -71585560 -2108692480 -696518640 -1257644028
            -927925017 53666050 -255188081 -203701686</internalNodes>
          <leafValues>
            -1.9098868966102600e-01 3.6637598276138306e-01</leafValues></_>
        <_>
          <internalNodes>
            0 -1 39 2078248758 -998124393 258815467 -168985594 -96094457
            1786938035 -656688886 1860566618</internalNodes>
          <leafValues>
            -2.4018521606922150e-01 2.9174807667732239e-01</leafValues></_>
        <_>
          <internalNodes>
            0 -1 206 -625814818 2031595830 -895327637 1593865927
            -441318229 -1635067243 -1049724261 -901022150</internalNodes>
          <leafValues>
            -2.0653298497200012e-01 3.5332345962524414e-01</leafValues></_>
        <_>
          <internalNodes>
            0 -1 598 -627131394 1563953974 787240958 435617864
            -362106757 -1162969767 -548942881 433268395</internalNodes>
          <leafValues>
            -2.4921542406082153e-01 2.8570237755775452e-01</leafValues></_>
        <_>
          <internalNodes>
            0 -1 511 -1044456063 1368371386 -510574094 -1549008751
            -861936241 974607491 1508845720 1823685854</internalNodes>
          <leafValues>
            -2.7024966478347778e-01 2.6563158631324768e-01</leafValues></_>
        <_>
          <internalNodes>
            0 -1 657 -1098248192 -353726315 514355835 -34204011
            1002475840 330530950 -1691474183 -91092588</internalNodes>
          <leafValues>
            -3.1115487217903137e-01 2.2565293312072754e-01</leafValues></_>
        <_>
          <internalNodes>
            0 -1 325 -724110630 -783789936 1099585237 -473135980
            1547774115 -573996889 1913811387 1969734179</internalNodes>
          <leafValues>
            -2.7015998959541321e-01 2.5955420732498169e-01</leafValues></_>
        <_>
          <internalNodes>
            0 -1 706 -1928421200 -1781753702 -1014986985 -608926965
            -1903751972 -2008760278 -581842087 1300308167</internalNodes>
          <leafValues>
            -3.1291815638542175e-01 2.3332200944423676e-01</leafValues></_>
        <_>
          <internalNodes>
            0 -1 917 -67164500 -601082260 8538310 277140686 1343361548
            1343233025 8780494 -140786789</internalNodes>
          <leafValues>
            -2.2454425692558289e-01 3.2077494263648987e-01</leafValues></_>
        <_>
          <internalNodes>
            0 -1 343 1153951392 -1318981912 362883441 -241085103
            138691798 1896554114 1901775818 -455629681</internalNodes>
          <leafValues>
            -2.2823268175125122e-01 3.0351081490516663e-01</leafValues></_>
        <_>
          <internalNodes>
            0 -1 718 -97548313 -1614817418 -2061476107 -1075551294
            -374690679 -877745026 -868434722 -544389629</internalNodes>
          <leafValues>
            -1.8336127698421478e-01 3.6685636639595032e-01</leafValues></_>
        <_>
          <internalNodes>
            0 -1 298 -487407196 -268133888 272891924 1363899084
            537462893 271658734 818482106 1777295963</internalNodes>
          <leafValues>
            -2.8356927633285522e-01 2.5539204478263855e-01</leafValues></_>
        <_>
          <internalNodes>
            0 -1 681 -522007946 -1297343316 -55148805 -207311998
            -1335717893 -105603456 -823468089 -251660552</internalNodes>
          <leafValues>
            -2.2152136266231537e-01 3.1848427653312683e-01</leafValues></_></weakClassifiers></_>
    <!-- stage 2 -->
    <_>
      <maxWeakCount>28</maxWeakCount>
      <stageThreshold>-6.5957272052764893e-01</stageThreshold>
      <weakClassifiers>
        <_>
          <internalNodes>
            0 -1 101 -184550402 -539496458 77070904 1609548382
            -1141135429 2046720959 145996298 1539922846</internalNodes>
          <leafValues>
            4.2782986164093018e-01 8.1635791063308716e-01</leafValues></_>
        <_>
          <internalNodes>
            0 -1 429 -585114220 -582104947 1910756767 -540550963
            1431539085 -890980405 -577902625 -816846625</internalNodes>
          <leafValues>
            -6.4334906637668610e-02 5.3687709569931030e-01</leafValues></_>
        <_>
          <internalNodes>
            0 -1 595 1210977325 1448044327 458950333 288517461
            -788987655 262103743 -424784656 1085555376</internalNodes>
          <leafValues>
            -3.9744770526885986e-01 2.0014245808124542e-01</leafValues></_>
        <_>
          <internalNodes>
            0 -1 117 -968178946 -1655521796 1082266145 -173129584
            1686462619 -113722463 72608507 1967613675</internalNodes>
          <leafValues>
            -2.9744994640350342e-01 2.4319778382778168e-01</leafValues></_>
        <_>
          <internalNodes>
            0 -1 664 2067228428 -33589593 -1362114562 996248586
            -1793956710 -1096146306 -1853725810 999254187</internalNodes>
          <leafValues>
            -2.6300171017646790e-01 2.5246152281761169e-01</leafValues></_>
        <_>
          <internalNodes>
            0 -1 594 -1103728605 -7387740 -267070757 -20514000
            -306276980 802310447 -7582188 -1058022909</internalNodes>
          <leafValues>
            -3.0235275626182556e-01 2.2151961922645569e-01</leafValues></_>
        <_>
          <internalNodes>
            0 -1 647 -1355054095 -1380870656 226057491 -4354863
            -719477839 -1560481901 -1343152708 -1360220808</internalNodes>
          <leafValues>
            -2.3533084988594055e-01 2.7327552437782288e-01</leafValues></_>
        <_>
          <internalNodes>
            0 -1 293 -538905554 437457774 675291404 -1617198590
            -927103301 687604662 -1349191030 1371537311</internalNodes>
          <leafValues>
            -2.9205563664436340e-01 2.3397442698478699e-01</leafValues></_>
        <_>
          <internalNodes>
            0 -1 665 -890280944 -831626369 -34083235 1009843933
            117314739 788243911 813438139 -21068394</internalNodes>
          <leafValues>
            -2.2833058238029480e-01 2.6778447628021240e-01</leafValues></_>
        <_>
          <internalNodes>
            0 -1 667 -498399641 -2132543314 -792389578 -1007705934
            -546949228 -436771549 -1060894585 -1600005501</internalNodes>
          <leafValues>
            -2.7292206883430481e-01 2.3181463778018951e-01</leafValues></_>
        <_>
          <internalNodes>
            0 -1 254 1950807550 1373170296 222857176 1428754600
            572527869 226541744 254288318 1148126058</internalNodes>
          <leafValues>
            -2.9644337296485901e-01 2.1780921518802643e-01</leafValues></_>
        <_>
          <internalNodes>
            0 -1 41 -224548828 -154363192 -513059407 738183115
            1869428438 -495400144 -604395509 1738379946</internalNodes>
          <leafValues>
            -2.7293464541435242e-01 2.2794315218925476e-01</leafValues></_>
        <_>
          <internalNodes>
            0 -1 688 -823409576 -1729819835 -1570543343 -1928486654
            1346868431 228803297 -986105592 261835036</internalNodes>
          <leafValues>
            -2.8018361330032349e-01 2.2918382287025452e-01</leafValues></_>
        <_>
          <internalNodes>
            0 -1 604 -1498698208 -1846737512 -1225526287 -1682151690
            -256686780 -1470977360 -457123580 -94240687</internalNodes>
          <leafValues>
            -2.8704506158828735e-01 2.1989995241165161e-01</leafValues></_>
        <_>
          <internalNodes>
            0 -1 512 -861009579 1196892467 411296579 1397085936
            -857810011 531352241 -932472613 249287726</internalNodes>
          <leafValues>
            -2.6252302527427673e-01 2.5481715798377991e-01</leafValues></_>
        <_>
          <internalNodes>
            0 -1 939 2053111253 -182955647 -103746564 -786973520
            749722510 -1668036706 1655858846 -35404469</internalNodes>
          <leafValues>
            -1.5232855081558228e-01 4.1400042176246643e-01</leafValues></_>
        <_>
          <internalNodes>
            0 -1 314 2066105850 498555583 -1493963643 -1108480112
            1581934026 -117463301 -394483446 1431560587</internalNodes>
          <leafValues>
            -2.2871308028697968e-01 2.7510300278663635e-01</leafValues></_>
        <_>
          <internalNodes>
            0 -1 831 1422910468 863603404 833796698 964848258 -418954791
            1099497364 -1916446678 1622136008</internalNodes>
          <leafValues>
            -2.9713365435600281e-01 2.1761722862720490e-01</leafValues></_>
        <_>
          <internalNodes>
            0 -1 580 -1616980388 -1673766526 -2005836061 4693945
            -905148140 -1603550907 1745715288 -1393517880</internalNodes>
          <leafValues>
            -2.9238280653953552e-01 2.2187225520610809e-01</leafValues></_>
        <_>
          <internalNodes>
            0 -1 47 1849118149 872177417 -1362867353 406647629
            1232406605 1671497924 636444237 -1074911257</internalNodes>
          <leafValues>
            -2.3474444448947906e-01 2.7512070536613464e-01</leafValues></_>
        <_>
          <internalNodes>
            0 -1 450 -837883824 1593851572 -1665684809 1002065024
            1846421684 2140022790 -554694600 1753374854</internalNodes>
          <leafValues>
            -3.4754917025566101e-01 1.8426544964313507e-01</leafValues></_>
        <_>
          <internalNodes>
            0 -1 781 -2112485709 -465268750 1446278293 -232644738
            1798251863 1137865582 -1171762389 -1446898220</internalNodes>
          <leafValues>
            -2.7954789996147156e-01 2.3048391938209534e-01</leafValues></_>
        <_>
          <internalNodes>
            0 -1 506 1747159228 451970302 1160773958 -1251717899
            1016796450 -533927655 2139705672 1542549525</internalNodes>
          <leafValues>
            -3.1797564029693604e-01 2.0117627084255219e-01</leafValues></_>
        <_>
          <internalNodes>
            0 -1 732 -851791308 1893026660 1995958999 274770082
            1819052958 -321190202 -396061626 151492614</internalNodes>
          <leafValues>
            -3.3222422003746033e-01 1.9147232174873352e-01</leafValues></_>
        <_>
          <internalNodes>
            0 -1 613 1725152066 323552811 1079283714 692105002 281168202
            713495447 -257036374 427292706</internalNodes>
          <leafValues>
            -2.9625856876373291e-01 2.1518643200397491e-01</leafValues></_>
        <_>
          <internalNodes>
            0 -1 813 -1095089056 -90564638 610105617 -1798374708
            -1373092036 -1902585447 602826175 -69173883</internalNodes>
          <leafValues>
            -2.8030866384506226e-01 2.3379598557949066e-01</leafValues></_>
        <_>
          <internalNodes>
            0 -1 870 -69770728 2012569790 -1053704936 -618918800
            463325610 847703197 -1908766534 -1916284726</internalNodes>
          <leafValues>
            -2.2241376340389252e-01 2.9014015197753906e-01</leafValues></_>
        <_>
          <internalNodes>
            0 -1 221 -956278960 -73096959 419576583 -249162971 237282748
            -314177232 537933069 741277705</internalNodes>
          <leafValues>
            -3.0488660931587219e-01 2.0946198701858521e-01</leafValues></_></weakClassifiers></_>
    <!-- stage 3 -->
    <_>
      <maxWeakCount>30</maxWeakCount>
      <stageThreshold>-6.2870371341705322e-01</stageThreshold>
      <weakClassifiers>
        <_>
          <internalNodes>
            0 -1 92 -740442438 2096609530 161321656 -604039938
            -590485505 -5049879 226076706 2079325134</internalNodes>
          <leafValues>
            4.4656759500503540e-01 8.0887061357498169e-01</leafValues></_>
        <_>
          <internalNodes>
            0 -1 574 -1408714064 -1347455280 -50418019 -209997093
            -1254150440 -1594124549 -302006600 -721551432</internalNodes>
          <leafValues>
            -1.6045984625816345e-01 4.1567987203598022e-01</leafValues></_>
        <_>
          <internalNodes>
            0 -1 435 -134225924 -100678177 -1128368162 1071360716
            -1696929096 -1431114142 -1901352304 -1160773909</internalNodes>
          <leafValues>
            -2.1439144015312195e-01 3.1845155358314514e-01</leafValues></_>
        <_>
          <internalNodes>
            0 -1 657 984233265 -268976707 -12484995 -102871267
            1066393917 -1159550678 328901304 -84869708</internalNodes>
          <leafValues>
            -2.6563963294029236e-01 2.4743907153606415e-01</leafValues></_>
        <_>
          <internalNodes>
            0 -1 673 -423735503 -1054131286 -413591371 328523616
            -486783552 -944538739 -1500507888 -195897039</internalNodes>
          <leafValues>
            -3.0897569656372070e-01 1.7900176346302032e-01</leafValues></_>
        <_>
          <internalNodes>
            0 -1 202 518030590 1969087637 -1697213009 -712947551
            -1081260337 -561264459 -714652229 268943611</internalNodes>
          <leafValues>
            -2.6124557852745056e-01 2.4725905060768127e-01</leafValues></_>
        <_>
          <internalNodes>
            0 -1 762 -287839071 -458970376 -251677317 -64561712
            -92552909 -1076625562 -1342983569 -600304</internalNodes>
          <leafValues>
            -2.0160858333110809e-01 3.0785539746284485e-01</leafValues></_>
        <_>
          <internalNodes>
            0 -1 734 -487713231 -527634490 -428922889 -221448582
            661335619 -1361968209 1622886356 -1171278220</internalNodes>
          <leafValues>
            -2.4953131377696991e-01 2.3863841593265533e-01</leafValues></_>
        <_>
          <internalNodes>
            0 -1 174 1602169215 188638786 310990641 -650330340 158926974
            -1183046714 1105031133 -54526034</internalNodes>
          <leafValues>
            -1.8563611805438995e-01 3.1605526804924011e-01</leafValues></_>
        <_>
          <internalNodes>
            0 -1 778 -772079577 -1293955865 -621757697 -798352720
            266681228 -1858609841 -2048093699 -569849771</internalNodes>
          <leafValues>
            -2.3223558068275452e-01 2.5516727566719055e-01</leafValues></_>
        <_>
          <internalNodes>
            0 -1 480 -301996281 284861188 2011362052 1031602670
            2113925275 179214021 -565184445 1778116182</internalNodes>
          <leafValues>
            -2.2434987127780914e-01 2.5798407196998596e-01</leafValues></_>
        <_>
          <internalNodes>
            0 -1 189 -663824162 1560991122 -2009429103 -182644992
            947945400 -1099547051 1579462120 1808495114</internalNodes>
          <leafValues>
            -2.3074503242969513e-01 2.5060850381851196e-01</leafValues></_>
        <_>
          <internalNodes>
            0 -1 464 195972806 876692766 -1396371459 1430576564
            1214185711 249055640 -574988616 1185760071</internalNodes>
          <leafValues>
            -3.2449272274971008e-01 1.7773452401161194e-01</leafValues></_>
        <_>
          <internalNodes>
            0 -1 34 -1575551373 -729529272 721737727 567021576
            1996775669 -699121552 1933868863 2086950512</internalNodes>
          <leafValues>
            -2.9712647199630737e-01 1.9153641164302826e-01</leafValues></_>
        <_>
          <internalNodes>
            0 -1 905 -1034946603 1460910435 302582698 2005074955
            -611155284 -934326560 -366837202 2078753738</internalNodes>
          <leafValues>
            -1.9283315539360046e-01 3.0109745264053345e-01</leafValues></_>
        <_>
          <internalNodes>
            0 -1 643 1821627101 -605127949 2066874367 -5231818
            1063512717 948566943 -154325876 -842832825</internalNodes>
          <leafValues>
            -1.8334029614925385e-01 3.1614506244659424e-01</leafValues></_>
        <_>
          <internalNodes>
            0 -1 640 -636748249 -1432623110 -193026221 -2077268023
            -1390758634 1898997246 -462829933 -48313924</internalNodes>
          <leafValues>
            -1.8805554509162903e-01 3.0714923143386841e-01</leafValues></_>
        <_>
          <internalNodes>
            0 -1 158 1247655602 -327621878 1207104849 -1522712306
            -85899770 -2032107498 1137298607 2137893066</internalNodes>
          <leafValues>
            -2.6598697900772095e-01 2.2143502533435822e-01</leafValues></_>
        <_>
          <internalNodes>
            0 -1 606 1644312901 1350737794 -1382127779 378863447
            -2002654991 407031568 1056178250 -1933105872</internalNodes>
          <leafValues>
            -2.8441044688224792e-01 2.1327008306980133e-01</leafValues></_>
        <_>
          <internalNodes>
            0 -1 495 -232020151 2075902879 -1113568943 1429071449
            -483423556 -246690955 1478967304 1087607087</internalNodes>
          <leafValues>
            -2.0885105431079865e-01 2.8059771656990051e-01</leafValues></_>
        <_>
          <internalNodes>
            0 -1 565 1434658160 2138296749 -986233451 -1413017632
            -1401684519 -1485298177 -982917153 -273443646</internalNodes>
          <leafValues>
            -2.0581227540969849e-01 2.8846430778503418e-01</leafValues></_>
        <_>
          <internalNodes>
            0 -1 334 1967389060 727848564 584077396 856964128 1329625740
            177733964 -393088920 15034571</internalNodes>
          <leafValues>
            -3.5728693008422852e-01 1.6354638338088989e-01</leafValues></_>
        <_>
          <internalNodes>
            0 -1 682 1389356590 2001086290 690917970 592978722
            1179009309 960496394 113130346 918676290</internalNodes>
          <leafValues>
            -3.0945861339569092e-01 1.8447986245155334e-01</leafValues></_>
        <_>
          <internalNodes>
            0 -1 594 504493187 2053445652 -317704165 -610274691
            -1648626296 459406749 -1180936444 -232710617</internalNodes>
          <leafValues>
            -2.1990656852722168e-01 2.4898409843444824e-01</leafValues></_>
        <_>
          <internalNodes>
            0 -1 483 -944522366 -1798363116 980619554 -586191885
            -608377955 13616617 1943232217 -506491257</internalNodes>
          <leafValues>
            -1.7581769824028015e-01 3.2681882381439209e-01</leafValues></_>
        <_>
          <internalNodes>
            0 -1 832 -1026948088 -152408698 38944813 -928353952
            -967730778 203489449 -740654966 -2031634859</internalNodes>
          <leafValues>
            -2.7912509441375732e-01 2.1001163125038147e-01</leafValues></_>
        <_>
          <internalNodes>
            0 -1 599 -2000010160 -561448664 613699955 -752347971
            -915478843 -323450513 -856976173 -37250943</internalNodes>
          <leafValues>
            -2.2502116858959198e-01 2.5430294871330261e-01</leafValues></_>
        <_>
          <internalNodes>
            0 -1 513 1887382274 551951191 -1051538742 1953525126
            -1057013714 -1546982104 -989151186 -187112957</internalNodes>
          <leafValues>
            -2.9527565836906433e-01 2.0480144023895264e-01</leafValues></_>
        <_>
          <internalNodes>
            0 -1 739 -529773042 59524922 -253358497 1929420938
            -581699597 -23618158 2080036594 -1842372172</internalNodes>
          <leafValues>
            -2.6147457957267761e-01 2.2595399618148804e-01</leafValues></_>
        <_>
          <internalNodes>
            0 -1 901 980669905 1997771793 -596385155 491817556 32411576
            -1391751913 6377418 521145856</internalNodes>
          <leafValues>
            -2.7977880835533142e-01 2.1570375561714172e-01</leafValues></_></weakClassifiers></_>
    <!-- stage 4 -->
    <_>
      <maxWeakCount>34</maxWeakCount>
      <stageThreshold>-4.9092733860015869e-01</stageThreshold>
      <weakClassifiers>
        <_>
          <internalNodes>
            0 -1 11 1936186274 -74081329 644161600 -128175362 1272965023
            1940386260 2046688996 2010428414</internalNodes>
          <leafValues>
            4.1268330812454224e-01 7.7127617597579956e-01</leafValues></_>
        <_>
          <internalNodes>
            0 -1 132 1104052778 2145204991 -1648869159 -2121571
            -1016187409 -431105 -676072977 -168582913</internalNodes>
          <leafValues>
            -6.4496330916881561e-02 4.3722820281982422e-01</leafValues></_>
        <_>
          <internalNodes>
            0 -1 141 2067707775 1029979062 333643135 -83080 -95056641
            2146043192 -1868115 2147446506</internalNodes>
          <leafValues>
            -1.9171239435672760e-01 3.0296060442924500e-01</leafValues></_>
        <_>
          <internalNodes>
            0 -1 715 -1498865737 1051453223 -113311017 -19818987
            -1809992528 -1094718081 854111821 -54936275</internalNodes>
          <leafValues>
            -2.1768875420093536e-01 2.7467173337936401e-01</leafValues></_>
        <_>
          <internalNodes>
            0 -1 650 305598167 -1030357131 -9039937 -1276658954
            1809780707 -479141597 -1061314520 -1979760297</internalNodes>
          <leafValues>
            -2.6167151331901550e-01 2.4387229979038239e-01</leafValues></_>
        <_>
          <internalNodes>
            0 -1 608 257273847 526244767 540714776 402457084 1280124392
            -1141524783 235809796 -35658284</internalNodes>
          <leafValues>
            -2.0804613828659058e-01 2.7479958534240723e-01</leafValues></_>
        <_>
          <internalNodes>
            0 -1 812 -456709885 -268751017 -320768901 -118052139
            -620792779 -1881212209 -823694245 -621526672</internalNodes>
          <leafValues>
            -2.4213746190071106e-01 2.2216302156448364e-01</leafValues></_>
        <_>
          <internalNodes>
            0 -1 653 1288503260 -579523084 -988227173 -1314379128
            737331390 -1428275637 -1434129166 14975762</internalNodes>
          <leafValues>
            -3.3987012505531311e-01 1.6465720534324646e-01</leafValues></_>
        <_>
          <internalNodes>
            0 -1 519 716133777 1536087966 -1637459755 2012741621
            -617068806 -4198349 -1698299256 -403190873</internalNodes>
          <leafValues>
            -1.7990960180759430e-01 3.0871319770812988e-01</leafValues></_>
        <_>
          <internalNodes>
            0 -1 238 962548110 386491263 885419808 1023743672 -124840673
            843519401 98369576 404836603</internalNodes>
          <leafValues>
            -2.8631433844566345e-01 1.9558604061603546e-01</leafValues></_>
        <_>
          <internalNodes>
            0 -1 455 -487698618 386669786 688624599 553678248
            -1997601545 1529303334 -2000012876 1080250562</internalNodes>
          <leafValues>
            -3.2250940799713135e-01 1.6265349090099335e-01</leafValues></_>
        <_>
          <internalNodes>
            0 -1 420 1138729731 403353514 672548016 -62668668 103004819
            7212175 110703435 1970783747</internalNodes>
          <leafValues>
            -2.3512156307697296e-01 2.2209212183952332e-01</leafValues></_>
        <_>
          <internalNodes>
            0 -1 697 732164096 -1650875600 -1423450923 1060471834
            176155800 -1979405187 -1471336052 1595359251</internalNodes>
          <leafValues>
            -2.6537328958511353e-01 1.9845998287200928e-01</leafValues></_>
        <_>
          <internalNodes>
            0 -1 110 -220026229 -785207665 948160635 -621774146
            1731526872 -29077092 -569703976 -636483510</internalNodes>
          <leafValues>
            -2.0595118403434753e-01 2.6379647850990295e-01</leafValues></_>
        <_>
          <internalNodes>
            0 -1 535 1838088123 566670114 -270916329 972073394
            1145383351 940026657 1625304290 -1077942789</internalNodes>
          <leafValues>
            -1.7557008564472198e-01 2.9604631662368774e-01</leafValues></_>
        <_>
          <internalNodes>
            0 -1 502 1499580372 312028447 -1153339619 997298296
            -1077444478 -105870499 -905159010 1606534515</internalNodes>
          <leafValues>
            -2.1746450662612915e-01 2.4408388137817383e-01</leafValues></_>
        <_>
          <internalNodes>
            0 -1 708 -225457341 -2068153950 150440217 -1392511351
            -256110135 -2137001429 -826531279 -542223255</internalNodes>
          <leafValues>
            -2.0054578781127930e-01 2.6211911439895630e-01</leafValues></_>
        <_>
          <internalNodes>
            0 -1 459 1609293644 1029843659 1007533754 7710966 248332318
            -225833569 1356858920 1244390099</internalNodes>
          <leafValues>
            -2.9315507411956787e-01 1.8029378354549408e-01</leafValues></_>
        <_>
          <internalNodes>
            0 -1 665 1862270225 -563202058 -1228948741 -581828647
            -1766187757 -1914986001 2096896053 -89325103</internalNodes>
          <leafValues>
            -2.0176802575588226e-01 2.6257982850074768e-01</leafValues></_>
        <_>
          <internalNodes>
            0 -1 603 -1431925979 258675814 177883190 -112062782
            339374718 -167097653 -319066996 -1975004649</internalNodes>
          <leafValues>
            -2.4262993037700653e-01 2.3022264242172241e-01</leafValues></_>
        <_>
          <internalNodes>
            0 -1 713 572744578 1109436194 671749276 1000415430 358700241
            30331338 289413852 1273415300</internalNodes>
          <leafValues>
            -3.2645884156227112e-01 1.6604596376419067e-01</leafValues></_>
        <_>
          <internalNodes>
            0 -1 860 1095355152 964920376 543128083 91202262 356856380
            -99514493 686530506 478258726</internalNodes>
          <leafValues>
            -3.0395722389221191e-01 1.8179436028003693e-01</leafValues></_>
        <_>
          <internalNodes>
            0 -1 145 -92360107 -45701894 1154238239 495629080 1922789564
            -1145792681 -398775620 1873667627</internalNodes>
          <leafValues>
            -1.9323736429214478e-01 2.9206442832946777e-01</leafValues></_>
        <_>
          <internalNodes>
            0 -1 131 -122401806 -1605066090 -937146833 -1964397013
            1257599346 -1829778599 1969078288 1960342354</internalNodes>
          <leafValues>
            -3.1384778022766113e-01 1.7506268620491028e-01</leafValues></_>
        <_>
          <internalNodes>
            0 -1 406 1283351586 816229392 847258658 -1188678856
            194883317 414980293 1562685652 1162338438</internalNodes>
          <leafValues>
            -3.3674266934394836e-01 1.5606780350208282e-01</leafValues></_>
        <_>
          <internalNodes>
            0 -1 588 -1881417423 -1651559247 -2076841546 -2136637846
            -1755336478 -1089651491 12363992 -661009195</internalNodes>
          <leafValues>
            -2.0445486903190613e-01 2.6208570599555969e-01</leafValues></_>
        <_>
          <internalNodes>
            0 -1 711 256100689 207478115 543890973 -1948186894 788242824
            -118307528 1973853641 2135049569</internalNodes>
          <leafValues>
            -2.4748717248439789e-01 2.1962699294090271e-01</leafValues></_>
        <_>
          <internalNodes>
            0 -1 395 -217656518 1342439840 -1223866379 488911368
            -792735325 1503258513 -982177334 415633947</internalNodes>
          <leafValues>
            -2.8206393122673035e-01 1.8588039278984070e-01</leafValues></_>
        <_>
          <internalNodes>
            0 -1 188 -2064380234 1004933984 645964985 419529732
            -1736440180 -107291360 209813406 1007299371</internalNodes>
          <leafValues>
            -2.7623254060745239e-01 1.9388280808925629e-01</leafValues></_>
        <_>
          <internalNodes>
            0 -1 262 1834549095 346896343 677476918 -121926426
            -1109693737 1032368284 -5506442 -34230798</internalNodes>
          <leafValues>
            -1.8333351612091064e-01 3.0198907852172852e-01</leafValues></_>
        <_>
          <internalNodes>
            0 -1 858 -896843420 -1958399663 1947625772 -1133635495
            -1353054701 -2010880720 1390433911 -1078282128</internalNodes>
          <leafValues>
            -2.4569994211196899e-01 2.2487844526767731e-01</leafValues></_>
        <_>
          <internalNodes>
            0 -1 787 2034676536 987501102 -1498907153 -72995136
            -21797206 -604687177 861843363 -1059113177</internalNodes>
          <leafValues>
            -2.2499416768550873e-01 2.5458386540412903e-01</leafValues></_>
        <_>
          <internalNodes>
            0 -1 729 -288483501 -1062226717 -1860529795 1919608168
            -970048752 -1411475173 -1642387929 -1359459304</internalNodes>
          <leafValues>
            -2.3842498660087585e-01 2.2463712096214294e-01</leafValues></_>
        <_>
          <internalNodes>
            0 -1 116 1994365464 1011533072 -1505342022 -146472313
            -682163459 -1662697176 -1118204118 1612339736</internalNodes>
          <leafValues>
            -2.4204160273075104e-01 2.3067340254783630e-01</leafValues></_></weakClassifiers></_>
    <!-- stage 5 -->
    <_>
      <maxWeakCount>36</maxWeakCount>
      <stageThreshold>-4.0846377611160278e-01</stageThreshold>
      <weakClassifiers>
        <_>
          <internalNodes>
            0 -1 265 -134370172 -53177859 832383429 -26219301 -153093056
            -1548195384 -1584268365 201304750</internalNodes>
          <leafValues>
            4.5483613014221191e-01 7.7948063611984253e-01</leafValues></_>
        <_>
          <internalNodes>
            0 -1 629 -585110180 -29721707 -908517547 -1619831137
            1593296799 -289372333 -923501114 -811903601</internalNodes>
          <leafValues>
            -5.4892756044864655e-02 4.3775337934494019e-01</leafValues></_>
        <_>
          <internalNodes>
            0 -1 648 -811001805 -4202539 -809676803 -100802627
            -575711810 -1472758281 1296805855 -1359053604</internalNodes>
          <leafValues>
            -1.9995515048503876e-01 2.8042837977409363e-01</leafValues></_>
        <_>
          <internalNodes>
            0 -1 667 -1227903961 -1494050854 2005760630 -1008805646
            -86363206 -2118673853 -388938651 -1562260921</internalNodes>
          <leafValues>
            -2.5417026877403259e-01 2.1643231809139252e-01</leafValues></_>
        <_>
          <internalNodes>
            0 -1 668 1861103333 1494904191 -70276777 1929559615
            -318804521 -1003835407 1764462591 -1079520638</internalNodes>
          <leafValues>
            -2.2341287136077881e-01 2.6324120163917542e-01</leafValues></_>
        <_>
          <internalNodes>
            0 -1 103 -187771817 -1149865184 989790207 -443879978
            -399508072 -86032732 -633579077 -541103297</internalNodes>
          <leafValues>
            -1.6486135125160217e-01 3.4339147806167603e-01</leafValues></_>
        <_>
          <internalNodes>
            0 -1 74 2111175678 1391308243 163646812 618451829 -95422884
            1894824840 763325958 736487418</internalNodes>
          <leafValues>
            -2.7189823985099792e-01 1.8390198051929474e-01</leafValues></_>
        <_>
          <internalNodes>
            0 -1 779 -985400140 -67130377 -558996426 -672670005
            1105453952 -805720114 1692716270 -316320393</internalNodes>
          <leafValues>
            -1.8173350393772125e-01 2.7899050712585449e-01</leafValues></_>
        <_>
          <internalNodes>
            0 -1 592 237776721 863558207 1202197935 -1822088528
            -1955969590 -1795498189 1342466186 1492481619</internalNodes>
          <leafValues>
            -2.6039415597915649e-01 2.0650169253349304e-01</leafValues></_>
        <_>
          <internalNodes>
            0 -1 393 -51460894 -1854076344 -439492482 1367700936
            -2033273955 166671205 949761192 2146296779</internalNodes>
          <leafValues>
            -2.1080061793327332e-01 2.4343554675579071e-01</leafValues></_>
        <_>
          <internalNodes>
            0 -1 723 -1365174272 -2002717726 1955711262 -400129387
            -673510682 -1160668393 1367476784 -1363394784</internalNodes>
          <leafValues>
            -3.5181614756584167e-01 1.4817322790622711e-01</leafValues></_>
        <_>
          <internalNodes>
            0 -1 581 -875852776 -344210766 -996183277 613926331
            1980729729 97248079 -732034800 -525245960</internalNodes>
          <leafValues>
            -2.6800513267517090e-01 1.8857112526893616e-01</leafValues></_>
        <_>
          <internalNodes>
            0 -1 297 2147462419 116663322 -260700904 904978344
            1597875135 2048658288 2146769651 -10621202</internalNodes>
          <leafValues>
            -1.8618761003017426e-01 2.8589174151420593e-01</leafValues></_>
        <_>
          <internalNodes>
            0 -1 384 17395130 1380517173 1303731602 -1247646554
            1779419310 1095764755 1538081034 1617157623</internalNodes>
          <leafValues>
            -2.7321052551269531e-01 1.8760570883750916e-01</leafValues></_>
        <_>
          <internalNodes>
            0 -1 785 -721428619 1960667102 -2051855464 1940740662
            -2042772594 -1078060065 782404312 -69208106</internalNodes>
          <leafValues>
            -1.5019579231739044e-01 3.3556610345840454e-01</leafValues></_>
        <_>
          <internalNodes>
            0 -1 404 1627379679 -234385317 1651661112 724744700 83494322
            -792825183 -948888724 -752099329</internalNodes>
          <leafValues>
            -1.8295341730117798e-01 2.7953231334686279e-01</leafValues></_>
        <_>
          <internalNodes>
            0 -1 880 -884482485 -803300440 741523560 897794042 655704065
            269484358 1386263695 -16789529</internalNodes>
          <leafValues>
            -1.3879188895225525e-01 3.6227765679359436e-01</leafValues></_>
        <_>
          <internalNodes>
            0 -1 589 -912675503 -1994220479 -1359272687 -193597421
            166701109 -1485460763 -814464838 -140917539</internalNodes>
          <leafValues>
            -1.9754627346992493e-01 2.6296314597129822e-01</leafValues></_>
        <_>
          <internalNodes>
            0 -1 375 -254612900 -82323586 670703129 -855554256
            -1095786484 -1395080709 -97744616 -796027730</internalNodes>
          <leafValues>
            -1.8956004083156586e-01 2.7788874506950378e-01</leafValues></_>
        <_>
          <internalNodes>
            0 -1 816 -894009967 -654929149 163729271 -1822927998
            -2116384532 -362246114 2031184202 197058787</internalNodes>
          <leafValues>
            -1.9808116555213928e-01 2.6253074407577515e-01</leafValues></_>
        <_>
          <internalNodes>
            0 -1 56 1955652118 877970331 -439270513 -821854263
            1937239302 -1334489758 -1399752002 2004105139</internalNodes>
          <leafValues>
            -2.5457000732421875e-01 2.0203581452369690e-01</leafValues></_>
        <_>
          <internalNodes>
            0 -1 851 -878449199 -1719930735 -743222817 -1624388341
            400152012 -631129121 514249757 -608185069</internalNodes>
          <leafValues>
            -1.4798690378665924e-01 3.5595533251762390e-01</leafValues></_>
        <_>
          <internalNodes>
            0 -1 539 -847584865 1256258503 -303121406 -1729858897
            8476626 -895342393 1566666658 -1258897722</internalNodes>
          <leafValues>
            -2.2546823322772980e-01 2.3303252458572388e-01</leafValues></_>
        <_>
          <internalNodes>
            0 -1 593 -1121427405 1770717384 -1203611171 -1583431252
            -1412383720 -345273605 1037050152 -1875698664</internalNodes>
          <leafValues>
            -2.5301611423492432e-01 2.0931975543498993e-01</leafValues></_>
        <_>
          <internalNodes>
            0 -1 788 -255424996 -555833384 -469358278 -572491378
            1535576607 -1079800897 -896176402 -2070108107</internalNodes>
          <leafValues>
            -2.4406191706657410e-01 2.2441825270652771e-01</leafValues></_>
        <_>
          <internalNodes>
            0 -1 527 65930773 1397142166 -1952245791 -213447998
            -439507474 499535277 -103001904 416699751</internalNodes>
          <leafValues>
            -2.7762669324874878e-01 1.8971805274486542e-01</leafValues></_>
        <_>
          <internalNodes>
            0 -1 609 -95549046 -805262908 -535410189 -292540440
            -68234047 2023310701 430589121 -118243108</internalNodes>
          <leafValues>
            -2.2431434690952301e-01 2.4913570284843445e-01</leafValues></_>
        <_>
          <internalNodes>
            0 -1 827 -424530704 -1731288748 -247215046 -109522372
            -631231104 1059673751 -157670681 -1600117280</internalNodes>
          <leafValues>
            -2.7671661972999573e-01 1.9150324165821075e-01</leafValues></_>
        <_>
          <internalNodes>
            0 -1 387 1651167280 1136275786 -1361498721 -106977468
            1734357605 -1089720053 2107383321 1784826402</internalNodes>
          <leafValues>
            -2.9680091142654419e-01 1.7812898755073547e-01</leafValues></_>
        <_>
          <internalNodes>
            0 -1 790 -626863834 1342846092 1986812262 1263128281
            -486541849 -541727620 776450758 -10537405</internalNodes>
          <leafValues>
            -1.8421144783496857e-01 2.9700329899787903e-01</leafValues></_>
        <_>
          <internalNodes>
            0 -1 585 -945034437 -1083021761 -542020784 -272916366
            -1986265708 -525205925 -734763875 -542748445</internalNodes>
          <leafValues>
            -1.7753876745700836e-01 3.0576914548873901e-01</leafValues></_>
        <_>
          <internalNodes>
            0 -1 212 2024285960 -50359514 1428636127 1964081684
            1876964265 -1344057278 -1312512521 -1129368790</internalNodes>
          <leafValues>
            -2.3819538950920105e-01 2.2519335150718689e-01</leafValues></_>
        <_>
          <internalNodes>
            0 -1 877 -441454625 1159930159 1896769986 1973219210
            -101510728 1885874042 -84890518 -68687893</internalNodes>
          <leafValues>
            -1.3855583965778351e-01 3.7970101833343506e-01</leafValues></_>
        <_>
          <internalNodes>
            0 -1 968 -488131756 1157718276 4610594 1926580675 1081524362
            390537248 -166164854 825725722</internalNodes>
          <leafValues>
            -2.3360262811183929e-01 2.2964145243167877e-01</leafValues></_>
        <_>
          <internalNodes>
            0 -1 813 -1299313663 -1836621120 -220688549 -61992633
            -1555222246 -1230938533 -1518427589 -1511745691</internalNodes>
          <leafValues>
            -2.5421696901321411e-01 2.1309426426887512e-01</leafValues></_>
        <_>
          <internalNodes>
            0 -1 213 -2089547902 -1464986849 160290142 -825086430
            -1539187484 1343236559 746694538 296527518</internalNodes>
          <leafValues>
            -3.5320883989334106e-01 1.5595956146717072e-01</leafValues></_></weakClassifiers></_>
    <!-- stage 6 -->
    <_>
      <maxWeakCount>36</maxWeakCount>
      <stageThreshold>-4.8505815863609314e-01</stageThreshold>
      <weakClassifiers>
        <_>
          <internalNodes>
            0 -1 98 -134761842 -85012802 2008528462 1340030907
            -1545612836 -455539004 -558630869 1912466414</internalNodes>
          <leafValues>
            4.7614029049873352e-01 7.7811044454574585e-01</leafValues></_>
        <_>
          <internalNodes>
            0 -1 597 -1804688175 -756116097 2109727669 -1079482158
            1155009514 -1999704593 753199272 149243332</internalNodes>
          <leafValues>
            -1.3930058479309082e-01 3.4128782153129578e-01</leafValues></_>
        <_>
          <internalNodes>
            0 -1 561 -77094640 421526159 -1222589355 -1145003878
            1147095771 1686693229 15287321 1206632527</internalNodes>
          <leafValues>
            -2.5706413388252258e-01 2.1574577689170837e-01</leafValues></_>
        <_>
          <internalNodes>
            0 -1 161 -589103106 1056891710 709549675 1865433760
            -447421765 -1150934732 1952840383 2088599099</internalNodes>
          <leafValues>
            -2.6427718997001648e-01 1.8865104019641876e-01</leafValues></_>
        <_>
          <internalNodes>
            0 -1 509 -1104263556 -314086240 -1601790369 1064007988
            -1117941520 -1946740918 -549449816 -1293750128</internalNodes>
          <leafValues>
            -2.4740320444107056e-01 2.0534484088420868e-01</leafValues></_>
        <_>
          <internalNodes>
            0 -1 673 -1059296719 -1065261138 -1563161967 -1707058176
            -426761896 -848569658 -1025358079 -26001891</internalNodes>
          <leafValues>
            -2.8459516167640686e-01 1.7447313666343689e-01</leafValues></_>
        <_>
          <internalNodes>
            0 -1 710 -957431029 -504122303 1926690398 -741869349
            -8920525 -874779488 834599735 -746849675</internalNodes>
          <leafValues>
            -2.0443052053451538e-01 2.5189206004142761e-01</leafValues></_>
        <_>
          <internalNodes>
            0 -1 524 -603293536 -742000660 2118039539 1607195376
            1728390387 802086809 -1632981286 -135021504</internalNodes>
          <leafValues>
            -2.0172518491744995e-01 2.5060102343559265e-01</leafValues></_>
        <_>
          <internalNodes>
            0 -1 903 1543495669 -545420025 2076356693 -707552895
            1000151434 -1162125782 -271803698 -307278450</internalNodes>
          <leafValues>
            -1.4915063977241516e-01 3.3989295363426208e-01</leafValues></_>
        <_>
          <internalNodes>
            0 -1 596 1982029971 1070857406 455650698 -1981686605
            -216795911 2025072371 -858015030 -843580253</internalNodes>
          <leafValues>
            -1.6744369268417358e-01 2.9808917641639709e-01</leafValues></_>
        <_>
          <internalNodes>
            0 -1 448 -256409187 -774921536 -842461417 1944288136
            -123620404 -474657699 -1272241561 -123239280</internalNodes>
          <leafValues>
            -1.5413139760494232e-01 3.2068678736686707e-01</leafValues></_>
        <_>
          <internalNodes>
            0 -1 615 -866194913 -454148510 -942511199 -126109454
            538030834 -925582853 1341602749 -21496269</internalNodes>
          <leafValues>
            -1.7737442255020142e-01 2.8759682178497314e-01</leafValues></_>
        <_>
          <internalNodes>
            0 -1 289 1884728974 1970573940 1235883798 1799750272
            -330330189 968822390 1019304747 822379042</internalNodes>
          <leafValues>
            -3.2090893387794495e-01 1.5772369503974915e-01</leafValues></_>
        <_>
          <internalNodes>
            0 -1 715 -358542661 -567412350 1826162195 -432457103
            -1851969498 1002404845 595213581 -1246129907</internalNodes>
          <leafValues>
            -2.2928290069103241e-01 2.2884660959243774e-01</leafValues></_>
        <_>
          <internalNodes>
            0 -1 800 1484743441 -1193751085 809266483 -782837199
            -314704486 -20776288 -816248549 217413491</internalNodes>
          <leafValues>
            -2.1494774520397186e-01 2.3860144615173340e-01</leafValues></_>
        <_>
          <internalNodes>
            0 -1 599 -223684011 -645685592 -1896939725 -4375567
            -1472289356 -1140972195 -1964079647 -1095797110</internalNodes>
          <leafValues>
            -1.5580759942531586e-01 3.1890466809272766e-01</leafValues></_>
        <_>
          <internalNodes>
            0 -1 510 -417752772 -1380323885 194290607 -319055245
            -2089427060 1009006541 -2021990161 -399390534</internalNodes>
          <leafValues>
            -2.1624325215816498e-01 2.5396174192428589e-01</leafValues></_>
        <_>
          <internalNodes>
            0 -1 947 -221511736 814915608 42475598 -725439913 -234826234
            1981705762 -396034418 -204784933</internalNodes>
          <leafValues>
            -1.7259259521961212e-01 2.9162088036537170e-01</leafValues></_>
        <_>
          <internalNodes>
            0 -1 424 -739782737 1225246594 -669757360 -103562528
            1112124331 -2094672928 1504942732 -673189893</internalNodes>
          <leafValues>
            -1.0908856242895126e-01 4.4378405809402466e-01</leafValues></_>
        <_>
          <internalNodes>
            0 -1 399 1563068398 1436265192 949553388 364462536 469217952
            749480269 1086392776 1403453898</internalNodes>
          <leafValues>
            -2.6603892445564270e-01 1.9289351999759674e-01</leafValues></_>
        <_>
          <internalNodes>
            0 -1 725 18884624 315532086 -721271431 1055409186 -966390606
            -1974252850 -1056076468 547111477</internalNodes>
          <leafValues>
            -3.9103257656097412e-01 1.2849579751491547e-01</leafValues></_>
        <_>
          <internalNodes>
            0 -1 24 1693571774 1922338415 -1685877252 -303286766
            -1362810162 -1272362119 1495538504 1862122238</internalNodes>
          <leafValues>
            -2.4719206988811493e-01 2.0225623250007629e-01</leafValues></_>
        <_>
          <internalNodes>
            0 -1 586 -788168832 1897181453 1431424700 1434805362
            553383884 -2002616260 134496648 1404304143</internalNodes>
          <leafValues>
            -2.6289799809455872e-01 1.9841356575489044e-01</leafValues></_>
        <_>
          <internalNodes>
            0 -1 663 1169936280 1497503333 554067933 442313988
            -1047710378 -2093067194 -1547554830 1411066003</internalNodes>
          <leafValues>
            -2.5737288594245911e-01 2.0037369430065155e-01</leafValues></_>
        <_>
          <internalNodes>
            0 -1 241 -572953106 505625014 -273347729 1574179952
            -923834449 -1147193273 1757921391 2102632570</internalNodes>
          <leafValues>
            -2.0863190293312073e-01 2.5188836455345154e-01</leafValues></_>
        <_>
          <internalNodes>
            0 -1 594 1991953570 -1344138996 -233809209 -769002352
            -558014060 579075100 1528452616 -994981376</internalNodes>
          <leafValues>
            -3.0663996934890747e-01 1.6931688785552979e-01</leafValues></_>
        <_>
          <internalNodes>
            0 -1 313 -2137084334 893199820 -577701741 -1385123990
            2037344287 -1993918833 -1845073907 285279450</internalNodes>
          <leafValues>
            -2.8956007957458496e-01 1.7717199027538300e-01</leafValues></_>
        <_>
          <internalNodes>
            0 -1 602 1789022017 1508257729 -434937371 1460272007
            -1063364354 397345470 -798819082 1882668227</internalNodes>
          <leafValues>
            -2.4806751310825348e-01 2.1019928157329559e-01</leafValues></_>
        <_>
          <internalNodes>
            0 -1 665 -353391083 -563429126 -35181833 -622217271
            -680393045 -939719175 1555846901 -1195666993</internalNodes>
          <leafValues>
            -1.6209523379802704e-01 3.2109040021896362e-01</leafValues></_>
        <_>
          <internalNodes>
            0 -1 662 1384358101 -203921418 -236373067 -2001226
            1615833070 1214607039 -1505445138 -1412311474</internalNodes>
          <leafValues>
            -1.6770108044147491e-01 3.1037035584449768e-01</leafValues></_>
        <_>
          <internalNodes>
            0 -1 152 79020911 1786747986 593309788 1049997570 2053356103
            177479368 -1212051882 -1074414286</internalNodes>
          <leafValues>
            -2.1879036724567413e-01 2.4167552590370178e-01</leafValues></_>
        <_>
          <internalNodes>
            0 -1 84 -58821097 1445868214 144027609 2000339086 1392775408
            -202889837 658136796 -1406305221</internalNodes>
          <leafValues>
            -1.9549885392189026e-01 2.6133462786674500e-01</leafValues></_>
        <_>
          <internalNodes>
            0 -1 744 -805910468 671844500 -2147193574 1400476326
            427577045 633570420 -1239041394 1353973710</internalNodes>
          <leafValues>
            -2.1982669830322266e-01 2.3307560384273529e-01</leafValues></_>
        <_>
          <internalNodes>
            0 -1 823 1305347223 2009740232 1831638494 1406635294
            -1431434552 -1428684092 -247319654 -1980823276</internalNodes>
          <leafValues>
            -2.3050221800804138e-01 2.2100439667701721e-01</leafValues></_>
        <_>
          <internalNodes>
            0 -1 773 384194484 -236527387 -1277211719 863502820
            1541486588 -830073400 679021848 854476868</internalNodes>
          <leafValues>
            -3.0773818492889404e-01 1.7135444283485413e-01</leafValues></_>
        <_>
          <internalNodes>
            0 -1 582 -307626759 2011207435 1453793214 -1178631329
            -1367371976 -941983647 -482513592 989314170</internalNodes>
          <leafValues>
            -1.9166481494903564e-01 2.8156703710556030e-01</leafValues></_></weakClassifiers></_>
    <!-- stage 7 -->
    <_>
      <maxWeakCount>40</maxWeakCount>
      <stageThreshold>-5.1700055599212646e-01</stageThreshold>
      <weakClassifiers>
        <_>
          <internalNodes>
            0 -1 99 -468786946 -610878890 821590662 -705133928
            -211759913 -101463 828564056 1902199027</internalNodes>
          <leafValues>
            4.3698143959045410e-01 7.5653111934661865e-01</leafValues></_>
        <_>
          <internalNodes>
            0 -1 309 -144986148 1566559455 1353293277 -676965643
            1345681373 1994775451 -247072293 -705707797</internalNodes>
          <leafValues>
            -4.4314410537481308e-02 4.1762492060661316e-01</leafValues></_>
        <_>
          <internalNodes>
            0 -1 731 -146550177 -249999793 -538779906 -95956481
            -1068313205 -961589335 -298980369 -930777481</internalNodes>
          <leafValues>
            -1.4681565761566162e-01 3.1401261687278748e-01</leafValues></_>
        <_>
          <internalNodes>
            0 -1 301 -1053822022 -705920476 48904270 -108059164
            324122555 672167346 1579878078 -185610289</internalNodes>
          <leafValues>
            -1.5449178218841553e-01 3.0328342318534851e-01</leafValues></_>
        <_>
          <internalNodes>
            0 -1 650 441335349 -671092651 -1925512257 -1431561569
            1735107563 -1578081378 -335803732 -817938350</internalNodes>
          <leafValues>
            -2.3385770618915558e-01 2.0594367384910583e-01</leafValues></_>
        <_>
          <internalNodes>
            0 -1 573 -779429387 -1444188169 1571503885 -2047352865
            2076153329 -285274122 -53827169 -363637925</internalNodes>
          <leafValues>
            -1.6044507920742035e-01 3.0136010050773621e-01</leafValues></_>
        <_>
          <internalNodes>
            0 -1 58 2131605398 380429266 -199641472 498311997 1875462384
            397190796 -55859370 1725803774</internalNodes>
          <leafValues>
            -2.5028091669082642e-01 1.9758793711662292e-01</leafValues></_>
        <_>
          <internalNodes>
            0 -1 570 -92544623 -775705125 -1024659229 -139531062
            -142869623 233501235 -243152417 -1054163</internalNodes>
          <leafValues>
            -1.4387114346027374e-01 3.4484335780143738e-01</leafValues></_>
        <_>
          <internalNodes>
            0 -1 452 1893510498 1429481815 -1936221353 352668608
            -320089729 809713 -1141427913 31833942</internalNodes>
          <leafValues>
            -2.9414683580398560e-01 1.6340221464633942e-01</leafValues></_>
        <_>
          <internalNodes>
            0 -1 402 -534266983 25800960 -705443648 -582151199
            -1090808631 167756168 722178731 -909121045</internalNodes>
          <leafValues>
            -1.4168220758438110e-01 3.4388989210128784e-01</leafValues></_>
        <_>
          <internalNodes>
            0 -1 529 1334767341 1596743452 1488975335 -842742231
            -870473489 -2037871133 -600867778 -628328930</internalNodes>
          <leafValues>
            -1.8023128807544708e-01 2.6393002271652222e-01</leafValues></_>
        <_>
          <internalNodes>
            0 -1 834 -100668817 -765104894 1683528630 329297602
            364625632 1931486245 -195777846 -251658577</internalNodes>
          <leafValues>
            -1.5108737349510193e-01 3.1778237223625183e-01</leafValues></_>
        <_>
          <internalNodes>
            0 -1 702 -1064855551 -426920920 -1914425455 -829606127
            -23101159 1122895370 -2105901582 -493180048</internalNodes>
          <leafValues>
            -2.0711298286914825e-01 2.3582594096660614e-01</leafValues></_>
        <_>
          <internalNodes>
            0 -1 891 -1297876495 1058571801 -1255014597 1604772948
            -1901966920 -4282197 1102976664 -540192754</internalNodes>
          <leafValues>
            -1.7118498682975769e-01 2.8017318248748779e-01</leafValues></_>
        <_>
          <internalNodes>
            0 -1 729 -362380992 -2115284794 -503163300 1941680538
            2068323092 792456062 1860048871 -1078407148</internalNodes>
          <leafValues>
            -2.4419724941253662e-01 1.9533936679363251e-01</leafValues></_>
        <_>
          <internalNodes>
            0 -1 389 -1065090216 890521402 -240396065 297860958
            1959731125 -1168809307 -1475669816 586110068</internalNodes>
          <leafValues>
            -3.1018719077110291e-01 1.5817221999168396e-01</leafValues></_>
        <_>
          <internalNodes>
            0 -1 673 -860578895 -787781719 721290431 -78300290
            -487548006 -1014792502 -956815597 -67897969</internalNodes>
          <leafValues>
            -1.4492018520832062e-01 3.4622973203659058e-01</leafValues></_>
        <_>
          <internalNodes>
            0 -1 350 -221518968 -173951928 -1704470703 -749784372
            -357981014 1464236803 -1781522213 -40954741</internalNodes>
          <leafValues>
            -1.5383692085742950e-01 3.1563797593116760e-01</leafValues></_>
        <_>
          <internalNodes>
            0 -1 825 1140711423 837617757 549415609 171911690 207191452
            -17606405 971253498 -842562192</internalNodes>
          <leafValues>
            -1.8521867692470551e-01 2.7094680070877075e-01</leafValues></_>
        <_>
          <internalNodes>
            0 -1 721 -653531918 772370842 1766334232 -1081834834
            -542849628 -928413607 1466743580 -919243917</internalNodes>
          <leafValues>
            -2.2600471973419189e-01 2.2482718527317047e-01</leafValues></_>
        <_>
          <internalNodes>
            0 -1 728 -202154220 299830316 -1579420609 996409038
            1037426638 -38241804 -1398238754 -1622150529</internalNodes>
          <leafValues>
            -1.9521455466747284e-01 2.6376056671142578e-01</leafValues></_>
        <_>
          <internalNodes>
            0 -1 920 -745420086 -1476271550 -2111438752 -788172346
            97711172 290007307 -1572300906 -144703605</internalNodes>
          <leafValues>
            -1.7461918294429779e-01 2.9848483204841614e-01</leafValues></_>
        <_>
          <internalNodes>
            0 -1 33 914259575 -538967340 -1513319249 -2113079698
            -1558828995 -545836716 1611941471 1220952692</internalNodes>
          <leafValues>
            -2.7560567855834961e-01 1.8788401782512665e-01</leafValues></_>
        <_>
          <internalNodes>
            0 -1 442 -1165082608 1881170568 1731774826 -1349585707
            -740421264 1540029053 -1395776706 1846703125</internalNodes>
          <leafValues>
            -3.2482886314392090e-01 1.5150843560695648e-01</leafValues></_>
        <_>
          <internalNodes>
            0 -1 347 1406059182 1496105526 222701682 -1847371940
            -404083264 -1939862342 2072600856 1663815872</internalNodes>
          <leafValues>
            -2.5140130519866943e-01 1.9459196925163269e-01</leafValues></_>
        <_>
          <internalNodes>
            0 -1 724 -24947237 2136203243 -360827526 -471612745
            1014095786 -1669014037 -1139176210 -17215821</internalNodes>
          <leafValues>
            -1.4042133092880249e-01 3.5258564352989197e-01</leafValues></_>
        <_>
          <internalNodes>
            0 -1 170 403439728 329543680 134356341 522858384 726859953
            -1840952776 -1375033672 755708959</internalNodes>
          <leafValues>
            -2.8647476434707642e-01 1.7613032460212708e-01</leafValues></_>
        <_>
          <internalNodes>
            0 -1 945 -84196658 -618692561 581320814 -788304942
            -265108860 1912966840 -355552610 -80227377</internalNodes>
          <leafValues>
            -1.5131981670856476e-01 3.2649117708206177e-01</leafValues></_>
        <_>
          <internalNodes>
            0 -1 808 1385354704 -1221318574 1251538391 -38124206
            752758644 -898572105 42861380 460653223</internalNodes>
          <leafValues>
            -2.8672605752944946e-01 1.7435029149055481e-01</leafValues></_>
        <_>
          <internalNodes>
            0 -1 684 1103971251 -1850308584 2027247804 659302674
            1114982626 400052037 -1366621464 -1196297</internalNodes>
          <leafValues>
            -1.8010650575160980e-01 2.7777531743049622e-01</leafValues></_>
        <_>
          <internalNodes>
            0 -1 915 -1025514785 -245691495 -1028440908 -69224117
            -415048978 824333398 -76359025 -70258961</internalNodes>
          <leafValues>
            -9.9247328937053680e-02 4.9904766678810120e-01</leafValues></_>
        <_>
          <internalNodes>
            0 -1 544 -998268502 1217741356 172544 -201041654 3084291
            4199280 1546984167 1955004602</internalNodes>
          <leafValues>
            -2.2642202675342560e-01 2.1761846542358398e-01</leafValues></_>
        <_>
          <internalNodes>
            0 -1 171 1078604972 273412484 714560813 1629045569 822919094
            -208882131 1213211304 741028645</internalNodes>
          <leafValues>
            -2.9604423046112061e-01 1.6753442585468292e-01</leafValues></_>
        <_>
          <internalNodes>
            0 -1 686 -825664205 670661809 1490291243 -514300953
            -122214012 -1243610159 -1990738312 -937312621</internalNodes>
          <leafValues>
            -1.9450463354587555e-01 2.5696089863777161e-01</leafValues></_>
        <_>
          <internalNodes>
            0 -1 584 -636588071 -1950744897 2121378999 2147116280
            1679551884 681647515 1493290010 1271251911</internalNodes>
          <leafValues>
            -2.0332801342010498e-01 2.4940542876720428e-01</leafValues></_>
        <_>
          <internalNodes>
            0 -1 681 1781426798 -1159300430 1390076526 -61511290
            -1340363977 -1661891180 534834823 -1314934164</internalNodes>
          <leafValues>
            -2.3207782208919525e-01 2.2271500527858734e-01</leafValues></_>
        <_>
          <internalNodes>
            0 -1 373 -53798884 -677960635 -1439031881 -1120914687
            -1704006341 -618731016 -1708859494 -1472675143</internalNodes>
          <leafValues>
            -1.9367972016334534e-01 2.7280712127685547e-01</leafValues></_>
        <_>
          <internalNodes>
            0 -1 278 -2128591416 5796860 -1306738852 2110101564
            1832851014 579678228 767832014 1959120660</internalNodes>
          <leafValues>
            -3.4697261452674866e-01 1.6613438725471497e-01</leafValues></_>
        <_>
          <internalNodes>
            0 -1 649 -313351378 798679499 -1375538594 -721714446
            -1849590656 -2114322117 466501447 -1229352700</internalNodes>
          <leafValues>
            -2.6824617385864258e-01 1.9508419930934906e-01</leafValues></_>
        <_>
          <internalNodes>
            0 -1 865 -100663307 -167801427 -988121243 1575616241
            1655539866 -2017515026 -729555217 -1348759606</internalNodes>
          <leafValues>
            -1.3574680685997009e-01 3.8006952404975891e-01</leafValues></_></weakClassifiers></_>
    <!-- stage 8 -->
    <_>
      <maxWeakCount>38</maxWeakCount>
      <stageThreshold>-4.2463320493698120e-01</stageThreshold>
      <weakClassifiers>
        <_>
          <internalNodes>
            0 -1 388 -2001862516 805461384 754912372 11158544 1691684992
            351749188 204409024 4214784</internalNodes>
          <leafValues>
            8.9089088141918182e-02 7.0060586929321289e-01</leafValues></_>
        <_>
          <internalNodes>
            0 -1 112 -335569970 -1132475009 2121909980 -1917191170
            301447165 -235865417 1072557951 2146036431</internalNodes>
          <leafValues>
            -8.8743805885314941e-02 3.8715246319770813e-01</leafValues></_>
        <_>
          <internalNodes>
            0 -1 657 -1977028336 -360453235 1887983229 -438665419
            1963369651 -1077714025 -1445230408 -86843504</internalNodes>
          <leafValues>
            -2.5991216301918030e-01 2.2100615501403809e-01</leafValues></_>
        <_>
          <internalNodes>
            0 -1 510 -952513032 -1343364991 -1549260917 -42240329
            -215883360 -433485945 1139811758 -1067377707</internalNodes>
          <leafValues>
            -2.2320270538330078e-01 2.2060737013816833e-01</leafValues></_>
        <_>
          <internalNodes>
            0 -1 741 1977612671 1404306915 957260346 599269518 662548944
            -336391271 -1448961808 -16780318</internalNodes>
          <leafValues>
            -1.7408601939678192e-01 2.8070235252380371e-01</leafValues></_>
        <_>
          <internalNodes>
            0 -1 224 1735915511 837818238 -1192883087 -607600596
            101398463 966337011 1325998732 2144290190</internalNodes>
          <leafValues>
            -2.2735323011875153e-01 2.1129111945629120e-01</leafValues></_>
        <_>
          <internalNodes>
            0 -1 674 -294162441 1725857270 -56178983 880183228 183705165
            -331890 1853427590 -23891001</internalNodes>
          <leafValues>
            -2.0384588837623596e-01 2.4177181720733643e-01</leafValues></_>
        <_>
          <internalNodes>
            0 -1 750 -639895597 1373289363 -338092205 47830489
            -723554373 -923078979 -619016417 -1983251017</internalNodes>
          <leafValues>
            -1.4155660569667816e-01 3.3164381980895996e-01</leafValues></_>
        <_>
          <internalNodes>
            0 -1 631 1613745033 -72634369 -180697321 -946608161
            -956576273 -427589728 -1829886357 -168036645</internalNodes>
          <leafValues>
            -1.3666486740112305e-01 3.4967243671417236e-01</leafValues></_>
        <_>
          <internalNodes>
            0 -1 38 783168375 1849898247 549747553 -1403763508
            1822509863 307892545 -1389987571 1051751957</internalNodes>
          <leafValues>
            -2.8831401467323303e-01 1.6466504335403442e-01</leafValues></_>
        <_>
          <internalNodes>
            0 -1 390 1414514507 296809330 1767772614 1061131664
            -586451765 -1874505151 1619747054 1962895099</internalNodes>
          <leafValues>
            -2.1893922984600067e-01 2.1312105655670166e-01</leafValues></_>
        <_>
          <internalNodes>
            0 -1 338 -1403564502 834764832 -401572356 297538112
            -341931845 33130928 -376921968 1475617728</internalNodes>
          <leafValues>
            -3.0917167663574219e-01 1.5794104337692261e-01</leafValues></_>
        <_>
          <internalNodes>
            0 -1 964 -478944812 -673305071 1269625482 1967272234
            -1774842166 1477980426 718331343 -28846010</internalNodes>
          <leafValues>
            -1.7646957933902740e-01 2.6696828007698059e-01</leafValues></_>
        <_>
          <internalNodes>
            0 -1 760 355108100 1060549168 829951448 -1452244450
            234492338 1554049410 234475521 1426618011</internalNodes>
          <leafValues>
            -3.0930066108703613e-01 1.4585660398006439e-01</leafValues></_>
        <_>
          <internalNodes>
            0 -1 423 -493624606 1558307752 1395400962 -201362147
            -1153317972 341250655 1395504296 -156502453</internalNodes>
          <leafValues>
            -1.5872809290885925e-01 2.8650176525115967e-01</leafValues></_>
        <_>
          <internalNodes>
            0 -1 537 -246151818 946088400 -1085502806 1029669576
            1427334035 832766032 -1900741682 -195101337</internalNodes>
          <leafValues>
            -2.2687877714633942e-01 1.9768381118774414e-01</leafValues></_>
        <_>
          <internalNodes>
            0 -1 330 -206945036 1167090056 -1592886073 1975889496
            -160751368 -1411642471 923404680 1881217050</internalNodes>
          <leafValues>
            -2.5850224494934082e-01 1.7538900673389435e-01</leafValues></_>
        <_>
          <internalNodes>
            0 -1 694 -349180256 -273106698 -2013335695 -321942973
            790024126 1171938806 1156755519 -576076765</internalNodes>
          <leafValues>
            -1.8872080743312836e-01 2.4100127816200256e-01</leafValues></_>
        <_>
          <internalNodes>
            0 -1 582 447326387 1437588890 -293781541 -684909803
            -1142166346 -715416087 -822224022 -14560565</internalNodes>
          <leafValues>
            -1.3845981657505035e-01 3.3461502194404602e-01</leafValues></_>
        <_>
          <internalNodes>
            0 -1 412 -79187969 1379181046 582322978 2145265574 363640050
            448700173 -448848770 -268443697</internalNodes>
          <leafValues>
            -1.2150239944458008e-01 3.6703571677207947e-01</leafValues></_>
        <_>
          <internalNodes>
            0 -1 292 1235414878 423781142 -1810757923 858011650
            -2135194701 1170226929 1641302534 843997703</internalNodes>
          <leafValues>
            -2.8657251596450806e-01 1.6333460807800293e-01</leafValues></_>
        <_>
          <internalNodes>
            0 -1 742 -1024544922 -526454028 1057531618 -211846482
            525578880 -622664943 -1075330419 -122768822</internalNodes>
          <leafValues>
            -1.9682821631431580e-01 2.3543395102024078e-01</leafValues></_>
        <_>
          <internalNodes>
            0 -1 678 1411442207 471007257 -1103979881 -267721574
            1418305670 1561512404 688071204 1454027104</internalNodes>
          <leafValues>
            -2.5398364663124084e-01 1.9028843939304352e-01</leafValues></_>
        <_>
          <internalNodes>
            0 -1 769 -92729173 -353703533 1167033255 1928859930
            -967305576 -1820153169 700053131 1859056897</internalNodes>
          <leafValues>
            -2.0938333868980408e-01 2.2518451511859894e-01</leafValues></_>
        <_>
          <internalNodes>
            0 -1 927 -1014603295 -1773380868 -114224233 1065653574
            -895791896 -1166429039 482590862 -550017214</internalNodes>
          <leafValues>
            -1.7880961298942566e-01 2.6065462827682495e-01</leafValues></_>
        <_>
          <internalNodes>
            0 -1 917 1861993510 -1872578013 -498716608 1409978
            -258026976 17041441 973124002 298027911</internalNodes>
          <leafValues>
            -2.6804333925247192e-01 1.7671674489974976e-01</leafValues></_>
        <_>
          <internalNodes>
            0 -1 391 -1183283365 -1948790982 1068339002 -1078045082
            1288677070 312785852 1821126346 -825068801</internalNodes>
          <leafValues>
            -1.9311490654945374e-01 2.5406816601753235e-01</leafValues></_>
        <_>
          <internalNodes>
            0 -1 243 -577240004 -1759915452 -2115851827 1833243404
            1909503968 -1677876784 1784682745 241898537</internalNodes>
          <leafValues>
            -2.6909554004669189e-01 1.8390083312988281e-01</leafValues></_>
        <_>
          <internalNodes>
            0 -1 601 -992492990 1354212166 280532772 2079377617
            587892348 -672169744 -355937168 142935363</internalNodes>
          <leafValues>
            -2.9669293761253357e-01 1.6646620631217957e-01</leafValues></_>
        <_>
          <internalNodes>
            0 -1 148 1200059885 476738080 970588532 730630106 463567823
            687371224 2025263213 -204030026</internalNodes>
          <leafValues>
            -2.1423359215259552e-01 2.3723249137401581e-01</leafValues></_>
        <_>
          <internalNodes>
            0 -1 583 -1072116917 -2104061822 -829100913 -335920056
            452174785 145505282 911270659 1592371026</internalNodes>
          <leafValues>
            -2.5717899203300476e-01 1.9792665541172028e-01</leafValues></_>
        <_>
          <internalNodes>
            0 -1 871 1667092252 798590287 205790503 1067552480
            1098355096 -146404080 -1427463246 92667334</internalNodes>
          <leafValues>
            -2.5161990523338318e-01 1.9572529196739197e-01</leafValues></_>
        <_>
          <internalNodes>
            0 -1 541 -314313846 -1289136493 -1281839758 -83348534
            -3497811 -737143708 -79975513 -734533393</internalNodes>
          <leafValues>
            -1.5667805075645447e-01 3.1841576099395752e-01</leafValues></_>
        <_>
          <internalNodes>
            0 -1 951 234704493 162855106 461968974 165482044 -2120485345
            -2139052549 -411230490 3994551</internalNodes>
          <leafValues>
            -2.3845039308071136e-01 2.1413001418113708e-01</leafValues></_>
        <_>
          <internalNodes>
            0 -1 209 996460278 -385378188 -1469542350 -30660440
            -1484976205 1067425105 7766446 560165282</internalNodes>
          <leafValues>
            -3.0090230703353882e-01 1.6594876348972321e-01</leafValues></_>
        <_>
          <internalNodes>
            0 -1 122 -1640889691 520897684 -1367293133 254285844
            537360825 943090368 -2111697464 1758425392</internalNodes>
          <leafValues>
            -2.7675968408584595e-01 1.8229155242443085e-01</leafValues></_>
        <_>
          <internalNodes>
            0 -1 976 332592272 -1143271204 455154277 7057 -1824785268
            -1925273532 808589401 -1965539069</internalNodes>
          <leafValues>
            -2.2274409234523773e-01 2.1914029121398926e-01</leafValues></_>
        <_>
          <internalNodes>
            0 -1 306 1218001206 -1530237025 1220655167 -1537541250
            665186881 1988201631 -107700111 1690347880</internalNodes>
          <leafValues>
            -2.8689858317375183e-01 1.7672586441040039e-01</leafValues></_></weakClassifiers></_>
    <!-- stage 9 -->
    <_>
      <maxWeakCount>43</maxWeakCount>
      <stageThreshold>-4.7968798875808716e-01</stageThreshold>
      <weakClassifiers>
        <_>
          <internalNodes>
            0 -1 659 43198208 576763314 -506020852 886102768 -144358592
            -2083187529 1145573440 1213285408</internalNodes>
          <leafValues>
            2.3378746211528778e-01 7.1580576896667480e-01</leafValues></_>
        <_>
          <internalNodes>
            0 -1 156 -67717190 -25379729 -38669313 -5653889 -302516442
            -1344828233 -1248871687 2145369082</internalNodes>
          <leafValues>
            -8.2411773502826691e-02 4.0613240003585815e-01</leafValues></_>
        <_>
          <internalNodes>
            0 -1 595 797937333 515276554 849118013 1880022517 -64393795
            126819723 -353869664 1658061456</internalNodes>
          <leafValues>
            -3.3478862047195435e-01 1.6759204864501953e-01</leafValues></_>
        <_>
          <internalNodes>
            0 -1 647 -1413806092 -268436755 -1948429965 -1094874923
            -808090216 -1832211631 -1549758213 -1094022071</internalNodes>
          <leafValues>
            -2.2019591927528381e-01 2.2164186835289001e-01</leafValues></_>
        <_>
          <internalNodes>
            0 -1 136 -159478753 -1627092968 -333293249 -1090442465
            -545831497 -1612088780 -1613783077 -5550229</internalNodes>
          <leafValues>
            -1.3644440472126007e-01 3.1587442755699158e-01</leafValues></_>
        <_>
          <internalNodes>
            0 -1 893 -1170481231 -1174685255 -10725348 -1119448045
            -1885232760 -1947538389 -1009161269 -1611801093</internalNodes>
          <leafValues>
            -1.8015696108341217e-01 2.7620396018028259e-01</leafValues></_>
        <_>
          <internalNodes>
            0 -1 453 -934564405 303749562 -1612927220 -1812388222
            461340550 334789329 1343858762 217302739</internalNodes>
          <leafValues>
            -2.3670913279056549e-01 1.8933470547199249e-01</leafValues></_>
        <_>
          <internalNodes>
            0 -1 591 -1438914001 -1429799017 1431723071 -157112638
            1650009728 73115311 558220941 1790993175</internalNodes>
          <leafValues>
            -2.3265679180622101e-01 1.8300305306911469e-01</leafValues></_>
        <_>
          <internalNodes>
            0 -1 472 -45115901 -1863437001 -1235265102 -237980687
            -659986496 -2047191565 -1730342765 -623589917</internalNodes>
          <leafValues>
            -1.7263619601726532e-01 2.4760884046554565e-01</leafValues></_>
        <_>
          <internalNodes>
            0 -1 438 482214988 426644494 1573327503 1051674722
            -2074139510 -2100072375 1694315768 677119184</internalNodes>
          <leafValues>
            -3.6297607421875000e-01 1.1966206878423691e-01</leafValues></_>
        <_>
          <internalNodes>
            0 -1 908 -506469547 1572447759 -116044852 1944580497
            1199561728 620513396 1000143546 -1191734646</internalNodes>
          <leafValues>
            -1.6760769486427307e-01 2.6442801952362061e-01</leafValues></_>
        <_>
          <internalNodes>
            0 -1 478 1642048290 942410562 607465796 2080227850 96600759
            7059646 -248421160 1975981138</internalNodes>
          <leafValues>
            -2.5579255819320679e-01 1.7034082114696503e-01</leafValues></_>
        <_>
          <internalNodes>
            0 -1 497 1526691317 1350464592 -473221419 -1445637395
            -440679248 -353327393 250157316 197983319</internalNodes>
          <leafValues>
            -2.1376502513885498e-01 2.0165018737316132e-01</leafValues></_>
        <_>
          <internalNodes>
            0 -1 415 -475555037 -746019840 -549232094 -3317201
            -1210057028 1152093589 1669936051 -185617535</internalNodes>
          <leafValues>
            -1.4890116453170776e-01 2.9066631197929382e-01</leafValues></_>
        <_>
          <internalNodes>
            0 -1 580 -1709770923 -117876020 -1157727678 -1956294751
            -99761720 -1468882850 -71163495 -327927096</internalNodes>
          <leafValues>
            -1.9324705004692078e-01 2.2570414841175079e-01</leafValues></_>
        <_>
          <internalNodes>
            0 -1 620 2145364895 1369245876 1096891582 769422306
            1447678324 -1716674411 665449826 -397394</internalNodes>
          <leafValues>
            -1.4749021828174591e-01 3.0568286776542664e-01</leafValues></_>
        <_>
          <internalNodes>
            0 -1 427 -706253174 540889011 556735042 1736436586
            -1746750541 761455345 -174132824 -136627257</internalNodes>
          <leafValues>
            -1.8227237462997437e-01 2.4747726321220398e-01</leafValues></_>
        <_>
          <internalNodes>
            0 -1 557 -2087747328 -1886512337 1319388936 1068234830
            1877608103 116427360 -2133503915 195250402</internalNodes>
          <leafValues>
            -2.9260125756263733e-01 1.5159741044044495e-01</leafValues></_>
        <_>
          <internalNodes>
            0 -1 290 146140662 339226261 597818268 419576372 673773995
            983053490 -457000044 46526438</internalNodes>
          <leafValues>
            -2.8459388017654419e-01 1.5680615603923798e-01</leafValues></_>
        <_>
          <internalNodes>
            0 -1 723 -256420095 1685557684 510951389 -1204713531
            -17313769 -122851815 1431854620 -1078370395</internalNodes>
          <leafValues>
            -2.0292310416698456e-01 2.2786124050617218e-01</leafValues></_>
        <_>
          <internalNodes>
            0 -1 727 361103412 481207508 -161205314 1001295338
            1618879540 -924957913 34881674 2031045922</internalNodes>
          <leafValues>
            -2.9646670818328857e-01 1.4843273162841797e-01</leafValues></_>
        <_>
          <internalNodes>
            0 -1 667 -22102425 -1559310594 -668400458 1944291378
            -679513548 -404689494 -1433809173 -487488857</internalNodes>
          <leafValues>
            -1.9285418093204498e-01 2.3657615482807159e-01</leafValues></_>
        <_>
          <internalNodes>
            0 -1 286 70148630 817474336 -382285289 11679744 -1398985423
            967924705 -1301467390 78069648</internalNodes>
          <leafValues>
            -3.4057399630546570e-01 1.3622924685478210e-01</leafValues></_>
        <_>
          <internalNodes>
            0 -1 268 -557949354 2027565596 -895320715 -939156417
            -85226581 991186228 -1135703124 -83648870</internalNodes>
          <leafValues>
            -1.7068901658058167e-01 2.6538115739822388e-01</leafValues></_>
        <_>
          <internalNodes>
            0 -1 402 -674372642 293757222 -1150827720 -42773695
            1068875432 612688795 -597465953 -1454409813</internalNodes>
          <leafValues>
            -1.4918237924575806e-01 2.9057258367538452e-01</leafValues></_>
        <_>
          <internalNodes>
            0 -1 717 -1614094785 -1680145449 -1934492066 2028145918
            -212024564 496948902 1469337951 -192755806</internalNodes>
          <leafValues>
            -1.7838737368583679e-01 2.5240784883499146e-01</leafValues></_>
        <_>
          <internalNodes>
            0 -1 533 -357046015 917809114 1683336402 293579032
            1077995866 13675170 504053985 2007235111</internalNodes>
          <leafValues>
            -2.5983816385269165e-01 1.7734879255294800e-01</leafValues></_>
        <_>
          <internalNodes>
            0 -1 850 118706513 -206700719 -1256614027 -1650968939
            1808951033 -1669311083 540558254 431527239</internalNodes>
          <leafValues>
            -2.3142553865909576e-01 2.0354558527469635e-01</leafValues></_>
        <_>
          <internalNodes>
            0 -1 689 -815930095 -1434153565 -1492959485 -274148694
            1108238323 1101061216 1692993672 1338992103</internalNodes>
          <leafValues>
            -2.1198652684688568e-01 2.2322788834571838e-01</leafValues></_>
        <_>
          <internalNodes>
            0 -1 1 710821603 -1509897446 -1584766497 -1008021363
            1984239219 -398743019 -1818125455 913132148</internalNodes>
          <leafValues>
            -2.5125020742416382e-01 1.8636196851730347e-01</leafValues></_>
        <_>
          <internalNodes>
            0 -1 675 -423811292 1583244332 201673852 575144044 587738889
            -1352849604 242651757 118061172</internalNodes>
          <leafValues>
            -3.4447616338729858e-01 1.3376337289810181e-01</leafValues></_>
        <_>
          <internalNodes>
            0 -1 260 -137366764 -680713956 506648194 2075782433
            -1238128718 686349505 1251160831 -1736727374</internalNodes>
          <leafValues>
            -1.7735959589481354e-01 2.6476767659187317e-01</leafValues></_>
        <_>
          <internalNodes>
            0 -1 433 -357329251 -128451586 -671959137 1766103830
            -27796710 -382624769 -974105205 -207891778</internalNodes>
          <leafValues>
            -1.3908347487449646e-01 3.1916037201881409e-01</leafValues></_>
        <_>
          <internalNodes>
            0 -1 138 -1939046529 792225076 568738911 1852223362
            285960989 1253537750 493104160 770859016</internalNodes>
          <leafValues>
            -2.9479286074638367e-01 1.6126553714275360e-01</leafValues></_>
        <_>
          <internalNodes>
            0 -1 982 230530321 837859655 1020885261 -1336017380
            -2020361559 -1812683449 1793943472 495237944</internalNodes>
          <leafValues>
            -2.2532294690608978e-01 2.0605021715164185e-01</leafValues></_>
        <_>
          <internalNodes>
            0 -1 593 -1953759696 -877946656 1070616573 -68727379
            -541356719 -2100574039 763382157 -219706691</internalNodes>
          <leafValues>
            -1.7965203523635864e-01 2.6234364509582520e-01</leafValues></_>
        <_>
          <internalNodes>
            0 -1 228 -152181214 -1442304728 13092906 -679467645
            1938679702 582287901 1680895304 -526132326</internalNodes>
          <leafValues>
            -2.3939462006092072e-01 1.8896815180778503e-01</leafValues></_>
        <_>
          <internalNodes>
            0 -1 274 -60256137 -1760916688 809025319 2139486144
            1132710584 -172292903 -182249539 858064619</internalNodes>
          <leafValues>
            -2.0560154318809509e-01 2.2135636210441589e-01</leafValues></_>
        <_>
          <internalNodes>
            0 -1 486 400101355 1241758140 85459417 -2033292593 177283647
            -923013690 -1050578157 1643184097</internalNodes>
          <leafValues>
            -2.3999202251434326e-01 1.9604124128818512e-01</leafValues></_>
        <_>
          <internalNodes>
            0 -1 231 -670021063 -769650019 -1157729762 251704067
            239140691 -260432325 1688559401 -669452166</internalNodes>
          <leafValues>
            -1.8999692797660828e-01 2.4394561350345612e-01</leafValues></_>
        <_>
          <internalNodes>
            0 -1 322 -1279604140 -779417684 -877066593 1539930393
            -157499239 -341871439 -1086141445 -607509476</internalNodes>
          <leafValues>
            -1.6728332638740540e-01 2.8147199749946594e-01</leafValues></_>
        <_>
          <internalNodes>
            0 -1 618 1721740938 1181852298 1136682368 -1459421950
            -506535390 1279897824 517318578 -210127474</internalNodes>
          <leafValues>
            -1.9697107374668121e-01 2.3937156796455383e-01</leafValues></_>
        <_>
          <internalNodes>
            0 -1 837 -360717140 276439348 -691980288 935387652
            1939323411 877915947 -1989884562 -591922438</internalNodes>
          <leafValues>
            -2.1636824309825897e-01 2.1751052141189575e-01</leafValues></_></weakClassifiers></_>
    <!-- stage 10 -->
    <_>
      <maxWeakCount>41</maxWeakCount>
      <stageThreshold>-3.5794639587402344e-01</stageThreshold>
      <weakClassifiers>
        <_>
          <internalNodes>
            0 -1 716 645399136 44740540 -1397465410 -1073731092
            666840481 781982591 632032448 10485828</internalNodes>
          <leafValues>
            3.8036808371543884e-02 6.9647949934005737e-01</leafValues></_>
        <_>
          <internalNodes>
            0 -1 114 2040236458 -1080038659 327493887 1608188047
            2145992063 -100683297 -761664593 1898684556</internalNodes>
          <leafValues>
            -7.7066749334335327e-02 3.7366747856140137e-01</leafValues></_>
        <_>
          <internalNodes>
            0 -1 635 -92291076 1591709815 -1216945634 753795078
            436118442 -1431814661 327683640 66944920</internalNodes>
          <leafValues>
            -2.9588460922241211e-01 1.6384015977382660e-01</leafValues></_>
        <_>
          <internalNodes>
            0 -1 454 1298339667 -573493479 -877014120 -1287323114
            -680269106 -53414753 1789966538 -898664893</internalNodes>
          <leafValues>
            -1.8099428713321686e-01 2.6108953356742859e-01</leafValues></_>
        <_>
          <internalNodes>
            0 -1 723 649206288 754181058 -167905457 -25308761 1913648151
            -318701641 1344602033 -1094877275</internalNodes>
          <leafValues>
            -2.5085297226905823e-01 1.7989039421081543e-01</leafValues></_>
        <_>
          <internalNodes>
            0 -1 64 -1102166147 -1364850475 180666223 -5607686
            -1898295713 -1810672403 -1235978559 -1157733251</internalNodes>
          <leafValues>
            -2.5607410073280334e-01 1.6502372920513153e-01</leafValues></_>
        <_>
          <internalNodes>
            0 -1 511 -912343040 1893963410 1570577371 29297909
            -607147546 489116853 253693332 712320020</internalNodes>
          <leafValues>
            -3.2621130347251892e-01 1.3641172647476196e-01</leafValues></_>
        <_>
          <internalNodes>
            0 -1 633 -1832221883 -403968655 -1096779917 -1813252201
            -202521681 -318791181 748934955 -554967975</internalNodes>
          <leafValues>
            -1.5949863195419312e-01 2.7191069722175598e-01</leafValues></_>
        <_>
          <internalNodes>
            0 -1 867 2057764821 -586918587 439909966 1437075239
            -1347987478 -831104116 249866122 1019177096</internalNodes>
          <leafValues>
            -2.0896403491497040e-01 2.1285481750965118e-01</leafValues></_>
        <_>
          <internalNodes>
            0 -1 989 769724199 -858308105 -955971283 1170958809
            1271016193 -1813937966 1672099411 1304735589</internalNodes>
          <leafValues>
            -2.4799944460391998e-01 1.7707408964633942e-01</leafValues></_>
        <_>
          <internalNodes>
            0 -1 279 -207183490 -1782640468 814055935 -1553106708
            656761691 1509830691 -985713207 2011627751</internalNodes>
          <leafValues>
            -2.2784852981567383e-01 1.9184783101081848e-01</leafValues></_>
        <_>
          <internalNodes>
            0 -1 644 960138253 -1523144771 1833896319 1101261991
            1707484475 -1112521298 -466031046 -629313374</internalNodes>
          <leafValues>
            -1.8852198123931885e-01 2.2079895436763763e-01</leafValues></_>
        <_>
          <internalNodes>
            0 -1 181 1354236598 -1619965392 -1362996268 -1382736351
            -679229473 -813711131 -1258894917 854540462</internalNodes>
          <leafValues>
            -2.1170030534267426e-01 2.1044862270355225e-01</leafValues></_>
        <_>
          <internalNodes>
            0 -1 605 -292623052 -1003863156 67881207 -797966178
            1686268892 12130813 1067611077 2053452222</internalNodes>
          <leafValues>
            -2.6243928074836731e-01 1.6456317901611328e-01</leafValues></_>
        <_>
          <internalNodes>
            0 -1 414 787676655 448575487 -1524888650 229220316
            1777591270 48146361 -2041105760 -55607821</internalNodes>
          <leafValues>
            -1.9097736477851868e-01 2.3253579437732697e-01</leafValues></_>
        <_>
          <internalNodes>
            0 -1 863 -2104868447 -572918452 1103636296 -1098731593
            -1039956409 -906317073 -657319859 -87011248</internalNodes>
          <leafValues>
            -2.3105928301811218e-01 1.9433437287807465e-01</leafValues></_>
        <_>
          <internalNodes>
            0 -1 647 -353133591 -881869212 -378368557 -67793747
            -206238821 -2034896901 -1376150210 -117929421</internalNodes>
          <leafValues>
            -1.5259061753749847e-01 2.9011338949203491e-01</leafValues></_>
        <_>
          <internalNodes>
            0 -1 218 1910866964 1960028136 -523361340 -578071778
            1114482869 986301675 1954624404 8848328</internalNodes>
          <leafValues>
            -2.6834082603454590e-01 1.6271893680095673e-01</leafValues></_>
        <_>
          <internalNodes>
            0 -1 940 -1029187747 -177404043 -1084814370 -714138842
            -240214040 -1355935040 -1300125046 -87820346</internalNodes>
          <leafValues>
            -1.4082010090351105e-01 3.1591573357582092e-01</leafValues></_>
        <_>
          <internalNodes>
            0 -1 819 -1316762219 -1094864989 2044993135 -306309160
            178309562 -397883746 -1948851733 -239739145</internalNodes>
          <leafValues>
            -1.3553318381309509e-01 3.1111443042755127e-01</leafValues></_>
        <_>
          <internalNodes>
            0 -1 345 1074700824 606348106 226774156 -256597084 496706331
            903123080 1227438218 1080388614</internalNodes>
          <leafValues>
            -3.0958473682403564e-01 1.4299857616424561e-01</leafValues></_>
        <_>
          <internalNodes>
            0 -1 295 -143427782 270315594 -555998836 1975890478
            588588253 523303940 1997885689 -2066749553</internalNodes>
          <leafValues>
            -1.9434818625450134e-01 2.2359594702720642e-01</leafValues></_>
        <_>
          <internalNodes>
            0 -1 1000 733489273 596466943 -473565708 1155269710
            -734955194 -952006323 692332896 1957209864</internalNodes>
          <leafValues>
            -2.7573737502098083e-01 1.5642395615577698e-01</leafValues></_>
        <_>
          <internalNodes>
            0 -1 873 -510697076 1917781624 1074306680 382638734
            898588754 64627794 1734268895 -647785127</internalNodes>
          <leafValues>
            -2.0333269238471985e-01 2.1683102846145630e-01</leafValues></_>
        <_>
          <internalNodes>
            0 -1 836 -575342996 1390238214 -183326552 2055432588
            92595125 296695701 392365869 -253014097</internalNodes>
          <leafValues>
            -1.8115411698818207e-01 2.4590657651424408e-01</leafValues></_>
        <_>
          <internalNodes>
            0 -1 708 -1259586490 -1399982960 1588181507 -1129346561
            -406941551 -302857047 1571575363 -726898519</internalNodes>
          <leafValues>
            -2.3468191921710968e-01 1.9109910726547241e-01</leafValues></_>
        <_>
          <internalNodes>
            0 -1 671 488569820 -820124123 372286459 736764136 2015158193
            -902422111 1812898661 339075912</internalNodes>
          <leafValues>
            -2.7150309085845947e-01 1.7094512283802032e-01</leafValues></_>
        <_>
          <internalNodes>
            0 -1 661 -133016391 -550011115 535984989 -135844624
            -1795459956 1216591279 702741534 1592242675</internalNodes>
          <leafValues>
            -1.6463576257228851e-01 2.6994693279266357e-01</leafValues></_>
        <_>
          <internalNodes>
            0 -1 566 -901214824 -1334775330 -1254348336 -1200148024
            -2061520638 1791115066 -352843379 -1921930519</internalNodes>
          <leafValues>
            -2.5333684682846069e-01 1.7711828649044037e-01</leafValues></_>
        <_>
          <internalNodes>
            0 -1 253 2022393348 -576107868 -1643020957 2101809525
            237130112 -1092994892 531630088 77269165</internalNodes>
          <leafValues>
            -2.3654827475547791e-01 1.9064091145992279e-01</leafValues></_>
        <_>
          <internalNodes>
            0 -1 12 779712349 1480338971 -2039546867 1785440628
            -1336649183 838171920 -34447521 -290470085</internalNodes>
          <leafValues>
            -1.7955194413661957e-01 2.5382333993911743e-01</leafValues></_>
        <_>
          <internalNodes>
            0 -1 778 -671284701 -91437937 -801052129 -946028175
            -894344442 867297943 -510392827 -1143179179</internalNodes>
          <leafValues>
            -2.1420344710350037e-01 2.1596105396747589e-01</leafValues></_>
        <_>
          <internalNodes>
            0 -1 948 -481605256 -245948069 -2113400448 839841789
            1405949120 1646863827 -280580658 1199268487</internalNodes>
          <leafValues>
            -2.2502699494361877e-01 2.0460793375968933e-01</leafValues></_>
        <_>
          <internalNodes>
            0 -1 888 -2037909071 -595185362 1404248121 -134507886
            713610649 -875544646 139969977 -1693232903</internalNodes>
          <leafValues>
            -1.7965953052043915e-01 2.6036426424980164e-01</leafValues></_>
        <_>
          <internalNodes>
            0 -1 590 1404420649 -1812125314 -1943667221 590177872
            1180686754 1347399195 -436271887 785245066</internalNodes>
          <leafValues>
            -2.0264799892902374e-01 2.3058493435382843e-01</leafValues></_>
        <_>
          <internalNodes>
            0 -1 498 -1356472515 118636023 2141808028 227187118
            1877129970 -533266481 -537977924 -1996851238</internalNodes>
          <leafValues>
            -1.9378127157688141e-01 2.4518477916717529e-01</leafValues></_>
        <_>
