<?xml version="1.0"?>
<opencv_storage>
<cascade>
  <stageType>BOOST</stageType>
  <featureType>LBP</featureType>
  <height>48</height>
  <width>48</width>
  <stageParams>
    <boostType>GAB</boostType>
    <minHitRate>9.9500000476837158e-01</minHitRate>
    <maxFalseAlarm>5.0000000000000000e-01</maxFalseAlarm>
    <weightTrimRate>9.4999999999999996e-01</weightTrimRate>
    <maxDepth>1</maxDepth>
    <maxWeakCount>100</maxWeakCount></stageParams>
  <featureParams>
    <maxCatCount>256</maxCatCount>
    <featSize>1</featSize></featureParams>
  <stageNum>20</stageNum>
  <stages>
    <!-- stage 0 -->
    <_>
      <maxWeakCount>3</maxWeakCount>
      <stageThreshold>-7.5989460945129395e-01</stageThreshold>
      <weakClassifiers>
        <_>
          <internalNodes>
            0 -1 36 -574561656 -716723426 1338891519 -546852869
            -708383540 -536937222 -822350081 -3158037</internalNodes>
          <leafValues>
            -6.2716209888458252e-01 7.7439922094345093e-01</leafValues></_>
        <_>
          <internalNodes>
            0 -1 152 712943281 -1361114673 995750879 -1074268163
            -1198589761 -68487681 -1433494561 -69668</internalNodes>
          <leafValues>
            -6.3492798805236816e-01 6.5419358015060425e-01</leafValues></_>
        <_>
          <internalNodes>
            0 -1 156 -1988146441 164361439 -671297539 -1901142561
            -607126581 -1148198261 -274990391 -813022080</internalNodes>
          <leafValues>
            -7.1778124570846558e-01 5.0219547748565674e-01</leafValues></_></weakClassifiers></_>
    <!-- stage 1 -->
    <_>
      <maxWeakCount>5</maxWeakCount>
      <stageThreshold>-1.1422618627548218e+00</stageThreshold>
      <weakClassifiers>
        <_>
          <internalNodes>
            0 -1 102 -286330962 -275984436 -314845698 -41952812
            -300880897 -354905867 -1507330 -470820</internalNodes>
          <leafValues>
            -7.8766804933547974e-01 5.7485622167587280e-01</leafValues></_>
        <_>
          <internalNodes>
            0 -1 24 -167775538 -612369441 2046284505 930952179 -12603457
            -1050385 182426367 -1141113089</internalNodes>
          <leafValues>
            -5.5279856920242310e-01 5.7448655366897583e-01</leafValues></_>
        <_>
          <internalNodes>
            0 -1 120 -2054778881 -1112993891 -308023297 -303242260
            -1494746387 -1427518725 -85333252 -386605068</internalNodes>
          <leafValues>
            -6.7566657066345215e-01 4.1922682523727417e-01</leafValues></_>
        <_>
          <internalNodes>
            0 -1 138 -1369441571 266297083 -1318956939 1794766863
            2072769439 1542708047 -206591233 -926694329</internalNodes>
          <leafValues>
            -5.2253705263137817e-01 5.4055345058441162e-01</leafValues></_>
        <_>
          <internalNodes>
            0 -1 153 -1431662595 -69019685 -572849231 -1080035377
            -1316490801 -1411697429 -1366301953 -2050227732</internalNodes>
          <leafValues>
            -7.1354347467422485e-01 3.0151504278182983e-01</leafValues></_></weakClassifiers></_>
    <!-- stage 2 -->
    <_>
      <maxWeakCount>7</maxWeakCount>
      <stageThreshold>-1.0954804420471191e+00</stageThreshold>
      <weakClassifiers>
        <_>
          <internalNodes>
            0 -1 46 -705372210 -579469313 -1376911361 -547487793
            -536872017 -3212817 -272777233 2145383307</internalNodes>
          <leafValues>
            -4.9692457914352417e-01 6.6528826951980591e-01</leafValues></_>
        <_>
          <internalNodes>
            0 -1 136 1863200416 -1364287185 -1187955721 -140813833
            1155268863 -1431653 -1415939076 -6506083</internalNodes>
          <leafValues>
            -7.3823201656341553e-01 3.7734195590019226e-01</leafValues></_>
        <_>
          <internalNodes>
            0 -1 124 -1593923841 -142612001 -947521541 -33570850
            -220996397 -70530655 -611583011 -788533052</internalNodes>
          <leafValues>
            -4.8349329829216003e-01 4.8988845944404602e-01</leafValues></_>
        <_>
          <internalNodes>
            0 -1 101 5280222 -1651472100 -309791395 -16920045 -223034930
            -1685391093 1227969756 -606339877</internalNodes>
          <leafValues>
            -4.8161068558692932e-01 4.4331461191177368e-01</leafValues></_>
        <_>
          <internalNodes>
            0 -1 176 -807412860 -606948433 -773863939 1050326431
            -934456948 -640552517 178786316 1349988391</internalNodes>
          <leafValues>
            -6.0017323493957520e-01 3.3483877778053284e-01</leafValues></_>
        <_>
          <internalNodes>
            0 -1 139 -942750233 -1894872278 -646536267 -288358708
            -1288039429 -1646333781 -4391939 1854587336</internalNodes>
          <leafValues>
            -6.3634377717971802e-01 3.1677624583244324e-01</leafValues></_>
        <_>
          <internalNodes>
            0 -1 11 2010625008 -68300641 -650145315 1910480309
            -557269005 -38068067 -573088801 1945056255</internalNodes>
          <leafValues>
            -4.5924761891365051e-01 4.5316508412361145e-01</leafValues></_></weakClassifiers></_>
    <!-- stage 3 -->
    <_>
      <maxWeakCount>7</maxWeakCount>
      <stageThreshold>-1.0044244527816772e+00</stageThreshold>
      <weakClassifiers>
        <_>
          <internalNodes>
            0 -1 33 -546308130 -12747051 -1865416496 1465852464
            -67653906 2137963518 -1275281730 -67636481</internalNodes>
          <leafValues>
            -4.7797927260398865e-01 6.5077823400497437e-01</leafValues></_>
        <_>
          <internalNodes>
            0 -1 140 -1465724102 -1566430294 -2007773103 -254092581
            -733286216 -1096676472 1389679608 -218957863</internalNodes>
          <leafValues>
            -5.9002029895782471e-01 3.9044028520584106e-01</leafValues></_>
        <_>
          <internalNodes>
            0 -1 52 -706091346 1560929034 568448509 -543846273
            -648313617 -896528381 19728879 1327227259</internalNodes>
          <leafValues>
            -5.8529800176620483e-01 3.9726626873016357e-01</leafValues></_>
        <_>
          <internalNodes>
            0 -1 156 -2116037001 46863823 -653643499 -1399860735
            2039407807 -320617126 -621817215 -645004158</internalNodes>
          <leafValues>
            -5.4952985048294067e-01 3.9653480052947998e-01</leafValues></_>
        <_>
          <internalNodes>
            0 -1 67 -613490185 -610736636 1175895 1367712256 1301151898
            -2144689752 -376206678 1937236642</internalNodes>
          <leafValues>
            -4.8541173338890076e-01 4.1600614786148071e-01</leafValues></_>
        <_>
          <internalNodes>
            0 -1 120 -1903819121 -1079967101 -1056321061 -106962344
            -1475614568 -1408753519 -890647908 -1202588704</internalNodes>
          <leafValues>
            -6.1009013652801514e-01 3.1934624910354614e-01</leafValues></_>
        <_>
          <internalNodes>
            0 -1 26 2071982842 -628173986 -1005709973 1875693568
            -1676815113 -1265914726 1566822863 1001126399</internalNodes>
          <leafValues>
            -4.4499650597572327e-01 4.4642224907875061e-01</leafValues></_></weakClassifiers></_>
    <!-- stage 4 -->
    <_>
      <maxWeakCount>9</maxWeakCount>
      <stageThreshold>-8.6062777042388916e-01</stageThreshold>
      <weakClassifiers>
        <_>
          <internalNodes>
            0 -1 28 -2097154 -1025 -1108484609 -537185545 -67649537
            -67388418 -1095238977 -69225813</internalNodes>
          <leafValues>
            -3.4147033095359802e-01 6.5352189540863037e-01</leafValues></_>
        <_>
          <internalNodes>
            0 -1 152 -1367987405 -1364254377 991662463 -1073786721
            -1297351489 -21364253 603648747 -67748</internalNodes>
          <leafValues>
            -5.4460203647613525e-01 4.1565731167793274e-01</leafValues></_>
        <_>
          <internalNodes>
            0 -1 108 -487864855 -1096725 -11404935 -206905456 -637422149
            -71749493 -268894468 -570301114</internalNodes>
          <leafValues>
            -4.7313129901885986e-01 4.1032949090003967e-01</leafValues></_>
        <_>
          <internalNodes>
            0 -1 104 -1157898511 -1109539331 -58517507 -824396267
            -1163945808 -1095891479 112189837 -827654256</internalNodes>
          <leafValues>
            -5.0293493270874023e-01 3.7098151445388794e-01</leafValues></_>
        <_>
          <internalNodes>
            0 -1 132 -1998942820 -1293964969 -834476551 -270800041
            -525415013 -1358188383 -106085059 -24121074</internalNodes>
          <leafValues>
            -4.8592475056648254e-01 3.7910997867584229e-01</leafValues></_>
        <_>
          <internalNodes>
            0 -1 158 -380653845 -358553944 -443616833 -192771158
            -1073157185 -828702271 -1453592163 -402659347</internalNodes>
          <leafValues>
            -4.7125408053398132e-01 3.8315188884735107e-01</leafValues></_>
        <_>
          <internalNodes>
            0 -1 8 2104988752 -45907982 -354550273 2102722431 -162202656
            -17572369 -1350703906 1605218302</internalNodes>
          <leafValues>
            -4.1542014479637146e-01 4.5424458384513855e-01</leafValues></_>
        <_>
          <internalNodes>
            0 -1 38 -66588940 2069771474 -1859875889 1158820024
            1242539218 1485510296 671402587 1462492107</internalNodes>
          <leafValues>
            -5.0468122959136963e-01 3.5000085830688477e-01</leafValues></_>
        <_>
          <internalNodes>
            0 -1 168 593439394 1741114918 -766236932 -204131808
            -1078215700 1778637203 -656870705 -298811180</internalNodes>
          <leafValues>
            -5.6103545427322388e-01 2.8624221682548523e-01</leafValues></_></weakClassifiers></_>
    <!-- stage 5 -->
    <_>
      <maxWeakCount>8</maxWeakCount>
      <stageThreshold>-8.2254666090011597e-01</stageThreshold>
      <weakClassifiers>
        <_>
          <internalNodes>
            0 -1 68 -17961339 -20643924 2060631284 -518155 -1058231555
            -1091801384 -822427649 -196612</internalNodes>
          <leafValues>
            -4.3651100993156433e-01 5.0574964284896851e-01</leafValues></_>
        <_>
          <internalNodes>
            0 -1 128 -92277484 -211829450 -391243713 -268549590
            -401677570 -273896965 548592863 -285228813</internalNodes>
          <leafValues>
            -4.9720782041549683e-01 3.8772496581077576e-01</leafValues></_>
        <_>
          <internalNodes>
            0 -1 124 -1600476161 -1551923234 -481594913 -75512866
            -498359648 -4485119 -35917840 -788536112</internalNodes>
          <leafValues>
            -5.2457600831985474e-01 3.4121677279472351e-01</leafValues></_>
        <_>
          <internalNodes>
            0 -1 122 -534067205 -1312149166 968065407 -237472835
            454231169 -651493341 973619423 -236672866</internalNodes>
          <leafValues>
            -4.8845073580741882e-01 3.5772809386253357e-01</leafValues></_>
        <_>
          <internalNodes>
            0 -1 22 1465875418 -149039265 1265714953 1599172931
            -125835137 -80834597 -351829093 868592475</internalNodes>
          <leafValues>
            -4.0780374407768250e-01 3.8597306609153748e-01</leafValues></_>
        <_>
          <internalNodes>
            0 -1 156 -2116592649 248484767 -204308043 -1360005425
            -614999581 -1156370399 -225199232 -208976768</internalNodes>
          <leafValues>
            -5.2509284019470215e-01 3.1208974123001099e-01</leafValues></_>
        <_>
          <internalNodes>
            0 -1 105 -1917983314 677377823 1737738651 691683661
            -1307556997 -1707409406 -532643413 -1462719563</internalNodes>
          <leafValues>
            -7.1455597877502441e-01 2.0044085383415222e-01</leafValues></_>
        <_>
          <internalNodes>
            0 -1 37 -227347822 431620374 1754271965 654312192 -42932096
            1912209554 -268397831 673397514</internalNodes>
          <leafValues>
            -5.7127952575683594e-01 2.8465184569358826e-01</leafValues></_></weakClassifiers></_>
    <!-- stage 6 -->
    <_>
      <maxWeakCount>10</maxWeakCount>
      <stageThreshold>-9.3591398000717163e-01</stageThreshold>
      <weakClassifiers>
        <_>
          <internalNodes>
            0 -1 75 -705310930 1475870719 -2017599505 1977999358 -139473
            -18546833 -439752758 1475342827</internalNodes>
          <leafValues>
            -4.2202571034431458e-01 4.7750425338745117e-01</leafValues></_>
        <_>
          <internalNodes>
            0 -1 138 -1480858916 201306927 -1786534563 1255793965
            -211578357 -78925409 -121373751 -867711993</internalNodes>
          <leafValues>
            -5.0251835584640503e-01 3.3043798804283142e-01</leafValues></_>
        <_>
          <internalNodes>
            0 -1 70 -35169282 1565597791 -1793253409 2147287760
            -2129931789 994771334 1788656639 1078219442</internalNodes>
          <leafValues>
            -5.2301722764968872e-01 3.2078689336776733e-01</leafValues></_>
        <_>
          <internalNodes>
            0 -1 69 -606171898 -810883494 -921972387 1180944642
            263848094 461998783 -1163686897 1927538594</internalNodes>
          <leafValues>
            -4.9831259250640869e-01 3.2598018646240234e-01</leafValues></_>
        <_>
          <internalNodes>
            0 -1 104 948887029 -1644298339 -599268003 -857877815
            714483166 -1684403995 2057272192 -51708032</internalNodes>
          <leafValues>
            -5.4223996400833130e-01 2.7098160982131958e-01</leafValues></_>
        <_>
          <internalNodes>
            0 -1 166 716171982 1759961166 1900178510 -37650304 -67455235
            -216280339 -7406597 -150420727</internalNodes>
          <leafValues>
            -5.1988148689270020e-01 2.9927203059196472e-01</leafValues></_>
        <_>
          <internalNodes>
            0 -1 7 1542305726 2060179547 -1016998626 -345011861
            1139495093 966056623 -80741781 2147480046</internalNodes>
          <leafValues>
            -4.0474903583526611e-01 3.8970288634300232e-01</leafValues></_>
        <_>
          <internalNodes>
            0 -1 98 1347937538 1960003272 -958118780 -1324547068
            1247078782 1901211906 -1466063190 1617952687</internalNodes>
          <leafValues>
            -5.4013073444366455e-01 2.8223878145217896e-01</leafValues></_>
        <_>
          <internalNodes>
            0 -1 162 -1593572112 -1433763608 -1757278073 -779355157
            -82891796 -754515837 -1151798296 1945956861</internalNodes>
          <leafValues>
            -7.2028779983520508e-01 1.9001758098602295e-01</leafValues></_>
        <_>
          <internalNodes>
            0 -1 183 -1023948321 -713196069 1073581751 2046500799
            1280623756 276860825 106146442 1528810479</internalNodes>
          <leafValues>
            -3.4682717919349670e-01 4.4598886370658875e-01</leafValues></_></weakClassifiers></_>
    <!-- stage 7 -->
    <_>
      <maxWeakCount>10</maxWeakCount>
      <stageThreshold>-9.0518832206726074e-01</stageThreshold>
      <weakClassifiers>
        <_>
          <internalNodes>
            0 -1 62 -823235212 -34734082 1869545460 1328085883
            -587256073 -587206913 -16941231 -9457862</internalNodes>
          <leafValues>
            -4.0907165408134460e-01 4.4722163677215576e-01</leafValues></_>
        <_>
          <internalNodes>
            0 -1 134 -1562508357 316609819 -254031969 813662587
            -1688100101 -223895358 -104793349 1856566264</internalNodes>
          <leafValues>
            -6.0447919368743896e-01 2.6839762926101685e-01</leafValues></_>
        <_>
          <internalNodes>
            0 -1 53 -782252531 1472649778 1073822993 1904291588
            1370063016 1359856872 -1123441265 1881401866</internalNodes>
          <leafValues>
            -4.2818334698677063e-01 3.3402359485626221e-01</leafValues></_>
        <_>
          <internalNodes>
            0 -1 152 -354484303 -301528343 -1880648993 1006323081
            1776269483 -609615077 -1142957089 -71406723</internalNodes>
          <leafValues>
            -4.3918034434318542e-01 3.1712460517883301e-01</leafValues></_>
        <_>
          <internalNodes>
            0 -1 141 -1018244356 -1244998528 -1848583432 -1412868092
            -217717764 -753401723 -1431512354 -3283489</internalNodes>
          <leafValues>
            -4.2574569582939148e-01 3.0949914455413818e-01</leafValues></_>
        <_>
          <internalNodes>
            0 -1 5 776654975 -645534337 -1922350289 -807968997
            -473176337 -111803836 -273192341 2121759507</internalNodes>
          <leafValues>
            -3.7557607889175415e-01 3.6094811558723450e-01</leafValues></_>
        <_>
          <internalNodes>
            0 -1 164 -880402181 -1031126902 -1214283521 -242362274
            -508380421 1956876441 -1555776833 272941316</internalNodes>
          <leafValues>
            -6.0819751024246216e-01 2.2261357307434082e-01</leafValues></_>
        <_>
          <internalNodes>
            0 -1 82 -55684609 -55836580 18022657 -1955789811 554606599
            547410049 -1969282866 -2031804125</internalNodes>
          <leafValues>
            -4.5674386620521545e-01 3.1578934192657471e-01</leafValues></_>
        <_>
          <internalNodes>
            0 -1 161 -818420796 528877810 143851852 -544808926 44697989
            731775492 121765896 460546819</internalNodes>
          <leafValues>
            -5.4282760620117188e-01 2.4067825078964233e-01</leafValues></_>
        <_>
          <internalNodes>
            0 -1 29 -640748530 1899152974 -799260612 301194011
            1907343578 2018191937 151549902 546043515</internalNodes>
          <leafValues>
            -4.6061918139457703e-01 2.7796414494514465e-01</leafValues></_></weakClassifiers></_>
    <!-- stage 8 -->
    <_>
      <maxWeakCount>13</maxWeakCount>
      <stageThreshold>-8.8715916872024536e-01</stageThreshold>
      <weakClassifiers>
        <_>
          <internalNodes>
            0 -1 49 -179854065 -205019239 570421525 401032847 -45617665
            -200867905 -2098202721 -18098505</internalNodes>
          <leafValues>
            -2.4917738139629364e-01 5.2709358930587769e-01</leafValues></_>
        <_>
          <internalNodes>
            0 -1 107 -1725893645 -1445077573 -136100045 -271212867
            1040843482 518592653 -74585208 -253561856</internalNodes>
          <leafValues>
            -4.7161301970481873e-01 3.0579113960266113e-01</leafValues></_>
        <_>
          <internalNodes>
            0 -1 87 -14502146 -1646415820 -579649446 288194560
            -894828290 -1074620225 -350708582 1323823522</internalNodes>
          <leafValues>
            -3.9152368903160095e-01 3.2428893446922302e-01</leafValues></_>
        <_>
          <internalNodes>
            0 -1 149 -1968496687 -149192291 157538847 1945879437
            -1866849750 -14280702 -86330917 -1124336263</internalNodes>
          <leafValues>
            -4.0648502111434937e-01 3.3483079075813293e-01</leafValues></_>
        <_>
          <internalNodes>
            0 -1 177 -1088013846 -220522368 -1043299261 1358567638
            -162654036 -108050304 -638797714 -1358903806</internalNodes>
          <leafValues>
            -4.9214345216751099e-01 2.7775147557258606e-01</leafValues></_>
        <_>
          <internalNodes>
            0 -1 6 1695678335 1161532813 -1160968016 1721604606
            1646519007 405357019 -275775580 -20978022</internalNodes>
          <leafValues>
            -3.8509702682495117e-01 3.4299030900001526e-01</leafValues></_>
        <_>
          <internalNodes>
            0 -1 146 -448902520 1218220286 -745574337 431678154
            -913670194 1220771840 134291601 1602974248</internalNodes>
          <leafValues>
            -5.4595696926116943e-01 2.4567794799804688e-01</leafValues></_>
        <_>
          <internalNodes>
            0 -1 89 -1108877329 -33624083 -1614815234 2113667061
            -822866203 -1090748419 -117459457 -17104897</internalNodes>
          <leafValues>
            -2.9883888363838196e-01 4.3717667460441589e-01</leafValues></_>
        <_>
          <internalNodes>
            0 -1 110 -78253538 709611775 -429696769 1342478033
            -1171205932 -692808576 -368518470 -89000197</internalNodes>
          <leafValues>
            -3.9377593994140625e-01 3.5098314285278320e-01</leafValues></_>
        <_>
          <internalNodes>
            0 -1 31 -716680588 1359051016 -1660213053 458226552
            -237176850 964782956 1229578398 1561323391</internalNodes>
          <leafValues>
            -3.8170918822288513e-01 3.3299961686134338e-01</leafValues></_>
        <_>
          <internalNodes>
            0 -1 60 412048917 -589845655 -1161752817 -1730287683
            1846540924 -255819608 1793800975 244968973</internalNodes>
          <leafValues>
            -4.5373457670211792e-01 2.8875914216041565e-01</leafValues></_>
        <_>
          <internalNodes>
            0 -1 118 -2117676811 -1242769185 1627550097 -296426917
            -238662241 778248331 1635783704 -53749432</internalNodes>
          <leafValues>
            -4.3836757540702820e-01 2.8475570678710938e-01</leafValues></_>
        <_>
          <internalNodes>
            0 -1 63 -558179206 992844298 4696351 322668894 -1693022080
            1529512449 -628961276 1915685678</internalNodes>
          <leafValues>
            -3.8835102319717407e-01 3.3366307616233826e-01</leafValues></_></weakClassifiers></_>
    <!-- stage 9 -->
    <_>
      <maxWeakCount>13</maxWeakCount>
      <stageThreshold>-9.9144327640533447e-01</stageThreshold>
      <weakClassifiers>
        <_>
          <internalNodes>
            0 -1 120 -2055074161 -1392433476 138577687 -302194324
            -368842588 -1161526069 -360056216 -260707504</internalNodes>
          <leafValues>
            -5.6771928071975708e-01 3.4787878394126892e-01</leafValues></_>
        <_>
          <internalNodes>
            0 -1 79 1569963316 -206153793 -2062205123 -1112759618
            -1955075394 -1091362013 1303854201 -34623877</internalNodes>
          <leafValues>
            -4.4022217392921448e-01 3.0842465162277222e-01</leafValues></_>
        <_>
          <internalNodes>
            0 -1 55 1880616622 2011486447 -648900100 1903526272
            -997418229 -981366563 -87401730 1912039686</internalNodes>
          <leafValues>
            -3.9650836586952209e-01 3.1677111983299255e-01</leafValues></_>
        <_>
          <internalNodes>
            0 -1 133 800048040 -1481661521 -179046568 -103840420
            -658810388 186294430 1535843321 1265590367</internalNodes>
          <leafValues>
            -5.9903520345687866e-01 1.8566283583641052e-01</leafValues></_>
        <_>
          <internalNodes>
            0 -1 156 -1981817101 785111549 -1258267311 -352455811
            -748571478 -759463286 -1113347453 -946995070</internalNodes>
          <leafValues>
            -4.8505562543869019e-01 2.3964469134807587e-01</leafValues></_>
        <_>
          <internalNodes>
            0 -1 178 -487602253 1993769691 1627665375 -717045579
            -1176593016 -663180649 -206018738 817078822</internalNodes>
          <leafValues>
            -4.1150483489036560e-01 2.9662689566612244e-01</leafValues></_>
        <_>
          <internalNodes>
            0 -1 125 -1366329453 -1256093360 1196609491 -398159915
            -620614926 -1149613830 434258744 -127599628</internalNodes>
          <leafValues>
            -5.1438063383102417e-01 2.0805509388446808e-01</leafValues></_>
        <_>
          <internalNodes>
            0 -1 16 -1144593202 -102940658 138546223 1814970394
            448526438 -1195568862 1879491467 186558735</internalNodes>
          <leafValues>
            -4.3587645888328552e-01 2.8247871994972229e-01</leafValues></_>
        <_>
          <internalNodes>
            0 -1 138 -1524382984 193528075 -1023401783 1402069035
            990183543 2073763841 -702401907 1288174625</internalNodes>
          <leafValues>
            -5.1376712322235107e-01 2.3580431938171387e-01</leafValues></_>
        <_>
          <internalNodes>
            0 -1 23 1954211422 896682835 -455961062 1901583674 5463998
            945451609 546019752 1818123</internalNodes>
          <leafValues>
            -5.1377183198928833e-01 2.1206049621105194e-01</leafValues></_>
        <_>
          <internalNodes>
            0 -1 196 1112525311 -772440167 -1610746121 2009591263
            -368768594 1877934708 -790685458 -625521938</internalNodes>
          <leafValues>
            -2.7630066871643066e-01 4.4237050414085388e-01</leafValues></_>
        <_>
          <internalNodes>
            0 -1 121 247898504 -425523122 724899294 -2019620773
            -268431133 -1419572864 -32556518 -1883587820</internalNodes>
          <leafValues>
            -6.3723248243331909e-01 2.0961602032184601e-01</leafValues></_>
        <_>
          <internalNodes>
            0 -1 50 1599326613 1370526480 -2129554948 327197216
            1641077758 1509974555 1095862987 906193442</internalNodes>
          <leafValues>
            -4.7824019193649292e-01 2.6354572176933289e-01</leafValues></_></weakClassifiers></_>
    <!-- stage 10 -->
    <_>
      <maxWeakCount>13</maxWeakCount>
      <stageThreshold>-1.2267786264419556e+00</stageThreshold>
      <weakClassifiers>
        <_>
          <internalNodes>
            0 -1 19 -134218754 -16780289 2096584687 1035941631 -84995
            -67113473 -1091371013 28833791</internalNodes>
          <leafValues>
            -2.5615251064300537e-01 4.4936269521713257e-01</leafValues></_>
        <_>
          <internalNodes>
            0 -1 154 -833703965 -670301620 -137102679 1402954495
            -608470023 1539025855 2068363772 -77272759</internalNodes>
          <leafValues>
            -3.9068019390106201e-01 3.0692058801651001e-01</leafValues></_>
        <_>
          <internalNodes>
            0 -1 111 1920664071 -44168466 1409405407 -1152548507
            1216586207 -1683271145 -203985141 274749271</internalNodes>
          <leafValues>
            -4.5536503195762634e-01 2.5791192054748535e-01</leafValues></_>
        <_>
          <internalNodes>
            0 -1 180 -203426006 973899918 1103631288 613343584 84283014
            811602467 1083442927 739212463</internalNodes>
          <leafValues>
            -3.8451078534126282e-01 2.9355347156524658e-01</leafValues></_>
        <_>
          <internalNodes>
            0 -1 186 -1120840207 474023232 -2144726201 -1651674980
            -1151463016 948865929 -1551864302 -1685018618</internalNodes>
          <leafValues>
            -4.1952708363533020e-01 2.5067305564880371e-01</leafValues></_>
        <_>
          <internalNodes>
            0 -1 148 -341856579 1791699150 -398204795 2040122529
            -1467790689 1787459722 569073627 1940869527</internalNodes>
          <leafValues>
            -3.9740860462188721e-01 2.6760178804397583e-01</leafValues></_>
        <_>
          <internalNodes>
            0 -1 81 -320736481 -29720308 -1585094079 -296791649
            -1202243141 -98697205 -196245496 1814463314</internalNodes>
          <leafValues>
            -3.3936634659767151e-01 3.3067262172698975e-01</leafValues></_>
        <_>
          <internalNodes>
            0 -1 184 -80478471 2126118753 -1275304079 968384368
            -1677741655 -18435 2007842621 -1348282471</internalNodes>
          <leafValues>
            -2.9235500097274780e-01 3.8557508587837219e-01</leafValues></_>
        <_>
          <internalNodes>
            0 -1 106 -1565523969 -68157444 -402653185 2141831145
            -20971521 -75497473 -134217731 -20119953</internalNodes>
          <leafValues>
            -2.8962910175323486e-01 4.1047149896621704e-01</leafValues></_>
        <_>
          <internalNodes>
            0 -1 113 1660109336 1036353604 293684088 1128604162
            1238122971 691012560 -775042982 1089815458</internalNodes>
          <leafValues>
            -5.7466632127761841e-01 2.3682087659835815e-01</leafValues></_>
        <_>
          <internalNodes>
            0 -1 40 -96803465 -1228011769 -178029347 2146393896
            -650730089 -604051515 -1434934049 -1439994933</internalNodes>
          <leafValues>
            -3.2808095216751099e-01 3.6304834485054016e-01</leafValues></_>
        <_>
          <internalNodes>
            0 -1 159 450227135 935198391 -302404548 1462086262 -6451092
            -849539896 -33564388 -16797840</internalNodes>
          <leafValues>
            -2.7740636467933655e-01 4.0738138556480408e-01</leafValues></_>
        <_>
          <internalNodes>
            0 -1 201 87538816 -1858839637 -1585179633 1833140315
            1042402266 148211854 185917390 51327507</internalNodes>
          <leafValues>
            -4.1192129254341125e-01 2.8580459952354431e-01</leafValues></_></weakClassifiers></_>
    <!-- stage 11 -->
    <_>
      <maxWeakCount>14</maxWeakCount>
      <stageThreshold>-1.2754709720611572e+00</stageThreshold>
      <weakClassifiers>
        <_>
          <internalNodes>
            0 -1 124 -1598378276 -1545795762 -534799079 -271598954
            -368852971 -1148747536 -10100060 -1057119024</internalNodes>
          <leafValues>
            -5.0346738100051880e-01 3.3449113368988037e-01</leafValues></_>
        <_>
          <internalNodes>
            0 -1 54 -1348787 -14768144 1878257651 -1615790768 -33736851
            356406901 -1158501638 -50354769</internalNodes>
          <leafValues>
            -3.0296730995178223e-01 3.9631110429763794e-01</leafValues></_>
        <_>
          <internalNodes>
            0 -1 188 1448988415 1574126495 860959903 -1806073209
            1376030350 1531474958 1598459562 1998834594</internalNodes>
          <leafValues>
            -3.4369465708732605e-01 3.3124879002571106e-01</leafValues></_>
        <_>
          <internalNodes>
            0 -1 101 15901150 -1620144434 -452934243 -365000481
            298232078 -1165917942 -552587236 -569639861</internalNodes>
          <leafValues>
            -4.8212561011314392e-01 2.4904502928256989e-01</leafValues></_>
        <_>
          <internalNodes>
            0 -1 0 -506992897 -403605569 -1880133905 -314720857
            1877861119 -1213540108 -817926851 -315497161</internalNodes>
          <leafValues>
            -3.1000694632530212e-01 3.6153247952461243e-01</leafValues></_>
        <_>
          <internalNodes>
            0 -1 162 -343440905 -336941077 2146688687 -10764305
            -1077968897 -1 -573473 -2296833</internalNodes>
          <leafValues>
            -2.8228130936622620e-01 3.9390897750854492e-01</leafValues></_>
        <_>
          <internalNodes>
            0 -1 87 -16213832 -1076372092 -1845258093 558624800
            -903693506 -1347712317 -1489204342 69534210</internalNodes>
          <leafValues>
            -5.0411552190780640e-01 2.1591879427433014e-01</leafValues></_>
        <_>
          <internalNodes>
            0 -1 169 1138738493 421414917 -2130671866 657301652
            1095059074 617931095 1684302542 1950874507</internalNodes>
          <leafValues>
            -3.9176595211029053e-01 2.5877061486244202e-01</leafValues></_>
        <_>
          <internalNodes>
            0 -1 99 -951876178 1543207883 1196544155 61948179 -129408321
            -554536958 1090603146 168247482</internalNodes>
          <leafValues>
            -4.8741897940635681e-01 2.3038628697395325e-01</leafValues></_>
        <_>
          <internalNodes>
            0 -1 150 774799273 -1296327512 -582558928 1781248129
            -1393996819 565741818 593111581 1002373660</internalNodes>
          <leafValues>
            -4.4643372297286987e-01 2.4741500616073608e-01</leafValues></_>
        <_>
          <internalNodes>
            0 -1 139 1307495143 -1381875550 1093894517 -629518088
            -1953365320 -1598357103 -209552455 1852365784</internalNodes>
          <leafValues>
            -5.3300309181213379e-01 1.8927678465843201e-01</leafValues></_>
        <_>
          <internalNodes>
            0 -1 3 -775032882 1204145917 1452877922 -287140385
            1426569695 105507113 -487736844 1833733102</internalNodes>
          <leafValues>
            -4.1268181800842285e-01 2.4599286913871765e-01</leafValues></_>
        <_>
          <internalNodes>
            0 -1 192 714336244 1909212023 1291915922 1532521906
            812519628 -561545189 831717386 -1330689461</internalNodes>
          <leafValues>
            -3.5011973977088928e-01 3.1174147129058838e-01</leafValues></_>
        <_>
          <internalNodes>
            0 -1 142 648816477 1404398530 564526204 1702199151
            1065304043 2079326188 1962719933 -495067214</internalNodes>
          <leafValues>
            -3.1105417013168335e-01 3.4139138460159302e-01</leafValues></_></weakClassifiers></_>
    <!-- stage 12 -->
    <_>
      <maxWeakCount>14</maxWeakCount>
      <stageThreshold>-9.0899968147277832e-01</stageThreshold>
      <weakClassifiers>
        <_>
          <internalNodes>
            0 -1 116 179843064 -11747322 -1684709095 -1144343784
            2049528441 -1165253945 -368715296 -5123584</internalNodes>
          <leafValues>
            -5.0142043828964233e-01 3.2907459139823914e-01</leafValues></_>
        <_>
          <internalNodes>
            0 -1 2 -360710409 -367263745 -294142369 -806649889
            -419431233 -268697601 -281676057 -294651289</internalNodes>
          <leafValues>
            -2.4124252796173096e-01 4.3937307596206665e-01</leafValues></_>
        <_>
          <internalNodes>
            0 -1 126 -884810797 -1375043414 1081481496 -746423664
            1879411990 -771650708 1908916158 -134878217</internalNodes>
          <leafValues>
            -3.8707467913627625e-01 2.6752355694770813e-01</leafValues></_>
        <_>
          <internalNodes>
            0 -1 123 -85004421 2126393086 1874325489 -1346375681
            1325318143 1342144511 2145288031 -1076035755</internalNodes>
          <leafValues>
            -2.4219788610935211e-01 4.3686228990554810e-01</leafValues></_>
        <_>
          <internalNodes>
            0 -1 155 -336660489 -2069840532 -1912837279 137067977
            -1073741828 -2 905903479 -2049</internalNodes>
          <leafValues>
            -2.8608149290084839e-01 3.9550313353538513e-01</leafValues></_>
        <_>
          <internalNodes>
            0 -1 167 -40903802 -38928566 -17040292 -612110670 -270561762
            1610448735 -558039975 -642039885</internalNodes>
          <leafValues>
            -3.1461772322654724e-01 3.3158111572265625e-01</leafValues></_>
        <_>
          <internalNodes>
            0 -1 73 1436476018 1739045322 -804049582 -105048656
            1705541863 1605337239 934442487 -25705322</internalNodes>
          <leafValues>
            -3.2353585958480835e-01 3.2687827944755554e-01</leafValues></_>
        <_>
          <internalNodes>
            0 -1 20 1491744604 1434461754 2043163829 1561142871
            -846399299 1904353979 -2088592740 606591931</internalNodes>
          <leafValues>
            -3.6654889583587646e-01 2.9852843284606934e-01</leafValues></_>
        <_>
          <internalNodes>
            0 -1 164 -878249985 -341266302 -749217405 -305613650
            -2047479649 -1850236840 -169551105 -612204461</internalNodes>
          <leafValues>
            -3.2466807961463928e-01 3.2392042875289917e-01</leafValues></_>
        <_>
          <internalNodes>
            0 -1 47 1956603653 2020582189 153754192 45989651 2023488881
            -1460477813 -79009186 237886305</internalNodes>
          <leafValues>
            -4.6187153458595276e-01 2.5014820694923401e-01</leafValues></_>
        <_>
          <internalNodes>
            0 -1 135 1252221903 505610529 19075603 -135429839 -141352957
            -103317481 1091797779 -1293278704</internalNodes>
          <leafValues>
            -3.9495873451232910e-01 2.7252691984176636e-01</leafValues></_>
        <_>
          <internalNodes>
            0 -1 68 -626008435 -75170131 -536879625 -1409681415
            -999511043 -1100189700 1593458687 -102403</internalNodes>
          <leafValues>
            -3.0750384926795959e-01 3.7650781869888306e-01</leafValues></_>
        <_>
          <internalNodes>
            0 -1 187 -1344146692 -2064809996 -229561 2136557285
            -545513762 -84443176 -537093926 -92081917</internalNodes>
          <leafValues>
            -3.0934470891952515e-01 3.6200511455535889e-01</leafValues></_>
        <_>
          <internalNodes>
            0 -1 83 1729027934 2135655319 -712506979 140265732
            1095958531 403376273 285218833 1089466359</internalNodes>
          <leafValues>
            -4.1329213976860046e-01 2.9872417449951172e-01</leafValues></_></weakClassifiers></_>
    <!-- stage 13 -->
    <_>
      <maxWeakCount>15</maxWeakCount>
      <stageThreshold>-9.3999230861663818e-01</stageThreshold>
      <weakClassifiers>
        <_>
          <internalNodes>
            0 -1 85 -8396931 1039858558 -1345728547 -1657205521
            1072111476 -1077952909 687180824 -33558563</internalNodes>
          <leafValues>
            -1.6028840839862823e-01 4.9471342563629150e-01</leafValues></_>
        <_>
          <internalNodes>
            0 -1 86 -1682255668 -1617213188 1611830063 -1030555064
            -644185924 -69582816 454705390 -500548320</internalNodes>
          <leafValues>
            -4.2807546257972717e-01 2.5805377960205078e-01</leafValues></_>
        <_>
          <internalNodes>
            0 -1 156 -1587585165 568805065 -472587627 -1362129185
            -1314416721 -897342873 -1189417343 -607173609</internalNodes>
          <leafValues>
            -3.4289494156837463e-01 2.8328019380569458e-01</leafValues></_>
        <_>
          <internalNodes>
            0 -1 78 -674372347 -749473201 664925557 1995368129 -92669014
            -262340470 569242091 -574096065</internalNodes>
          <leafValues>
            -3.4298095107078552e-01 3.0041265487670898e-01</leafValues></_>
        <_>
          <internalNodes>
            0 -1 93 -1089801568 -407922392 1375852000 -809687263
            -2061355453 265144865 1359323621 -6045760</internalNodes>
          <leafValues>
            -3.6254218220710754e-01 2.8065511584281921e-01</leafValues></_>
        <_>
          <internalNodes>
            0 -1 190 -1310747137 -574998157 2130550146 2013017597
            1114473708 -806375713 1087865582 2128555146</internalNodes>
          <leafValues>
            -2.7921053767204285e-01 3.5404598712921143e-01</leafValues></_>
        <_>
          <internalNodes>
            0 -1 105 248489646 140462310 124090639 1700667729 -13365317
            944906323 -790355578 -397922651</internalNodes>
          <leafValues>
            -6.8466234207153320e-01 1.1545761674642563e-01</leafValues></_>
        <_>
          <internalNodes>
            0 -1 92 850575339 787620590 1116148343 430456222 -135325702
            -90498577 -560368444 -50715212</internalNodes>
          <leafValues>
            -3.6439996957778931e-01 2.5982916355133057e-01</leafValues></_>
        <_>
          <internalNodes>
            0 -1 112 -403771393 -18171150 -1426228584 -1880098689
            -1510016272 -1075154330 2130605810 2134734435</internalNodes>
          <leafValues>
            -2.9650086164474487e-01 3.2831054925918579e-01</leafValues></_>
        <_>
          <internalNodes>
            0 -1 64 -591077516 -1087440604 89248284 552546576 -667932401
            -682000093 1346674872 2063465250</internalNodes>
          <leafValues>
            -4.1781103610992432e-01 2.4431629478931427e-01</leafValues></_>
        <_>
          <internalNodes>
            0 -1 140 -1417544016 -1367211110 1246954329 819893277
            -519578568 -35716990 1916912590 -855079</internalNodes>
          <leafValues>
            -4.7092118859291077e-01 2.2579920291900635e-01</leafValues></_>
        <_>
          <internalNodes>
            0 -1 27 -187761601 1368884056 5472475 1903056659 -1326187710
            -174522011 634368106 858454571</internalNodes>
          <leafValues>
            -3.7628525495529175e-01 2.8422522544860840e-01</leafValues></_>
        <_>
          <internalNodes>
            0 -1 18 -124907268 -591751354 275777310 1534148690
            -126394490 1518625039 -217189986 1933180409</internalNodes>
          <leafValues>
            -3.2219761610031128e-01 3.0371361970901489e-01</leafValues></_>
        <_>
          <internalNodes>
            0 -1 195 2008254709 406882353 1306120575 -1846814313
            -1930585863 -1700338624 891005931 1026712242</internalNodes>
          <leafValues>
            -3.1581717729568481e-01 3.1105136871337891e-01</leafValues></_>
        <_>
          <internalNodes>
            0 -1 66 -25784009 -74459676 -787807848 66589520 1881686311
            200213761 813754574 1441878318</internalNodes>
          <leafValues>
            -4.0903598070144653e-01 2.3737105727195740e-01</leafValues></_></weakClassifiers></_>
    <!-- stage 14 -->
    <_>
      <maxWeakCount>16</maxWeakCount>
      <stageThreshold>-9.5519274473190308e-01</stageThreshold>
      <weakClassifiers>
        <_>
          <internalNodes>
            0 -1 67 -86593 -5722440 1073737069 128384514 -805561937
            -1192313371 2143224767 1086845858</internalNodes>
          <leafValues>
            -2.8823530673980713e-01 3.9128631353378296e-01</leafValues></_>
        <_>
          <internalNodes>
            0 -1 136 1739517856 -1936815954 998573556 1002279423
            -232339237 -1145469302 869677980 2065477637</internalNodes>
          <leafValues>
            -6.6421294212341309e-01 1.5901887416839600e-01</leafValues></_>
        <_>
          <internalNodes>
            0 -1 124 1214303 -10518064 -419216893 -35826900 -1107193647
            -77128320 -216662192 -218193408</internalNodes>
          <leafValues>
            -3.7056234478950500e-01 2.6800850033760071e-01</leafValues></_>
        <_>
          <internalNodes>
            0 -1 34 -1088007209 -544282244 -1387611489 2009872242
            -384868199 -812056247 32059403 -18716770</internalNodes>
          <leafValues>
            -3.5677620768547058e-01 2.7737829089164734e-01</leafValues></_>
        <_>
          <internalNodes>
            0 -1 174 1308754088 -363003387 807589922 -1280360304
            -1635030019 -901046101 2064165499 -1413861622</internalNodes>
          <leafValues>
            -4.0665721893310547e-01 2.4864360690116882e-01</leafValues></_>
        <_>
          <internalNodes>
            0 -1 44 -8652801 523431870 1876957848 1065278430 1690421472
            802226136 -1417137340 -2097186</internalNodes>
          <leafValues>
            -2.1564988791942596e-01 4.6840098500251770e-01</leafValues></_>
        <_>
          <internalNodes>
            0 -1 15 -848949555 -607155332 -2000263057 -315880956
            -211614296 -610458946 2030807739 1935114087</internalNodes>
          <leafValues>
            -3.1971499323844910e-01 3.0807849764823914e-01</leafValues></_>
        <_>
          <internalNodes>
            0 -1 74 -767568673 -108284408 1346322000 -715716643
            -738722613 1360134138 -814615597 -671088677</internalNodes>
          <leafValues>
            -1.8730440735816956e-01 5.4146724939346313e-01</leafValues></_>
        <_>
          <internalNodes>
            0 -1 145 -42510541 847099891 -269188695 -863633453 -20979851
            -537682115 -293785849 -860070317</internalNodes>
          <leafValues>
            -2.7384749054908752e-01 3.4586155414581299e-01</leafValues></_>
        <_>
          <internalNodes>
            0 -1 127 -497881180 -439008946 1816680472 66916352
            -191141245 391574062 1914797755 839725907</internalNodes>
          <leafValues>
            -4.5787122845649719e-01 1.9988328218460083e-01</leafValues></_>
        <_>
          <internalNodes>
            0 -1 198 -535433334 -1453999926 540565964 1976025111
            38141919 952189653 1060021930 891813395</internalNodes>
          <leafValues>
            -3.5050088167190552e-01 2.7946484088897705e-01</leafValues></_>
        <_>
          <internalNodes>
            0 -1 48 -78117174 -673771403 -1134248029 -13537737
            -369088319 -639754252 -61673734 -111264261</internalNodes>
          <leafValues>
            -2.1680110692977905e-01 4.3882724642753601e-01</leafValues></_>
        <_>
          <internalNodes>
            0 -1 125 -1363427525 -784748704 2130706431 -144704035
            -4256010 -537534593 2134285240 -22937605</internalNodes>
          <leafValues>
            -2.2994983196258545e-01 4.1120758652687073e-01</leafValues></_>
        <_>
          <internalNodes>
            0 -1 76 1562447278 -1323707401 16811189 53668086 -250604866
            -2100600157 1125183544 679627194</internalNodes>
          <leafValues>
            -5.5823689699172974e-01 1.8699966371059418e-01</leafValues></_>
        <_>
          <internalNodes>
            0 -1 42 -1841106173 1940116612 18555039 1442177358
            -1559428135 -108159296 1082985146 501216202</internalNodes>
          <leafValues>
            -3.0454775691032410e-01 3.0696040391921997e-01</leafValues></_>
        <_>
          <internalNodes>
            0 -1 165 558558469 -920606185 1124431356 1359432214
            1440946440 -375596818 306592214 1684500450</internalNodes>
          <leafValues>
            -4.1739076375961304e-01 2.2515507042407990e-01</leafValues></_></weakClassifiers></_>
    <!-- stage 15 -->
    <_>
      <maxWeakCount>17</maxWeakCount>
      <stageThreshold>-1.1516066789627075e+00</stageThreshold>
      <weakClassifiers>
        <_>
          <internalNodes>
            0 -1 77 -2002194572 1000478467 -1893755644 17512968
            -13428223 2051220234 -133850624 2058332682</internalNodes>
          <leafValues>
            -4.4305464625358582e-01 3.2969546318054199e-01</leafValues></_>
        <_>
          <internalNodes>
            0 -1 166 2060369644 1978045226 -240082740 -1041641984
            -114624515 -74544583 -354894885 -72565975</internalNodes>
          <leafValues>
            -4.0913453698158264e-01 2.3248380422592163e-01</leafValues></_>
        <_>
          <internalNodes>
            0 -1 59 -281053867 -705839155 -556926599 -655641222
            -1084428891 -1495337126 2136969101 -1342504979</internalNodes>
          <leafValues>
            -2.7840408682823181e-01 3.3865004777908325e-01</leafValues></_>
        <_>
          <internalNodes>
            0 -1 80 -8996 -134398404 -25231361 -1338081798 -17106952
            -294101194 -26828802 -1438998546</internalNodes>
          <leafValues>
            -2.6946517825126648e-01 3.6478605866432190e-01</leafValues></_>
        <_>
          <internalNodes>
            0 -1 97 1442824742 -135309906 -402659339 1576916861
            511651327 -2220290 2146768191 -1334326281</internalNodes>
          <leafValues>
            -2.5285738706588745e-01 3.5327413678169250e-01</leafValues></_>
        <_>
          <internalNodes>
            0 -1 153 -357879827 -18169858 -4194305 -16908289 -16777217
            -1090519041 -1427112193 -777287762</internalNodes>
          <leafValues>
            -2.5688749551773071e-01 3.6758369207382202e-01</leafValues></_>
        <_>
          <internalNodes>
            0 -1 132 -1198093864 -1299569728 -1575231457 -395188952
            -503132785 -1475624829 -670084723 -4476669</internalNodes>
          <leafValues>
            -4.6449971199035645e-01 1.9982287287712097e-01</leafValues></_>
        <_>
          <internalNodes>
            0 -1 43 -204741745 269185858 -2138011000 826800005
            1934708096 307890298 1464103558 1729624911</internalNodes>
          <leafValues>
            -3.2929593324661255e-01 3.0156037211418152e-01</leafValues></_>
        <_>
          <internalNodes>
            0 -1 9 -1604052233 -25413539 -96538893 740556850 -142123916
            -86550817 -117673033 -218159905</internalNodes>
          <leafValues>
            -2.6289528608322144e-01 3.6149641871452332e-01</leafValues></_>
        <_>
          <internalNodes>
            0 -1 171 -1372604947 671679681 -1052027897 2106815067
            -902846216 1657426313 -1274959451 1139223801</internalNodes>
          <leafValues>
            -3.4820088744163513e-01 2.6683995127677917e-01</leafValues></_>
        <_>
          <internalNodes>
            0 -1 185 -377244195 1486368952 318865815 958465674 134594520
            421045630 1701309114 1968655199</internalNodes>
          <leafValues>
            -3.4595057368278503e-01 2.8559231758117676e-01</leafValues></_>
        <_>
          <internalNodes>
            0 -1 177 1067872743 -419464246 -59441597 -25366718 -66306
            -12812899 -587403713 -7097725</internalNodes>
          <leafValues>
            -2.0662169158458710e-01 4.1929566860198975e-01</leafValues></_>
        <_>
          <internalNodes>
            0 -1 144 -195563706 283586764 319810287 1372390767
            -712656372 952763743 -897782328 4685095</internalNodes>
          <leafValues>
            -4.4945123791694641e-01 2.0738339424133301e-01</leafValues></_>
        <_>
          <internalNodes>
            0 -1 39 -75557802 1891635232 563303759 1352866340
            -1987475249 514998471 -1995750911 816509612</internalNodes>
          <leafValues>
            -4.2744725942611694e-01 2.3235447704792023e-01</leafValues></_>
        <_>
          <internalNodes>
            0 -1 56 -503453777 -171843844 779956075 523632416
            -2079345172 -51591955 1693822559 -201850921</internalNodes>
          <leafValues>
            -2.4295884370803833e-01 4.0737012028694153e-01</leafValues></_>
        <_>
          <internalNodes>
            0 -1 129 1664552596 -2014400028 1124491879 766655222
            1221362146 1814594733 471474123 1319568786</internalNodes>
          <leafValues>
            -4.6504652500152588e-01 2.1182975172996521e-01</leafValues></_>
        <_>
          <internalNodes>
            0 -1 143 286221099 -274135357 285285247 1726870719
            1351453066 -1477715809 1137054702 -260424750</internalNodes>
          <leafValues>
            -3.1177061796188354e-01 3.2366988062858582e-01</leafValues></_></weakClassifiers></_>
    <!-- stage 16 -->
    <_>
      <maxWeakCount>16</maxWeakCount>
      <stageThreshold>-1.0386584997177124e+00</stageThreshold>
      <weakClassifiers>
        <_>
          <internalNodes>
            0 -1 152 712943280 -1374690483 598199675 90925477 -46731105
            1977258247 1057651439 -1141999612</internalNodes>
          <leafValues>
            -5.5038762092590332e-01 3.0452060699462891e-01</leafValues></_>
        <_>
          <internalNodes>
            0 -1 10 -1360120865 -25231557 -940737130 -9498425 -588885
            -844152317 -11890961 -113869</internalNodes>
          <leafValues>
            -3.0094525218009949e-01 3.2911729812622070e-01</leafValues></_>
        <_>
          <internalNodes>
            0 -1 104 942364369 -1382162091 -1837024743 -860080767
            -1308428092 1017286785 2048555748 2058009424</internalNodes>
          <leafValues>
            -5.0731295347213745e-01 2.1355046331882477e-01</leafValues></_>
        <_>
          <internalNodes>
            0 -1 25 1927152925 285221695 1169905660 927030899 -69328688
            2013790874 72527096 17611171</internalNodes>
          <leafValues>
            -4.6032422780990601e-01 1.7196583747863770e-01</leafValues></_>
        <_>
          <internalNodes>
            0 -1 163 1967126407 5424518 -805404834 1502750671 1067392895
            -135305 -1074471044 -100669502</internalNodes>
          <leafValues>
            -2.4338871240615845e-01 3.6688503623008728e-01</leafValues></_>
        <_>
          <internalNodes>
            0 -1 172 -212160594 2022913883 -788293602 822127138
            2077223080 -340736465 575467150 1439135395</internalNodes>
          <leafValues>
            -3.7294849753379822e-01 2.3869794607162476e-01</leafValues></_>
        <_>
          <internalNodes>
            0 -1 164 -894551809 -357912853 -2709709 -14057481 -168296713
            -168100353 -9109505 -762079983</internalNodes>
          <leafValues>
            -2.6714009046554565e-01 3.3826249837875366e-01</leafValues></_>
        <_>
          <internalNodes>
            0 -1 151 -1170477061 -1298421074 -1080379817 -1299517662
            -180775 -335594051 -1082262147 -1141923619</internalNodes>
          <leafValues>
            -2.1824555099010468e-01 4.1739302873611450e-01</leafValues></_>
        <_>
          <internalNodes>
            0 -1 109 -1683913949 -1346286888 -1056602635 -637537899
            -1693507109 1337493531 -121013864 -219110622</internalNodes>
          <leafValues>
            -3.2022365927696228e-01 2.8693872690200806e-01</leafValues></_>
        <_>
          <internalNodes>
            0 -1 182 -366741872 270574566 604013482 -138171693 959319176
            -1347778969 575541272 2079547939</internalNodes>
          <leafValues>
            -4.4724634289741516e-01 2.0835813879966736e-01</leafValues></_>
        <_>
          <internalNodes>
            0 -1 91 -541400146 -1610914867 1227030839 1466114304
            264897160 -880078823 -1198569027 1338466594</internalNodes>
          <leafValues>
            -3.6595624685287476e-01 2.5524613261222839e-01</leafValues></_>
        <_>
          <internalNodes>
            0 -1 96 344481692 1750651009 1191396109 2035996913
            -594033925 -1311502123 -591287558 1169018550</internalNodes>
          <leafValues>
            -3.2592225074768066e-01 2.9060566425323486e-01</leafValues></_>
        <_>
          <internalNodes>
            0 -1 158 -915427607 -358563926 -268965189 -52392542
            -852459781 805306174 -41959459 -405825557</internalNodes>
          <leafValues>
            -3.0432561039924622e-01 3.3170914649963379e-01</leafValues></_>
        <_>
          <internalNodes>
            0 -1 61 -622276417 -771815701 452744287 1892293823
            -154312965 -162087173 2147380504 32132043</internalNodes>
          <leafValues>
            -2.9335856437683105e-01 3.3495697379112244e-01</leafValues></_>
        <_>
          <internalNodes>
            0 -1 13 -774635649 -1677996700 -1644451210 -1102398856
            1579536191 830831852 1856815014 -1162559694</internalNodes>
          <leafValues>
            -2.7335736155509949e-01 3.4840142726898193e-01</leafValues></_>
        <_>
          <internalNodes>
            0 -1 88 -766586155 273551645 1100550557 -491122163
            -350021624 -1164898256 -721351784 -548402792</internalNodes>
          <leafValues>
            -4.0029370784759521e-01 2.3767578601837158e-01</leafValues></_></weakClassifiers></_>
    <!-- stage 17 -->
    <_>
      <maxWeakCount>18</maxWeakCount>
      <stageThreshold>-8.3096492290496826e-01</stageThreshold>
      <weakClassifiers>
        <_>
          <internalNodes>
            0 -1 32 -347111938 2002720063 166725992 340270668
            -2050143344 252117130 431404879 1916852098</internalNodes>
          <leafValues>
            -4.1666665673255920e-01 3.3119657635688782e-01</leafValues></_>
        <_>
          <internalNodes>
            0 -1 137 -951639520 1397809246 1895903551 1603654367
            805437479 194183314 -1143260182 -1416777284</internalNodes>
          <leafValues>
            -4.2169454693794250e-01 2.0680455863475800e-01</leafValues></_>
        <_>
          <internalNodes>
            0 -1 134 -1830942832 316122187 -1826942653 872919407
            -1157256941 -75280381 -1180654845 2127045304</internalNodes>
          <leafValues>
            -5.0899994373321533e-01 1.9319485127925873e-01</leafValues></_>
        <_>
          <internalNodes>
            0 -1 117 1919820111 2069758482 319750483 -1690492719
            1915053063 -768835581 598114447 -178419725</internalNodes>
          <leafValues>
            -3.2627218961715698e-01 2.6131820678710938e-01</leafValues></_>
        <_>
          <internalNodes>
            0 -1 84 -75563016 -288715557 1628131328 -425555941
            2084665416 1266156179 -1441008894 2063729551</internalNodes>
          <leafValues>
            -3.7825936079025269e-01 2.3072975873947144e-01</leafValues></_>
        <_>
          <internalNodes>
            0 -1 17 1583340191 2099616303 821034623 2113928045
            -604146870 -1149567393 -210029940 2016996239</internalNodes>
          <leafValues>
            -2.6619744300842285e-01 3.2705146074295044e-01</leafValues></_>
        <_>
          <internalNodes>
            0 -1 157 1273929471 784314366 -1381712339 -1346375938
            -535115 -285214729 -655618 -1083450529</internalNodes>
          <leafValues>
            -2.0215758681297302e-01 4.5890188217163086e-01</leafValues></_>
        <_>
          <internalNodes>
            0 -1 115 2112857663 -41713718 2147377147 -69611683
            1568542207 -1073758737 -8513954 -17334281</internalNodes>
          <leafValues>
            -2.2482931613922119e-01 4.2616418004035950e-01</leafValues></_>
        <_>
          <internalNodes>
            0 -1 71 -72683326 -353912792 -1091784077 -842279452
            414840722 -1191332631 2006897831 -252990041</internalNodes>
          <leafValues>
            -2.1326044201850891e-01 4.0842902660369873e-01</leafValues></_>
        <_>
          <internalNodes>
            0 -1 100 -1740825583 -1780876563 -425589483 -1865986034
            -297054030 1941047553 1779066780 -433710426</internalNodes>
          <leafValues>
            -3.5307294130325317e-01 2.4619594216346741e-01</leafValues></_>
        <_>
          <internalNodes>
            0 -1 199 -73679591 423555770 -1744857551 -618742945
            -300159076 -1464930404 -1967421894 -1644451909</internalNodes>
          <leafValues>
            -2.1123380959033966e-01 4.2576855421066284e-01</leafValues></_>
        <_>
          <internalNodes>
            0 -1 121 1610293163 -22036788 805248959 -286261507
            -151775761 -268505090 -268435714 -1342177283</internalNodes>
          <leafValues>
            -2.5757113099098206e-01 3.6158856749534607e-01</leafValues></_>
        <_>
          <internalNodes>
            0 -1 175 -335922957 878444753 545294915 -2070110035
            -283084408 998408328 25738259 -283630950</internalNodes>
          <leafValues>
            -3.1146970391273499e-01 3.0853813886642456e-01</leafValues></_>
        <_>
          <internalNodes>
            0 -1 1 -521684225 -1560283741 -1893847089 -817137066
            1934238975 -1241839350 -819202008 -315235487</internalNodes>
          <leafValues>
            -3.1778091192245483e-01 2.9280567169189453e-01</leafValues></_>
        <_>
          <internalNodes>
            0 -1 57 72869550 205958382 -779264211 1429553698 1279297948
            1166033200 -1282983681 1728051778</internalNodes>
          <leafValues>
            -3.8903647661209106e-01 2.4060241878032684e-01</leafValues></_>
        <_>
          <internalNodes>
            0 -1 72 -1783958270 1628261884 1709924978 -263606675
            363581618 254656406 115102107 -1060112929</internalNodes>
          <leafValues>
            -2.6562839746475220e-01 3.4444600343704224e-01</leafValues></_>
        <_>
          <internalNodes>
            0 -1 58 -1005257862 -1148605238 -2004015282 1939316049
            1363424790 24205314 -104614088 1187742450</internalNodes>
          <leafValues>
            -3.5402324795722961e-01 2.5174126029014587e-01</leafValues></_>
        <_>
          <internalNodes>
            0 -1 14 1996366382 936067778 -135754578 -1995701122
            1375802864 -106844112 1453363610 639962758</internalNodes>
          <leafValues>
            -4.1799774765968323e-01 2.2530922293663025e-01</leafValues></_></weakClassifiers></_>
    <!-- stage 18 -->
    <_>
      <maxWeakCount>17</maxWeakCount>
      <stageThreshold>-9.2734348773956299e-01</stageThreshold>
      <weakClassifiers>
        <_>
          <internalNodes>
            0 -1 45 -2138143506 -744525537 862305113 1397161808
            -1050869218 1241208852 -373196148 -785726920</internalNodes>
          <leafValues>
            -3.9220464229583740e-01 3.3177402615547180e-01</leafValues></_>
        <_>
          <internalNodes>
            0 -1 95 1473642342 -547778039 822154204 -1116428328
            -645297172 1671805537 2092281468 1895147238</internalNodes>
          <leafValues>
            -4.0668696165084839e-01 2.1032157540321350e-01</leafValues></_>
        <_>
          <internalNodes>
            0 -1 156 702240629 732942595 -1190098503 -1527274533
            -1289244661 -1338896373 -1192636286 -544451455</internalNodes>
          <leafValues>
            -4.1415423154830933e-01 2.2723500430583954e-01</leafValues></_>
        <_>
          <internalNodes>
            0 -1 94 1674298263 2132730077 1129167647 1035239764
            -771042572 -1087503616 1132657651 -92450659</internalNodes>
          <leafValues>
            -2.8636118769645691e-01 2.9927301406860352e-01</leafValues></_>
        <_>
          <internalNodes>
            0 -1 124 -1608995106 -406869572 1170970899 -1411391012
            -503111528 -698760831 -1604611808 -1867145196</internalNodes>
          <leafValues>
            -5.8428531885147095e-01 1.4375858008861542e-01</leafValues></_>
        <_>
          <internalNodes>
            0 -1 170 -1006911604 -1475722295 -1686072856 556802859
            -20316532 -1446804679 -59471346 1894085462</internalNodes>
          <leafValues>
            -4.0804731845855713e-01 2.1364541351795197e-01</leafValues></_>
        <_>
          <internalNodes>
            0 -1 35 1465186871 419531332 -1795049218 2144200878
            291151701 -1479316660 8932169 2060283886</internalNodes>
          <leafValues>
            -3.7589848041534424e-01 2.2573168575763702e-01</leafValues></_>
        <_>
          <internalNodes>
            0 -1 147 -94962080 -1360654034 402270262 1216364746
            600312570 174751778 185305423 1661700318</internalNodes>
          <leafValues>
            -4.1093292832374573e-01 2.3624098300933838e-01</leafValues></_>
        <_>
          <internalNodes>
            0 -1 131 -50872413 -1649955289 1202715323 384817831
            -1091083087 -1614975041 88602802 -1750686138</internalNodes>
          <leafValues>
            -2.7593171596527100e-01 3.3598512411117554e-01</leafValues></_>
        <_>
          <internalNodes>
            0 -1 51 -721423301 -1146290177 -1459687319 1676344059
            -655427203 -139462665 1493083330 -744035461</internalNodes>
          <leafValues>
            -2.6269254088401794e-01 3.3644077181816101e-01</leafValues></_>
        <_>
          <internalNodes>
            0 -1 194 368556432 -1111827553 -1649034459 331857662
            -1979018620 -1188252839 1768890060 66627274</internalNodes>
          <leafValues>
            -3.1845042109489441e-01 2.7427312731742859e-01</leafValues></_>
        <_>
          <internalNodes>
            0 -1 114 -207468838 -806376504 -134234765 -20903 -1044397325
            1202634852 -151538010 -67713578</internalNodes>
          <leafValues>
            -2.5640076398849487e-01 3.3547183871269226e-01</leafValues></_>
        <_>
          <internalNodes>
            0 -1 4 820975391 -1610686010 -302125185 -1292585749
            1672746247 -342925979 -1378058403 -1113666563</internalNodes>
          <leafValues>
            -2.3837128281593323e-01 3.5723111033439636e-01</leafValues></_>
        <_>
          <internalNodes>
            0 -1 181 2013243135 1370455846 -1598363488 -1984827457
            -17490274 1400916928 -155255301 1908374987</internalNodes>
          <leafValues>
            -2.7938944101333618e-01 3.1175416707992554e-01</leafValues></_>
        <_>
          <internalNodes>
            0 -1 173 1780742064 58765973 75506880 1329613010 697255124
            1233863555 691740678 1808203777</internalNodes>
          <leafValues>
            -5.0954836606979370e-01 1.7190118134021759e-01</leafValues></_>
        <_>
          <internalNodes>
            0 -1 160 2136601919 347078577 -1951519468 -1497107456
            -25192908 2010912180 -310426010 -34101900</internalNodes>
          <leafValues>
            -2.7264031767845154e-01 3.1860521435737610e-01</leafValues></_>
        <_>
          <internalNodes>
            0 -1 197 -530664911 -1384420302 1048018683 2146330259
            1953834445 -1172668990 -1395335988 2042347411</internalNodes>
          <leafValues>
            -2.5358933210372925e-01 3.4661075472831726e-01</leafValues></_></weakClassifiers></_>
    <!-- stage 19 -->
    <_>
      <maxWeakCount>17</maxWeakCount>
      <stageThreshold>-8.5640847682952881e-01</stageThreshold>
      <weakClassifiers>
        <_>
          <internalNodes>
            0 -1 107 414227953 -1446644864 -1857843197 1240846620
            -1178070938 2063794193 1933824128 -259993468</internalNodes>
          <leafValues>
            -3.5290664434432983e-01 3.2763326168060303e-01</leafValues></_>
        <_>
          <internalNodes>
            0 -1 65 -606142481 -235540483 -272629762 -4210691
            -1479250179 1923153021 -240975873 -8744534</internalNodes>
          <leafValues>
            -2.5888532400131226e-01 3.2261100411415100e-01</leafValues></_>
        <_>
          <internalNodes>
            0 -1 130 1537195871 -2035388457 2012180303 -1913791009
            -289721964 -1375995466 652037461 -1275074577</internalNodes>
          <leafValues>
            -2.6892426609992981e-01 3.1919413805007935e-01</leafValues></_>
        <_>
          <internalNodes>
            0 -1 30 1552861382 1361578110 1523748683 1325549936
            1385773721 -1187835776 1342406783 3324131</internalNodes>
          <leafValues>
            -5.3216522932052612e-01 1.6534295678138733e-01</leafValues></_>
        <_>
          <internalNodes>
            0 -1 108 1615282665 1363607904 158980600 -963955600
            1915847482 811794577 -1157973766 1597079351</internalNodes>
          <leafValues>
            -3.8065764307975769e-01 2.3782537877559662e-01</leafValues></_>
        <_>
          <internalNodes>
            0 -1 193 -259792122 -228615766 297803781 912416844 -77950952
            180420779 1787724526 675465896</internalNodes>
          <leafValues>
            -4.3408218026161194e-01 1.9143527746200562e-01</leafValues></_>
        <_>
          <internalNodes>
            0 -1 12 1695469183 -8994896 745064669 1999514238 -517593347
            -698500 2040422207 -9096638</internalNodes>
          <leafValues>
            -2.2429727017879486e-01 3.7681245803833008e-01</leafValues></_>
        <_>
          <internalNodes>
            0 -1 154 -270077965 -593727890 2145909745 800030460
            -536887297 1602224127 -10551297 -8931457</internalNodes>
          <leafValues>
            -2.2595444321632385e-01 4.1172987222671509e-01</leafValues></_>
        <_>
          <internalNodes>
            0 -1 179 -1612715318 -1359492142 -1895891297 -176689471
            -1075850018 -136347660 1045888639 -69225733</internalNodes>
          <leafValues>
            -1.1641073971986771e-01 5.9323447942733765e-01</leafValues></_>
        <_>
          <internalNodes>
            0 -1 200 1886079044 -221445006 -802127267 1081034311
            -1456826614 -1924710128 -92097974 576857890</internalNodes>
          <leafValues>
            -3.9965990185737610e-01 2.1102483570575714e-01</leafValues></_>
        <_>
          <internalNodes>
            0 -1 119 -1935208740 1856221303 -377227940 -909921649
            -939435029 -1019106816 432757785 -28582733</internalNodes>
          <leafValues>
            -4.6284875273704529e-01 1.9529527425765991e-01</leafValues></_>
        <_>
          <internalNodes>
            0 -1 189 -554748036 694171350 -1886508520 -305605200
            -673622404 514342864 -139119141 -305163314</internalNodes>
          <leafValues>
            -2.6329353451728821e-01 3.3229881525039673e-01</leafValues></_>
        <_>
          <internalNodes>
            0 -1 21 1843086675 -1174602122 -8618819 -67114386 1853361629
            -1087983770 922569373 -922763522</internalNodes>
          <leafValues>
            -2.7121815085411072e-01 3.2284593582153320e-01</leafValues></_>
        <_>
          <internalNodes>
            0 -1 90 -1685463766 -1746816408 1056930655 1534079777
            -1274100228 1408693757 957253071 -173677783</internalNodes>
          <leafValues>
            -2.5072357058525085e-01 3.2893252372741699e-01</leafValues></_>
        <_>
          <internalNodes>
            0 -1 41 396055679 931901952 -1571907241 826144360 1900644725
            -1835550177 20481 537869214</internalNodes>
          <leafValues>
            -3.6934521794319153e-01 2.3339179158210754e-01</leafValues></_>
        <_>
          <internalNodes>
            0 -1 103 -2129962230 1082149059 25395752 5210112 437653774
            1183792 -1814025222 367896685</internalNodes>
          <leafValues>
            -5.9969657659530640e-01 1.3884924352169037e-01</leafValues></_>
        <_>
          <internalNodes>
            0 -1 191 949336944 1368500608 -2046422224 1631851090
            457443582 427967347 24838796 1430721306</internalNodes>
          <leafValues>
            -4.6869507431983948e-01 1.8335247039794922e-01</leafValues></_></weakClassifiers></_></stages>
  <features>
    <_>
      <rect>
        1 14 12 4</rect></_>
    <_>
      <rect>
        1 15 11 4</rect></_>
    <_>
      <rect>
        2 11 8 6</rect></_>
    <_>
      <rect>
        4 15 14 10</rect></_>
    <_>
      <rect>
        4 18 7 7</rect></_>
    <_>
      <rect>
        5 17 9 4</rect></_>
    <_>
      <rect>
        5 22 14 7</rect></_>
    <_>
      <rect>
        6 9 12 10</rect></_>
    <_>
      <rect>
        6 9 14 12</rect></_>
    <_>
      <rect>
        6 20 5 4</rect></_>
    <_>
      <rect>
        7 15 8 6</rect></_>
    <_>
      <rect>
        7 15 11 6</rect></_>
    <_>
      <rect>
        7 20 4 2</rect></_>
    <_>
      <rect>
        7 24 10 6</rect></_>
    <_>
      <rect>
        9 17 3 4</rect></_>
    <_>
      <rect>
        9 20 3 2</rect></_>
    <_>
      <rect>
        9 21 8 2</rect></_>
    <_>
      <rect>
        10 14 5 4</rect></_>
    <_>
      <rect>
        10 17 4 3</rect></_>
    <_>
      <rect>
        11 16 10 6</rect></_>
    <_>
      <rect>
        11 22 4 2</rect></_>
    <_>
      <rect>
        11 23 5 5</rect></_>
    <_>
      <rect>
        12 18 7 4</rect></_>
    <_>
      <rect>
        12 19 4 2</rect></_>
    <_>
      <rect>
        12 19 9 3</rect></_>
    <_>
      <rect>
        12 20 4 3</rect></_>
    <_>
      <rect>
        13 14 10 8</rect></_>
    <_>
      <rect>
        13 16 4 4</rect></_>
    <_>
      <rect>
        13 16 8 5</rect></_>
    <_>
      <rect>
        13 20 3 2</rect></_>
    <_>
      <rect>
        13 21 6 2</rect></_>
    <_>
      <rect>
        13 22 3 3</rect></_>
    <_>
      <rect>
        14 20 6 4</rect></_>
    <_>
      <rect>
        14 20 7 3</rect></_>
    <_>
      <rect>
        14 21 5 3</rect></_>
    <_>
      <rect>
        14 23 3 3</rect></_>
    <_>
      <rect>
        15 20 7 2</rect></_>
    <_>
      <rect>
        15 21 3 2</rect></_>
    <_>
      <rect>
        15 21 5 2</rect></_>
    <_>
      <rect>
        16 20 3 4</rect></_>
    <_>
      <rect>
        16 21 2 2</rect></_>
    <_>
      <rect>
        16 22 2 3</rect></_>
    <_>
      <rect>
        16 22 2 4</rect></_>
    <_>
      <rect>
        16 26 2 2</rect></_>
    <_>
      <rect>
        16 28 3 4</rect></_>
    <_>
      <rect>
        17 17 4 3</rect></_>
    <_>
      <rect>
        17 17 5 4</rect></_>
    <_>
      <rect>
        17 17 10 4</rect></_>
    <_>
      <rect>
        17 20 1 1</rect></_>
    <_>
      <rect>
        17 20 5 1</rect></_>
    <_>
      <rect>
        17 21 2 4</rect></_>
    <_>
      <rect>
        17 21 3 1</rect></_>
    <_>
      <rect>
        17 21 5 1</rect></_>
    <_>
      <rect>
        17 24 3 2</rect></_>
    <_>
      <rect>
        17 24 4 1</rect></_>
    <_>
      <rect>
        17 24 4 3</rect></_>
    <_>
      <rect>
        17 25 3 2</rect></_>
    <_>
      <rect>
        17 25 4 3</rect></_>
    <_>
      <rect>
        17 27 2 2</rect></_>
    <_>
      <rect>
        18 10 10 11</rect></_>
    <_>
      <rect>
        18 15 9 6</rect></_>
    <_>
      <rect>
        18 19 2 1</rect></_>
    <_>
      <rect>
        18 19 3 3</rect></_>
    <_>
      <rect>
        18 20 2 2</rect></_>
    <_>
      <rect>
        18 21 2 2</rect></_>
    <_>
      <rect>
        18 21 4 2</rect></_>
    <_>
      <rect>
        18 22 2 2</rect></_>
    <_>
      <rect>
        18 22 2 3</rect></_>
    <_>
      <rect>
        18 22 4 1</rect></_>
    <_>
      <rect>
        18 23 2 2</rect></_>
    <_>
      <rect>
        18 23 4 2</rect></_>
    <_>
      <rect>
        18 24 1 1</rect></_>
    <_>
      <rect>
        18 25 1 1</rect></_>
    <_>
      <rect>
        18 25 2 1</rect></_>
    <_>
      <rect>
        18 26 1 1</rect></_>
    <_>
      <rect>
        19 18 4 3</rect></_>
    <_>
      <rect>
        19 19 4 2</rect></_>
    <_>
      <rect>
        19 20 2 2</rect></_>
    <_>
      <rect>
        19 20 4 1</rect></_>
    <_>
      <rect>
        19 20 6 3</rect></_>
    <_>
      <rect>
        19 21 1 1</rect></_>
    <_>
      <rect>
        19 21 2 2</rect></_>
    <_>
      <rect>
        19 21 2 3</rect></_>
    <_>
      <rect>
        19 21 3 3</rect></_>
    <_>
      <rect>
        19 21 6 1</rect></_>
    <_>
      <rect>
        19 21 6 3</rect></_>
    <_>
      <rect>
        19 22 1 1</rect></_>
    <_>
      <rect>
        19 22 1 2</rect></_>
    <_>
      <rect>
        19 22 2 1</rect></_>
    <_>
      <rect>
        19 22 3 1</rect></_>
    <_>
      <rect>
        19 23 1 1</rect></_>
    <_>
      <rect>
        19 23 1 2</rect></_>
    <_>
      <rect>
        19 23 8 6</rect></_>
    <_>
      <rect>
        19 24 1 1</rect></_>
    <_>
      <rect>
        19 24 3 1</rect></_>
    <_>
      <rect>
        19 24 4 3</rect></_>
    <_>
      <rect>
        19 24 5 2</rect></_>
    <_>
      <rect>
        19 25 2 1</rect></_>
    <_>
      <rect>
        19 25 4 2</rect></_>
    <_>
      <rect>
        20 19 3 2</rect></_>
    <_>
      <rect>
        20 21 1 1</rect></_>
    <_>
      <rect>
        20 21 2 1</rect></_>
    <_>
      <rect>
        20 21 3 2</rect></_>
    <_>
      <rect>
        20 21 4 2</rect></_>
    <_>
      <rect>
        20 22 1 1</rect></_>
    <_>
      <rect>
        20 22 2 1</rect></_>
    <_>
      <rect>
        20 22 2 2</rect></_>
    <_>
      <rect>
        20 23 1 1</rect></_>
    <_>
      <rect>
        20 23 3 1</rect></_>
    <_>
      <rect>
        20 24 1 1</rect></_>
    <_>
      <rect>
        20 24 2 1</rect></_>
    <_>
      <rect>
        20 24 2 2</rect></_>
    <_>
      <rect>
        20 24 3 1</rect></_>
    <_>
      <rect>
        20 24 3 2</rect></_>
    <_>
      <rect>
        20 25 1 1</rect></_>
    <_>
      <rect>
        20 25 2 1</rect></_>
    <_>
      <rect>
        21 20 2 2</rect></_>
    <_>
      <rect>
        21 20 2 3</rect></_>
    <_>
      <rect>
        21 21 1 1</rect></_>
    <_>
      <rect>
        21 21 2 1</rect></_>
    <_>
      <rect>
        21 22 1 1</rect></_>
    <_>
      <rect>
        21 22 2 1</rect></_>
    <_>
      <rect>
        21 22 2 2</rect></_>
    <_>
      <rect>
        21 22 3 1</rect></_>
    <_>
      <rect>
        21 23 1 1</rect></_>
    <_>
      <rect>
        21 24 1 1</rect></_>
    <_>
      <rect>
        21 24 2 1</rect></_>
    <_>
      <rect>
        21 26 2 1</rect></_>
    <_>
      <rect>
        22 17 4 4</rect></_>
    <_>
      <rect>
        22 17 5 4</rect></_>
    <_>
      <rect>
        22 18 8 6</rect></_>
    <_>
      <rect>
        22 20 2 1</rect></_>
    <_>
      <rect>
        22 21 1 1</rect></_>
    <_>
      <rect>
        22 21 2 1</rect></_>
    <_>
      <rect>
        22 22 1 1</rect></_>
    <_>
      <rect>
        22 22 1 2</rect></_>
    <_>
      <rect>
        22 22 2 1</rect></_>
    <_>
      <rect>
        22 22 2 2</rect></_>
    <_>
      <rect>
        22 23 1 1</rect></_>
    <_>
      <rect>
        22 23 2 1</rect></_>
    <_>
      <rect>
        22 24 1 1</rect></_>
    <_>
      <rect>
        22 24 2 1</rect></_>
    <_>
      <rect>
        22 24 2 2</rect></_>
    <_>
      <rect>
        22 25 1 1</rect></_>
    <_>
      <rect>
        22 25 3 2</rect></_>
    <_>
      <rect>
        23 13 8 5</rect></_>
    <_>
      <rect>
        23 20 2 2</rect></_>
    <_>
      <rect>
        23 20 3 2</rect></_>
    <_>
      <rect>
        23 21 1 1</rect></_>
    <_>
      <rect>
        23 21 1 2</rect></_>
    <_>
      <rect>
        23 21 2 1</rect></_>
    <_>
      <rect>
        23 21 3 1</rect></_>
    <_>
      <rect>
        23 22 1 1</rect></_>
    <_>
      <rect>
        23 22 1 2</rect></_>
    <_>
      <rect>
        23 22 2 1</rect></_>
    <_>
      <rect>
        23 22 3 1</rect></_>
    <_>
      <rect>
        23 23 1 1</rect></_>
    <_>
      <rect>
        23 23 2 1</rect></_>
    <_>
      <rect>
        23 24 1 1</rect></_>
    <_>
      <rect>
        23 25 5 5</rect></_>
    <_>
      <rect>
        23 26 5 5</rect></_>
    <_>
      <rect>
        24 20 4 2</rect></_>
    <_>
      <rect>
        24 22 1 1</rect></_>
    <_>
      <rect>
        24 22 2 2</rect></_>
    <_>
      <rect>
        24 23 1 1</rect></_>
    <_>
      <rect>
        24 23 3 3</rect></_>
    <_>
      <rect>
        24 24 1 1</rect></_>
    <_>
      <rect>
        24 24 2 1</rect></_>
    <_>
      <rect>
        24 25 1 1</rect></_>
    <_>
      <rect>
        24 25 3 3</rect></_>
    <_>
      <rect>
        25 20 2 4</rect></_>
    <_>
      <rect>
        25 21 1 1</rect></_>
    <_>
      <rect>
        25 21 2 4</rect></_>
    <_>
      <rect>
        25 21 3 2</rect></_>
    <_>
      <rect>
        25 22 1 1</rect></_>
    <_>
      <rect>
        25 22 2 1</rect></_>
    <_>
      <rect>
        25 22 2 3</rect></_>
    <_>
      <rect>
        25 23 1 1</rect></_>
    <_>
      <rect>
        25 23 2 2</rect></_>
    <_>
      <rect>
        25 24 1 1</rect></_>
    <_>
      <rect>
        25 26 2 3</rect></_>
    <_>
      <rect>
        25 27 3 1</rect></_>
    <_>
      <rect>
        26 20 2 3</rect></_>
    <_>
      <rect>
        26 20 3 5</rect></_>
    <_>
      <rect>
        26 21 1 1</rect></_>
    <_>
      <rect>
        26 21 4 3</rect></_>
    <_>
      <rect>
        26 22 1 1</rect></_>
    <_>
      <rect>
        26 23 1 1</rect></_>
    <_>
      <rect>
        26 23 3 4</rect></_>
    <_>
      <rect>
        26 29 2 3</rect></_>
    <_>
      <rect>
        27 21 2 4</rect></_>
    <_>
      <rect>
        27 21 3 3</rect></_>
    <_>
      <rect>
        27 22 2 2</rect></_>
    <_>
      <rect>
        27 25 1 1</rect></_>
    <_>
      <rect>
        28 17 4 3</rect></_>
    <_>
      <rect>
        28 19 2 2</rect></_>
    <_>
      <rect>
        28 22 2 3</rect></_>
    <_>
      <rect>
        28 22 4 1</rect></_>
    <_>
      <rect>
        29 20 3 4</rect></_>
    <_>
      <rect>
        29 21 5 2</rect></_>
    <_>
      <rect>
        29 24 1 1</rect></_>
    <_>
      <rect>
        30 21 3 2</rect></_></features></cascade>
</opencv_storage>
