<?xml version="1.0"?>
<opencv_storage>
<cascade>
  <stageType>BOOST</stageType>
  <featureType>LBP</featureType>
  <height>48</height>
  <width>48</width>
  <stageParams>
    <boostType>GAB</boostType>
    <minHitRate>9.9500000476837158e-01</minHitRate>
    <maxFalseAlarm>5.0000000000000000e-01</maxFalseAlarm>
    <weightTrimRate>9.4999999999999996e-01</weightTrimRate>
    <maxDepth>1</maxDepth>
    <maxWeakCount>100</maxWeakCount></stageParams>
  <featureParams>
    <maxCatCount>256</maxCatCount>
    <featSize>1</featSize></featureParams>
  <stageNum>20</stageNum>
  <stages>
    <!-- stage 0 -->
    <_>
      <maxWeakCount>7</maxWeakCount>
      <stageThreshold>-8.1872361898422241e-01</stageThreshold>
      <weakClassifiers>
        <_>
          <internalNodes>
            0 -1 70 -38076724 -592648 -1174431170 2147280628 450670280
            -1073944376 -6 -151928</internalNodes>
          <leafValues>
            -3.4566074609756470e-01 6.8578642606735229e-01</leafValues></_>
        <_>
          <internalNodes>
            0 -1 149 -1808202736 -1644332489 -67108939 -147500
            -1266963803 -893405973 -773090256 -588893440</internalNodes>
          <leafValues>
            -5.0884991884231567e-01 4.7363394498825073e-01</leafValues></_>
        <_>
          <internalNodes>
            0 -1 247 2099724 973211206 -1098636489 -51099932 2145323711
            -12349 -1359101953 -255886529</internalNodes>
          <leafValues>
            -5.3070354461669922e-01 3.7030094861984253e-01</leafValues></_>
        <_>
          <internalNodes>
            0 -1 198 -1466424160 101614596 -621963306 -490765148
            -22133035 -387020142 -68539974 -1363669584</internalNodes>
          <leafValues>
            -6.0300737619400024e-01 2.9887983202934265e-01</leafValues></_>
        <_>
          <internalNodes>
            0 -1 84 -1128464418 891029340 -186852097 -68507742 941408255
            -456991063 81850351 835724979</internalNodes>
          <leafValues>
            -5.2884215116500854e-01 3.2371783256530762e-01</leafValues></_>
        <_>
          <internalNodes>
            0 -1 134 1745673441 -36837987 1188929791 -202904343
            -1739866881 -2146981891 -286015281 212813045</internalNodes>
          <leafValues>
            -4.8502391576766968e-01 3.3049255609512329e-01</leafValues></_>
        <_>
          <internalNodes>
            0 -1 185 2130706036 2047868638 -1631584261 -134218002
            1063204798 -1728905292 -541193 -185597970</internalNodes>
          <leafValues>
            -3.8571688532829285e-01 4.6851894259452820e-01</leafValues></_></weakClassifiers></_>
    <!-- stage 1 -->
    <_>
      <maxWeakCount>10</maxWeakCount>
      <stageThreshold>-8.1119197607040405e-01</stageThreshold>
      <weakClassifiers>
        <_>
          <internalNodes>
            0 -1 85 -1140851000 -611076 712286868 2113775856 -1410679830
            -1161888546 -1079071096 -1304</internalNodes>
          <leafValues>
            -3.0071124434471130e-01 5.6811833381652832e-01</leafValues></_>
        <_>
          <internalNodes>
            0 -1 79 -789197664 -572846079 -116014884 -33686035
            -224674389 -360447644 -1722996312 -671013500</internalNodes>
          <leafValues>
            -4.2158061265945435e-01 3.7760534882545471e-01</leafValues></_>
        <_>
          <internalNodes>
            0 -1 204 -262094137 -538587486 2129870807 -72267049
            1450836975 -941627921 -1347977217 -1430892749</internalNodes>
          <leafValues>
            -3.2388159632682800e-01 4.6467792987823486e-01</leafValues></_>
        <_>
          <internalNodes>
            0 -1 249 -623096612 -562134476 -590036770 1556795504
            -1144333682 276857550 -577847333 -1090565627</internalNodes>
          <leafValues>
            -4.1147929430007935e-01 3.5475024580955505e-01</leafValues></_>
        <_>
          <internalNodes>
            0 -1 206 -389310961 -1058061565 -394681217 -212125089
            -1006938209 -1353624661 -214998155 -1156631619</internalNodes>
          <leafValues>
            -3.8298887014389038e-01 3.7593138217926025e-01</leafValues></_>
        <_>
          <internalNodes>
            0 -1 69 -237711207 -100854307 1559741695 -42004077
            -899301201 31394523 -1174436642 1634681035</internalNodes>
          <leafValues>
            -3.2286944985389709e-01 4.3421480059623718e-01</leafValues></_>
        <_>
          <internalNodes>
            0 -1 154 1892035156 1972647028 -734109793 -284502 782172159
            -992561921 -135529505 1106574323</internalNodes>
          <leafValues>
            -4.7778454422950745e-01 2.5556254386901855e-01</leafValues></_>
        <_>
          <internalNodes>
            0 -1 279 -75890612 2071967512 -218071290 1943247306
            -70725494 996548644 -1163216178 -221339646</internalNodes>
          <leafValues>
            -3.6832150816917419e-01 3.5562014579772949e-01</leafValues></_>
        <_>
          <internalNodes>
            0 -1 109 -81139479 2139213585 -1212564773 -75669507
            -1883921413 1859860476 -1384665605 -550301416</internalNodes>
          <leafValues>
            -2.7146679162979126e-01 4.7440525889396667e-01</leafValues></_>
        <_>
          <internalNodes>
            0 -1 194 -19894460 -1094004644 -1114293656 -1208277972
            462045193 -298922645 1065047599 1069490795</internalNodes>
          <leafValues>
            -4.9218910932540894e-01 2.5815039873123169e-01</leafValues></_></weakClassifiers></_>
    <!-- stage 2 -->
    <_>
      <maxWeakCount>10</maxWeakCount>
      <stageThreshold>-7.7077507972717285e-01</stageThreshold>
      <weakClassifiers>
        <_>
          <internalNodes>
            0 -1 168 -67371708 -547370916 -1489532808 737925288
            582483916 -336013495 -1077956673 -257</internalNodes>
          <leafValues>
            -2.2230267524719238e-01 6.0857611894607544e-01</leafValues></_>
        <_>
          <internalNodes>
            0 -1 150 -268464209 -578850945 -633344457 -261111825
            -1594398721 81784831 -167815755 -419430403</internalNodes>
          <leafValues>
            -3.1818333268165588e-01 4.9902501702308655e-01</leafValues></_>
        <_>
          <internalNodes>
            0 -1 209 749338837 777449034 -318767137 -487075230
            2080273247 -347340986 2128304077 -59285681</internalNodes>
          <leafValues>
            -4.2941701412200928e-01 3.4635660052299500e-01</leafValues></_>
        <_>
          <internalNodes>
            0 -1 198 -1967182811 248990771 2124151731 -1426072429
            -419443195 -54626881 -269065283 -289910871</internalNodes>
          <leafValues>
            -4.4246870279312134e-01 3.2846158742904663e-01</leafValues></_>
        <_>
          <internalNodes>
            0 -1 98 2036553027 807546695 -67477514 -1145166918
            2005342063 -1191444481 -203424572 361751635</internalNodes>
          <leafValues>
            -4.5073586702346802e-01 2.8352099657058716e-01</leafValues></_>
        <_>
          <internalNodes>
            0 -1 228 -2101706113 -956318209 -497902017 -472141825
            -468453065 -858267917 -1500616897 -1352630275</internalNodes>
          <leafValues>
            -3.7012222409248352e-01 3.5806173086166382e-01</leafValues></_>
        <_>
          <internalNodes>
            0 -1 173 -1023947097 -1812992281 -260310409 -353174795
            -696379730 -1141901569 -789060121 -1595023369</internalNodes>
          <leafValues>
            -3.5185807943344116e-01 3.7128528952598572e-01</leafValues></_>
        <_>
          <internalNodes>
            0 -1 22 -184615238 -168819060 -377609862 -539397891
            1957768427 -198155516 -252246358 557869723</internalNodes>
          <leafValues>
            -4.5409822463989258e-01 3.2323193550109863e-01</leafValues></_>
        <_>
          <internalNodes>
            0 -1 123 766432254 -1119954497 910341630 -83909456
            -184835585 939800223 -3158273 553613247</internalNodes>
          <leafValues>
            -4.1659277677536011e-01 3.0080032348632812e-01</leafValues></_>
        <_>
          <internalNodes>
            0 -1 105 -83895119 -126095497 -1259905353 -176162735
            -1373911885 -1946294459 1509948735 -117576107</internalNodes>
          <leafValues>
            -2.5464689731597900e-01 5.0594854354858398e-01</leafValues></_></weakClassifiers></_>
    <!-- stage 3 -->
    <_>
      <maxWeakCount>9</maxWeakCount>
      <stageThreshold>-1.1434605121612549e+00</stageThreshold>
      <weakClassifiers>
        <_>
          <internalNodes>
            0 -1 166 12519959 -1996640457 -269521105 -1946431913
            -310388809 -445122561 -436272123 -1999682377</internalNodes>
          <leafValues>
            -2.3939152061939240e-01 5.6330084800720215e-01</leafValues></_>
        <_>
          <internalNodes>
            0 -1 276 -1409333387 -168353295 -33595433 -33701919
            -1493223691 -18874377 -1158539264 -285780395</internalNodes>
          <leafValues>
            -3.3571654558181763e-01 5.0088298320770264e-01</leafValues></_>
        <_>
          <internalNodes>
            0 -1 171 8291633 -2045860144 -90188323 -226515657 -676410573
            -1560304399 -688486091 -1163131659</internalNodes>
          <leafValues>
            -4.2361718416213989e-01 3.9976468682289124e-01</leafValues></_>
        <_>
          <internalNodes>
            0 -1 235 -1104774924 -465109268 1116929791 -184623476
            -1155010206 -1074042490 -1410416729 -16778288</internalNodes>
          <leafValues>
            -4.1437476873397827e-01 3.8952475786209106e-01</leafValues></_>
        <_>
          <internalNodes>
            0 -1 142 -1768215519 -287408025 -181010433 -20972649
            -1077990128 10484826 -16916709 -121767167</internalNodes>
          <leafValues>
            -4.4311490654945374e-01 3.5964930057525635e-01</leafValues></_>
        <_>
          <internalNodes>
            0 -1 263 -1830154580 -70365441 -198431172 -556899489
            -1078284357 -1073790977 -16748869 -341118182</internalNodes>
          <leafValues>
            -3.6068058013916016e-01 4.4544830918312073e-01</leafValues></_>
        <_>
          <internalNodes>
            0 -1 155 -828482542 -554764329 -1632725106 -17122724
            -44169839 -1463905095 -115689328 -253446144</internalNodes>
          <leafValues>
            -4.4977676868438721e-01 3.5055190324783325e-01</leafValues></_>
        <_>
          <internalNodes>
            0 -1 125 -1560403693 49207214 -545384867 1758119372
            -772463247 -961589581 -552265292 -671139849</internalNodes>
          <leafValues>
            -4.2839321494102478e-01 3.8141241669654846e-01</leafValues></_>
        <_>
          <internalNodes>
            0 -1 225 -1507458042 -1966685753 819558103 -360991214
            -2009679929 -1856391651 -1345998032 -1163382361</internalNodes>
          <leafValues>
            -4.8370108008384705e-01 3.4157654643058777e-01</leafValues></_></weakClassifiers></_>
    <!-- stage 4 -->
    <_>
      <maxWeakCount>13</maxWeakCount>
      <stageThreshold>-9.0192532539367676e-01</stageThreshold>
      <weakClassifiers>
        <_>
          <internalNodes>
            0 -1 113 -288469265 83971575 -151519499 -1213792281
            -1929581377 96440303 -319859227 -52201473</internalNodes>
          <leafValues>
            -1.5068493783473969e-01 5.7604384422302246e-01</leafValues></_>
        <_>
          <internalNodes>
            0 -1 116 -291566059 1082081463 -552215275 -598737137
            -352586761 -1057860101 1105974544 -721717961</internalNodes>
          <leafValues>
            -3.6406627297401428e-01 3.4733453392982483e-01</leafValues></_>
        <_>
          <internalNodes>
            0 -1 234 973076308 871420406 1073355764 720019512
            -1157661827 -67109251 -51380740 -16781852</internalNodes>
          <leafValues>
            -4.2457976937294006e-01 2.8281173110008240e-01</leafValues></_>
        <_>
          <internalNodes>
            0 -1 202 -286350683 -487093249 -616923183 -250893633
            -16878217 -151064577 -612440137 -272988967</internalNodes>
          <leafValues>
            -2.8094640374183655e-01 4.1865578293800354e-01</leafValues></_>
        <_>
          <internalNodes>
            0 -1 208 707668484 672421396 -1095436289 -1344491862
            936324959 -54692357 -8389141 896990162</internalNodes>
          <leafValues>
            -6.4265561103820801e-01 1.5877021849155426e-01</leafValues></_>
        <_>
          <internalNodes>
            0 -1 192 42598787 -1628794909 -846662213 -285579673
            528681395 -303311881 -996474821 -827570827</internalNodes>
          <leafValues>
            -3.8554701209068298e-01 3.1338170170783997e-01</leafValues></_>
        <_>
          <internalNodes>
            0 -1 274 805252437 -2131574055 -1711847563 -1250481939
            -1399362267 -470353921 -1394115659 -1360066883</internalNodes>
          <leafValues>
            -3.2822215557098389e-01 3.5598844289779663e-01</leafValues></_>
        <_>
          <internalNodes>
            0 -1 296 574570295 787349431 -21251330 -1631584338
            -1084006603 -218186309 -1512050859 -16842891</internalNodes>
          <leafValues>
            -2.6972559094429016e-01 4.2044869065284729e-01</leafValues></_>
        <_>
          <internalNodes>
            0 -1 211 -299188574 1994543892 165190978 -21503529 437424768
            -74820448 -1215037514 -67431870</internalNodes>
          <leafValues>
            -3.3598181605339050e-01 3.3363163471221924e-01</leafValues></_>
        <_>
          <internalNodes>
            0 -1 169 -13083599 -117595651 -189039521 -84017667
            -1155877502 -1296271180 -1642791362 -7561992</internalNodes>
          <leafValues>
            -2.9905629158020020e-01 3.9565795660018921e-01</leafValues></_>
        <_>
          <internalNodes>
            0 -1 37 1277628711 7546119 -1076098322 -1648627934 536965495
            1987783167 494089532 -335544337</internalNodes>
          <leafValues>
            -2.4532571434974670e-01 4.5155158638954163e-01</leafValues></_>
        <_>
          <internalNodes>
            0 -1 181 -15969674 -504514718 -2033843 -973868258 2004505586
            -1592540894 -230472 -134341980</internalNodes>
          <leafValues>
            -3.1329745054244995e-01 3.5917469859123230e-01</leafValues></_>
        <_>
          <internalNodes>
            0 -1 233 -600388932 -566243716 -347410641 1439977293
            1600094015 -1132462113 -8443521 -243667145</internalNodes>
          <leafValues>
            -3.2674142718315125e-01 3.5459539294242859e-01</leafValues></_></weakClassifiers></_>
    <!-- stage 5 -->
    <_>
      <maxWeakCount>14</maxWeakCount>
      <stageThreshold>-8.4218037128448486e-01</stageThreshold>
      <weakClassifiers>
        <_>
          <internalNodes>
            0 -1 44 1345831092 285280031 -793348737 1493751257
            -1061175108 -1056688869 -453643124 1147105531</internalNodes>
          <leafValues>
            -2.6678261160850525e-01 4.7092935442924500e-01</leafValues></_>
        <_>
          <internalNodes>
            0 -1 221 -22612524 -4196395 -1647446017 -1213915000
            -500778065 -1526534677 -104596545 -805307682</internalNodes>
          <leafValues>
            -3.4234112501144409e-01 3.3782932162284851e-01</leafValues></_>
        <_>
          <internalNodes>
            0 -1 79 -654324704 1414231046 -575946753 -579214528
            -225460803 -628212844 -1928516375 -133946240</internalNodes>
          <leafValues>
            -4.2151671648025513e-01 2.6248809695243835e-01</leafValues></_>
        <_>
          <internalNodes>
            0 -1 237 -243862602 863212466 136369279 815923854
            -1143938002 934338751 997436027 1886648319</internalNodes>
          <leafValues>
            -3.6535277962684631e-01 2.6594218611717224e-01</leafValues></_>
        <_>
          <internalNodes>
            0 -1 201 1478757436 467838518 1347485975 891364445
            1233756927 194916769 124340479 1036584335</internalNodes>
          <leafValues>
            -4.8608228564262390e-01 2.1809668838977814e-01</leafValues></_>
        <_>
          <internalNodes>
            0 -1 74 -89395151 -538980331 -1315220711 1562483395
            -103838744 163326392 -116723927 2014300975</internalNodes>
          <leafValues>
            -3.5440877079963684e-01 3.0217713117599487e-01</leafValues></_>
        <_>
          <internalNodes>
            0 -1 115 -91433935 -631300511 781737973 -656413588
            -1423198790 -1182843132 -2012596069 -646462208</internalNodes>
          <leafValues>
            -2.4912498891353607e-01 4.0008017420768738e-01</leafValues></_>
        <_>
          <internalNodes>
            0 -1 262 -890773515 971309809 -942702627 1943747377
            -1493438724 -18376714 -1964307832 -1163425245</internalNodes>
          <leafValues>
            -2.9465967416763306e-01 3.6402741074562073e-01</leafValues></_>
        <_>
          <internalNodes>
            0 -1 64 1702314371 426781021 -1591865034 1229510154
            984277915 968717727 -1478807390 1493156839</internalNodes>
          <leafValues>
            -3.3412533998489380e-01 2.8946545720100403e-01</leafValues></_>
        <_>
          <internalNodes>
            0 -1 163 -319830873 -1642262249 -387225169 -1192411777
            -1174815501 -1149023133 -599014193 -1461324397</internalNodes>
          <leafValues>
            -2.7288848161697388e-01 3.6515739560127258e-01</leafValues></_>
        <_>
          <internalNodes>
            0 -1 29 290787549 827327088 2132367997 822366240 720061946
            904974640 940185145 677033787</internalNodes>
          <leafValues>
            -3.4198561310768127e-01 2.9511931538581848e-01</leafValues></_>
        <_>
          <internalNodes>
            0 -1 229 -427134926 -300701474 -1040006705 -235952504
            -1596409441 -355527487 -628381538 1591022583</internalNodes>
          <leafValues>
            -3.2887127995491028e-01 3.0186331272125244e-01</leafValues></_>
        <_>
          <internalNodes>
            0 -1 252 -924858880 1350506500 1103761506 990871564
            638280320 -515461382 -175830614 -1824004729</internalNodes>
          <leafValues>
            -3.1149134039878845e-01 3.2045036554336548e-01</leafValues></_>
        <_>
          <internalNodes>
            0 -1 118 -216404017 878363217 -635842842 -1855160113
            543419375 -2004143990 1582003957 1463548871</internalNodes>
          <leafValues>
            -3.6594507098197937e-01 2.7328702807426453e-01</leafValues></_></weakClassifiers></_>
    <!-- stage 6 -->
    <_>
      <maxWeakCount>16</maxWeakCount>
      <stageThreshold>-1.1748858690261841e+00</stageThreshold>
      <weakClassifiers>
        <_>
          <internalNodes>
            0 -1 178 -353743233 -1041277153 -1409623075 -12607493
            -898252511 -1065879617 -2130749583 -734069947</internalNodes>
          <leafValues>
            -9.7589515149593353e-02 5.2881544828414917e-01</leafValues></_>
        <_>
          <internalNodes>
            0 -1 132 -999914273 -638851481 -528823685 -473174857
            -1660533217 -1964322817 -978089601 -2115254033</internalNodes>
          <leafValues>
            -2.8591743111610413e-01 3.8895088434219360e-01</leafValues></_>
        <_>
          <internalNodes>
            0 -1 93 -151133485 -171180451 -419446786 -771752197
            -819556365 -1347420303 -608894014 -773660674</internalNodes>
          <leafValues>
            -2.6243981719017029e-01 3.7299042940139771e-01</leafValues></_>
        <_>
          <internalNodes>
            0 -1 107 -15996253 -538454025 1955532622 -87603313
            -732179525 -1880365854 1951909262 -57160065</internalNodes>
          <leafValues>
            -2.3833020031452179e-01 4.2498368024826050e-01</leafValues></_>
        <_>
          <internalNodes>
            0 -1 23 2113928638 996655059 8323620 -1780511082 2079321002
            999776911 887519658 -1577324310</internalNodes>
          <leafValues>
            -3.9545449614524841e-01 2.5738123059272766e-01</leafValues></_>
        <_>
          <internalNodes>
            0 -1 110 -84090623 890213221 -657684167 -1182992482
            1658635559 757792930 -167913195 1484116471</internalNodes>
          <leafValues>
            -3.9169585704803467e-01 2.3862309753894806e-01</leafValues></_>
        <_>
          <internalNodes>
            0 -1 267 -740340908 1977035298 1954593341 878063284
            -346212133 1897132738 -34030086 -572611836</internalNodes>
          <leafValues>
            -3.6274534463882446e-01 2.7272933721542358e-01</leafValues></_>
        <_>
          <internalNodes>
            0 -1 189 -671882746 815187270 -1656811732 1361650862
            -342116587 995841373 1406620748 1560278111</internalNodes>
          <leafValues>
            -3.4494584798812866e-01 2.8114417195320129e-01</leafValues></_>
        <_>
          <internalNodes>
            0 -1 86 -1157913912 1375593195 -1879364116 -651837472
            -873495557 -38740485 -626285397 -575436768</internalNodes>
          <leafValues>
            -2.9410174489021301e-01 3.1808310747146606e-01</leafValues></_>
        <_>
          <internalNodes>
            0 -1 268 -882400488 821537575 1343502934 -1697481490
            -1742419776 982498456 -1951496246 -259528829</internalNodes>
          <leafValues>
            -3.1939706206321716e-01 2.8471004962921143e-01</leafValues></_>
        <_>
          <internalNodes>
            0 -1 43 -186188666 87361560 1320135322 -973269045 -385966598
            -398719967 -1335676712 828847099</internalNodes>
          <leafValues>
            -3.5827338695526123e-01 2.7160364389419556e-01</leafValues></_>
        <_>
          <internalNodes>
            0 -1 200 1642717931 1802235886 440097817 -1874515101
            638155985 664508582 1906012499 -68060969</internalNodes>
          <leafValues>
            -3.1357041001319885e-01 2.9637235403060913e-01</leafValues></_>
        <_>
          <internalNodes>
            0 -1 187 -245428314 -622102322 1072368354 1974455786
            884778479 -912109327 -1684702320 -74222588</internalNodes>
          <leafValues>
            -2.8300064802169800e-01 3.4068942070007324e-01</leafValues></_>
        <_>
          <internalNodes>
            0 -1 153 -823137169 1604775678 2063559595 566095404
            795799534 -537397281 1970765291 -1561888977</internalNodes>
          <leafValues>
            -2.9216286540031433e-01 3.2273143529891968e-01</leafValues></_>
        <_>
          <internalNodes>
            0 -1 59 1323060738 296866615 -135126699 350539475 1781218782
            -1195512136 -270194038 1366655073</internalNodes>
          <leafValues>
            -4.3619295954704285e-01 2.1862292289733887e-01</leafValues></_>
        <_>
          <internalNodes>
            0 -1 140 -543503696 -640123881 1139504085 -603008361
            -1414731224 -22499148 469789933 -541430532</internalNodes>
          <leafValues>
            -3.1948795914649963e-01 3.1266322731971741e-01</leafValues></_></weakClassifiers></_>
    <!-- stage 7 -->
    <_>
      <maxWeakCount>17</maxWeakCount>
      <stageThreshold>-8.1229805946350098e-01</stageThreshold>
      <weakClassifiers>
        <_>
          <internalNodes>
            0 -1 111 -402701280 -708387547 -40987 -552476885 99514353
            -976289933 1492914256 1078065143</internalNodes>
          <leafValues>
            -2.1927888691425323e-01 4.3533855676651001e-01</leafValues></_>
        <_>
          <internalNodes>
            0 -1 108 -423112985 401508323 -435000659 -214257791
            -406368273 86215433 -459911687 805097331</internalNodes>
          <leafValues>
            -3.4047049283981323e-01 2.6711064577102661e-01</leafValues></_>
        <_>
          <internalNodes>
            0 -1 149 -184824171 -1751336257 -1075085857 -12701928
            -355206985 -1896874177 -705702605 -639172864</internalNodes>
          <leafValues>
            -2.6338952779769897e-01 3.2945665717124939e-01</leafValues></_>
        <_>
          <internalNodes>
            0 -1 277 -206077995 1394413265 -201856001 -201861281
            -1074020612 -1074806929 -1159036178 -68187252</internalNodes>
          <leafValues>
            -2.2760698199272156e-01 3.8740155100822449e-01</leafValues></_>
        <_>
          <internalNodes>
            0 -1 148 1790406183 -1007753738 -548340473 -77149360
            1922197238 -156081213 -875863049 -656098313</internalNodes>
          <leafValues>
            -3.0601641535758972e-01 2.7348759770393372e-01</leafValues></_>
        <_>
          <internalNodes>
            0 -1 160 1725355762 1748489200 -952466157 -243584030
            1513322740 -592076105 794246955 -1862332749</internalNodes>
          <leafValues>
            -3.4387701749801636e-01 2.4820606410503387e-01</leafValues></_>
        <_>
          <internalNodes>
            0 -1 198 -22118747 1031933357 -612660293 -90187584 -6617133
            -306619906 -3523621 -1163046999</internalNodes>
          <leafValues>
            -3.2066637277603149e-01 2.7482208609580994e-01</leafValues></_>
        <_>
          <internalNodes>
            0 -1 245 1449018368 340929032 137969491 -149169968
            -457786451 -633106257 -83889189 887926576</internalNodes>
          <leafValues>
            -5.3723675012588501e-01 1.8735814094543457e-01</leafValues></_>
        <_>
          <internalNodes>
            0 -1 188 2037359423 1423866674 -122881297 -1645227257
            -142606413 -566298894 -46925881 -638322845</internalNodes>
          <leafValues>
            -2.0761826634407043e-01 4.2601415514945984e-01</leafValues></_>
        <_>
          <internalNodes>
            0 -1 12 1535366234 -1869422576 -521968586 -612159200
            1771034489 932975856 -137485542 1082085675</internalNodes>
          <leafValues>
            -3.9958906173706055e-01 2.1011434495449066e-01</leafValues></_>
        <_>
          <internalNodes>
            0 -1 100 1656735399 1938765054 985646976 -790235789
            347535077 -654500444 -18712877 -537438409</internalNodes>
          <leafValues>
            -2.2978325188159943e-01 3.5826510190963745e-01</leafValues></_>
        <_>
          <internalNodes>
            0 -1 80 -1211117336 549636032 -1071656747 -1864534051
            -1373861342 571191758 -181681940 1088929999</internalNodes>
          <leafValues>
            -4.7337979078292847e-01 1.8670052289962769e-01</leafValues></_>
        <_>
          <internalNodes>
            0 -1 266 1091954396 1359426747 559410479 25289506 -772164148
            -912744949 175454910 1346752202</internalNodes>
          <leafValues>
            -3.4975668787956238e-01 2.5223571062088013e-01</leafValues></_>
        <_>
          <internalNodes>
            0 -1 182 1902050668 2106626901 971112562 606996106
            -1833716824 715301646 -16042052 8237102</internalNodes>
          <leafValues>
            -5.3414005041122437e-01 1.6233186423778534e-01</leafValues></_>
        <_>
          <internalNodes>
            0 -1 181 1601049404 -311567558 -716115123 -973179618
            -5351681 -1445921119 -3665086 -34988928</internalNodes>
          <leafValues>
            -3.1729501485824585e-01 3.0092620849609375e-01</leafValues></_>
        <_>
          <internalNodes>
            0 -1 264 2064845020 -335675755 -1359742211 2044558582
            -84034049 -570688076 -40305270 -941461274</internalNodes>
          <leafValues>
            -2.5899654626846313e-01 3.4098213911056519e-01</leafValues></_>
        <_>
          <internalNodes>
            0 -1 39 1887317798 1031592724 5445807 2109209118 -631258691
            1968145461 583739305 1701011974</internalNodes>
          <leafValues>
            -3.7940922379493713e-01 2.3270827531814575e-01</leafValues></_></weakClassifiers></_>
    <!-- stage 8 -->
    <_>
      <maxWeakCount>19</maxWeakCount>
      <stageThreshold>-1.1304565668106079e+00</stageThreshold>
      <weakClassifiers>
        <_>
          <internalNodes>
            0 -1 40 406000648 829996972 -580416095 1025555204
            -1733162310 -1325400144 1594235578 -1442709496</internalNodes>
          <leafValues>
            -1.6067451238632202e-01 4.4989934563636780e-01</leafValues></_>
        <_>
          <internalNodes>
            0 -1 185 1646197494 982505182 2014369631 -138175154
            974503866 404160482 1058552735 -1292436690</internalNodes>
          <leafValues>
            -3.0937236547470093e-01 2.8440341353416443e-01</leafValues></_>
        <_>
          <internalNodes>
            0 -1 166 -659010925 -642138445 -989788665 -376744289
            -444622577 -243550517 -1319424625 -1991291737</internalNodes>
          <leafValues>
            -3.0872732400894165e-01 2.8536418080329895e-01</leafValues></_>
        <_>
          <internalNodes>
            0 -1 20 -6940 -44255020 -1784810147 1297471941 -1347766136
            -1191683071 -11019777 1068235470</internalNodes>
          <leafValues>
            -3.1366556882858276e-01 2.5744849443435669e-01</leafValues></_>
        <_>
          <internalNodes>
            0 -1 202 -10557786 -1571841855 -354764803 -15038123
            -1620168841 -3466481 -269551883 -71802183</internalNodes>
          <leafValues>
            -3.2105067372322083e-01 2.5519067049026489e-01</leafValues></_>
        <_>
          <internalNodes>
            0 -1 87 850100752 -755317933 -11931204 -14682213 -624413903
            -1968176853 298599808 -2004651234</internalNodes>
          <leafValues>
            -3.5565227270126343e-01 2.6119622588157654e-01</leafValues></_>
        <_>
          <internalNodes>
            0 -1 176 -1576131052 185606581 -198428294 1968447684
            1174260431 -402938883 -813704357 -202220134</internalNodes>
          <leafValues>
            -4.6847993135452271e-01 1.6856998205184937e-01</leafValues></_>
        <_>
          <internalNodes>
            0 -1 213 1927069141 902816143 429456381 -1310015834
            -144871720 1873217506 -43127556 1509811679</internalNodes>
          <leafValues>
            -2.6517209410667419e-01 3.1204339861869812e-01</leafValues></_>
        <_>
          <internalNodes>
            0 -1 71 -1287344148 -81842820 -77215823 -4609415 -177685864
            -105603082 -1161978630 -80215896</internalNodes>
          <leafValues>
            -2.7220594882965088e-01 3.2103955745697021e-01</leafValues></_>
        <_>
          <internalNodes>
            0 -1 247 -341307892 370150750 1958633494 1544962388
            948634875 -1433726798 1863221211 675228471</internalNodes>
          <leafValues>
            -4.8076471686363220e-01 1.7054134607315063e-01</leafValues></_>
        <_>
          <internalNodes>
            0 -1 21 163284096 -1865548000 -1119662496 -1815562811
            -574000899 -247126755 2024483003 20730875</internalNodes>
          <leafValues>
            -4.2721283435821533e-01 1.7276176810264587e-01</leafValues></_>
        <_>
          <internalNodes>
            0 -1 30 1668011383 2038383471 2133948405 388778630
            -730380443 2029199221 -1634764872 1315952170</internalNodes>
          <leafValues>
            -2.7451014518737793e-01 2.9099723696708679e-01</leafValues></_>
        <_>
          <internalNodes>
            0 -1 271 -67640124 -800867506 -395324916 -1025031542
            -1589534140 1355582917 -2084702321 -709366973</internalNodes>
          <leafValues>
            -2.2470264136791229e-01 3.5075828433036804e-01</leafValues></_>
        <_>
          <internalNodes>
            0 -1 220 -1164790442 -1176791661 -900142612 -154085234
            -273679695 -2002616027 -1008980191 -278495117</internalNodes>
          <leafValues>
            -2.9145884513854980e-01 2.9089662432670593e-01</leafValues></_>
        <_>
          <internalNodes>
            0 -1 288 -143281340 -204377277 1393107492 1903629043
            -283137094 705172013 -17194290 1185277670</internalNodes>
          <leafValues>
            -3.0247357487678528e-01 2.7694663405418396e-01</leafValues></_>
        <_>
          <internalNodes>
            0 -1 155 -740507391 -1519498816 37901281 -52800683
            -603251280 -1362788344 -34035295 -596165632</internalNodes>
          <leafValues>
            -3.2533696293830872e-01 2.5198754668235779e-01</leafValues></_>
        <_>
          <internalNodes>
            0 -1 275 -1428037679 -688008067 -839112195 -644257031
            -2081388039 -103435267 -1848485416 -1951852223</internalNodes>
          <leafValues>
            -2.0029294490814209e-01 4.1670459508895874e-01</leafValues></_>
        <_>
          <internalNodes>
            0 -1 249 -87160292 -1703931384 -265637125 1298816020
            -1300239447 305852969 -863438501 534734849</internalNodes>
          <leafValues>
            -3.8532543182373047e-01 2.1228002011775970e-01</leafValues></_>
        <_>
          <internalNodes>
            0 -1 170 -197831513 -1146686205 -1156651314 -297050745
            -1029873693 -524589649 -598835654 -19327325</internalNodes>
          <leafValues>
            -2.6800206303596497e-01 3.1902259588241577e-01</leafValues></_></weakClassifiers></_>
    <!-- stage 9 -->
    <_>
      <maxWeakCount>20</maxWeakCount>
      <stageThreshold>-1.1168516874313354e+00</stageThreshold>
      <weakClassifiers>
        <_>
          <internalNodes>
            0 -1 206 574571055 -521177235 -25194949 -153403649
            -1791076353 -906004514 -176462027 -92620867</internalNodes>
          <leafValues>
            -6.6634356975555420e-02 4.8876300454139709e-01</leafValues></_>
        <_>
          <internalNodes>
            0 -1 89 1594347343 288950103 -1289261439 -1257395697
            -818551473 1369052046 -984656404 1421601715</internalNodes>
          <leafValues>
            -3.4916150569915771e-01 2.2987997531890869e-01</leafValues></_>
        <_>
          <internalNodes>
            0 -1 125 -4275253 1315952551 -1209385931 -227903569
            -722078765 -827594777 1465212344 -536922905</internalNodes>
          <leafValues>
            -2.5462174415588379e-01 3.1854543089866638e-01</leafValues></_>
        <_>
          <internalNodes>
            0 -1 171 1157537017 840323208 -631848567 -214374469
            -1764297885 1257132371 -622949307 -1154972235</internalNodes>
          <leafValues>
            -3.0876740813255310e-01 2.4778595566749573e-01</leafValues></_>
        <_>
          <internalNodes>
            0 -1 158 2136324063 530036655 152917739 393231872 384478047
            153365636 -492326805 -21627294</internalNodes>
          <leafValues>
            -2.8155624866485596e-01 2.8363278508186340e-01</leafValues></_>
        <_>
          <internalNodes>
            0 -1 231 1510886552 -1280379062 -97848097 -3710749
            1031366108 -73702206 2106653695 1906400147</internalNodes>
          <leafValues>
            -3.1385982036590576e-01 2.6228585839271545e-01</leafValues></_>
        <_>
          <internalNodes>
            0 -1 136 -586416178 -47059997 -1120011265 -40505921
            -751828995 -892612425 -543686721 -584356833</internalNodes>
          <leafValues>
            -1.8237499892711639e-01 4.5097124576568604e-01</leafValues></_>
        <_>
          <internalNodes>
            0 -1 65 -265404156 708235525 1661129950 972525582 1413700711
            -1694507113 -343154249 27781862</internalNodes>
          <leafValues>
            -3.6895388364791870e-01 2.4679987132549286e-01</leafValues></_>
        <_>
          <internalNodes>
            0 -1 58 -222567767 -47874094 -621298689 -686442744 -56710437
            -486693573 -34605889 -546311320</internalNodes>
          <leafValues>
            -2.2123862802982330e-01 4.0089151263237000e-01</leafValues></_>
        <_>
          <internalNodes>
            0 -1 11 -1606377042 486210559 -85268245 -103350798 -3109343
            -151655329 -249823761 1710283726</internalNodes>
          <leafValues>
            -3.2349941134452820e-01 2.5375807285308838e-01</leafValues></_>
        <_>
          <internalNodes>
            0 -1 230 -1834981750 -241694733 -396891890 -477600282
            -28097885 -1294973812 -105383933 2104524139</internalNodes>
          <leafValues>
            -3.6449107527732849e-01 2.2163578867912292e-01</leafValues></_>
        <_>
          <internalNodes>
            0 -1 202 1288364710 1690796287 -1379387853 -163005955
            1538421591 -790650545 1901753015 -273127687</internalNodes>
          <leafValues>
            -3.5554271936416626e-01 2.2043974697589874e-01</leafValues></_>
        <_>
          <internalNodes>
            0 -1 72 -141831367 -642036399 -562635779 -3147057
            -1380215639 -958522267 -1042638915 -545765332</internalNodes>
          <leafValues>
            -2.0410899817943573e-01 3.9635747671127319e-01</leafValues></_>
        <_>
          <internalNodes>
            0 -1 250 1431302124 -682251129 659289900 830587152
            1992929204 -253098650 449648780 -70788284</internalNodes>
          <leafValues>
            -3.4529516100883484e-01 2.7006286382675171e-01</leafValues></_>
        <_>
          <internalNodes>
            0 -1 235 -29689156 -193924660 -1973411629 2113917053
            -7087477 1610588845 -1221614193 2146694081</internalNodes>
          <leafValues>
            -2.7993938326835632e-01 2.8190538287162781e-01</leafValues></_>
        <_>
          <internalNodes>
            0 -1 225 -1445641115 -1024622086 1466970959 1387807443
            -1752615361 -1010287845 -1147273453 -1154698543</internalNodes>
          <leafValues>
            -2.9167079925537109e-01 2.8312447667121887e-01</leafValues></_>
        <_>
          <internalNodes>
            0 -1 284 -109067134 810000901 -253474198 1626025387
            -1321486464 56230962 -1188914261 -1310202197</internalNodes>
          <leafValues>
            -2.5354376435279846e-01 3.2499295473098755e-01</leafValues></_>
        <_>
          <internalNodes>
            0 -1 260 381318484 1945583794 1048346493 940704810 -87330305
            -1467506015 -714867717 1907814414</internalNodes>
          <leafValues>
            -3.3782911300659180e-01 2.4894703924655914e-01</leafValues></_>
        <_>
          <internalNodes>
            0 -1 222 1786638691 1852040181 -1928245881 -1407053646
            1747757287 -74796928 -1335232505 -431627</internalNodes>
          <leafValues>
            -2.9542511701583862e-01 2.8136557340621948e-01</leafValues></_>
        <_>
          <internalNodes>
            0 -1 62 556082726 1569888079 1668120962 -49650489 1347760049
            1142761536 1104094671 1342957136</internalNodes>
          <leafValues>
            -4.2602759599685669e-01 1.9931453466415405e-01</leafValues></_></weakClassifiers></_>
    <!-- stage 10 -->
    <_>
      <maxWeakCount>19</maxWeakCount>
      <stageThreshold>-1.0297399759292603e+00</stageThreshold>
      <weakClassifiers>
        <_>
          <internalNodes>
            0 -1 199 717883133 165876765 -2046031271 -469759207
            -566212451 -7645243 277891485 772428145</internalNodes>
          <leafValues>
            -3.9655172824859619e-01 3.7048935890197754e-01</leafValues></_>
        <_>
          <internalNodes>
            0 -1 112 1014966914 1929847810 -892612570 -2081971232
            1375212174 122667183 -778469497 2011683599</internalNodes>
          <leafValues>
            -3.8330033421516418e-01 2.0648525655269623e-01</leafValues></_>
        <_>
          <internalNodes>
            0 -1 209 -1374158832 -487329264 1772892479 -453536200
            2065332102 -1572689906 2122410472 1953697871</internalNodes>
          <leafValues>
            -4.4783902168273926e-01 1.8278072774410248e-01</leafValues></_>
        <_>
          <internalNodes>
            0 -1 183 -562118705 -672666642 2138963761 -1331226
            -544542233 -545262086 -1113000277 -206401110</internalNodes>
          <leafValues>
            -2.0570933818817139e-01 3.9658755064010620e-01</leafValues></_>
        <_>
          <internalNodes>
            0 -1 164 528464600 -169494448 179056959 -3292235 -1857362438
            -1898386894 -1146580833 252513979</internalNodes>
          <leafValues>
            -2.8172317147254944e-01 2.8236702084541321e-01</leafValues></_>
        <_>
          <internalNodes>
            0 -1 151 1836575639 501874658 955940863 -574619726
            1765736399 1308622774 672149439 -1930461662</internalNodes>
          <leafValues>
            -2.6050308346748352e-01 3.1437146663665771e-01</leafValues></_>
        <_>
          <internalNodes>
            0 -1 83 -673001745 2005762031 -202319121 -1868369568
            -1447498513 -1347377203 -17499650 -278636591</internalNodes>
          <leafValues>
            -2.4020022153854370e-01 3.3391311764717102e-01</leafValues></_>
        <_>
          <internalNodes>
            0 -1 52 1434034152 -179986016 -1014271453 -549383840
            195793841 746590667 596321261 1141874730</internalNodes>
          <leafValues>
            -3.1623145937919617e-01 2.3702609539031982e-01</leafValues></_>
        <_>
          <internalNodes>
            0 -1 238 -788539821 1879934191 -214863949 841444542
            1173833166 351647719 -1373852722 1433272254</internalNodes>
          <leafValues>
            -2.5498330593109131e-01 3.0402275919914246e-01</leafValues></_>
        <_>
          <internalNodes>
            0 -1 256 -5519599 -1142176716 -382075395 -275439 -289825061
            -2067374859 202261665 -1376789299</internalNodes>
          <leafValues>
            -2.3858331143856049e-01 3.2657283544540405e-01</leafValues></_>
        <_>
          <internalNodes>
            0 -1 47 -457954268 -709269366 1083252220 -1044956534
            -242279795 -70832321 755705901 1966309896</internalNodes>
          <leafValues>
            -4.0946811437606812e-01 1.9996961951255798e-01</leafValues></_>
        <_>
          <internalNodes>
            0 -1 268 -137981694 2009302838 1342177732 -1156028166
            -408764240 826651526 -1159138678 -1220027613</internalNodes>
          <leafValues>
            -2.8259611129760742e-01 2.7257624268531799e-01</leafValues></_>
        <_>
          <internalNodes>
            0 -1 287 -786872256 -1845773845 1897633119 1465108118
            -339924225 1775086104 -67296325 806428674</internalNodes>
          <leafValues>
            -4.1577675938606262e-01 1.8864192068576813e-01</leafValues></_>
        <_>
          <internalNodes>
            0 -1 51 -184418840 -179905048 986789663 -135302871
            2027588784 678107817 -102253137 1074479662</internalNodes>
          <leafValues>
            -2.8032350540161133e-01 2.7908593416213989e-01</leafValues></_>
        <_>
          <internalNodes>
            0 -1 19 1759940326 -857816071 -1127995169 -637657273
            1640102335 -38162963 653505967 1421999726</internalNodes>
          <leafValues>
            -3.4530219435691833e-01 2.2655630111694336e-01</leafValues></_>
        <_>
          <internalNodes>
            0 -1 121 -798191837 299820498 -1243839215 995250587
            -436898926 -1431329631 274007938 2072978693</internalNodes>
          <leafValues>
            -3.1985652446746826e-01 2.3818145692348480e-01</leafValues></_>
        <_>
          <internalNodes>
            0 -1 142 -1097307136 -24617981 -595479845 -557983549
            -1174472296 137353240 -276178035 976034566</internalNodes>
          <leafValues>
            -3.5937210917472839e-01 2.2102557122707367e-01</leafValues></_>
        <_>
          <internalNodes>
            0 -1 270 -214726270 842080786 -1268618268 2004876888
            2012014550 254276584 719115227 -259527613</internalNodes>
          <leafValues>
            -2.3268397152423859e-01 3.3848118782043457e-01</leafValues></_>
        <_>
          <internalNodes>
            0 -1 258 1329058771 -281029997 -680301167 -69228686
            -1414201347 -1476466983 449959564 -1147325452</internalNodes>
          <leafValues>
            -2.1612961590290070e-01 3.8522019982337952e-01</leafValues></_></weakClassifiers></_>
    <!-- stage 11 -->
    <_>
      <maxWeakCount>21</maxWeakCount>
      <stageThreshold>-1.1402055025100708e+00</stageThreshold>
      <weakClassifiers>
        <_>
          <internalNodes>
            0 -1 236 2130341440 281685927 -219487621 -320675090
            -22376867 -1968259092 -68170788 -1594084027</internalNodes>
          <leafValues>
            -2.0364993810653687e-01 4.0214216709136963e-01</leafValues></_>
        <_>
          <internalNodes>
            0 -1 204 -501052828 -1783119318 -1747845253 -99330495
            1733252973 1207666635 -280678561 -1968091273</internalNodes>
          <leafValues>
            -3.5328802466392517e-01 2.2258131206035614e-01</leafValues></_>
        <_>
          <internalNodes>
            0 -1 138 -269588755 2141062449 -2026844691 -814710991
            -135271699 -841985549 -660963971 -573609741</internalNodes>
          <leafValues>
            -2.4901834130287170e-01 3.1035029888153076e-01</leafValues></_>
        <_>
          <internalNodes>
            0 -1 46 -1513263088 1943640569 836627196 -1075892178
            -1950919239 -1147159401 45279720 -1275127768</internalNodes>
          <leafValues>
            -3.0643320083618164e-01 2.4873945116996765e-01</leafValues></_>
        <_>
          <internalNodes>
            0 -1 174 -1362219297 790472145 -1341738364 354941264
            -1461126849 846959488 2060188603 944927493</internalNodes>
          <leafValues>
            -3.9073038101196289e-01 1.8821538984775543e-01</leafValues></_>
        <_>
          <internalNodes>
            0 -1 180 1863314948 1023717264 -1240321263 -1251018642
            2075914347 -857550463 1372654458 -1781120672</internalNodes>
          <leafValues>
            -3.6741012334823608e-01 1.8379336595535278e-01</leafValues></_>
        <_>
          <internalNodes>
            0 -1 228 110658051 -1026686505 -267182030 -494948196
            -233941421 -996466450 -2105392281 790631760</internalNodes>
          <leafValues>
            -4.8039221763610840e-01 1.6428676247596741e-01</leafValues></_>
        <_>
          <internalNodes>
            0 -1 14 -189638659 -253989516 1572241407 -81446067
            -390973537 -731185411 -1296077638 -333025525</internalNodes>
          <leafValues>
            -2.4139606952667236e-01 3.2047516107559204e-01</leafValues></_>
        <_>
          <internalNodes>
            0 -1 195 -1633623382 -621818775 2058466910 -52061058
            179539950 -1146110319 -1092632742 -1350453709</internalNodes>
          <leafValues>
            -2.7426555752754211e-01 2.7844089269638062e-01</leafValues></_>
        <_>
          <internalNodes>
            0 -1 126 -252205334 -233317201 -336761309 -240406198
            -413210427 -663330856 -9255289 -777944143</internalNodes>
          <leafValues>
            -2.1918961405754089e-01 3.4644046425819397e-01</leafValues></_>
        <_>
          <internalNodes>
            0 -1 105 -127165007 -261104641 1257197303 -8825 -807680381
            -621190417 531619803 -901920361</internalNodes>
          <leafValues>
            -2.1664880216121674e-01 3.7925323843955994e-01</leafValues></_>
        <_>
          <internalNodes>
            0 -1 26 701752195 657202174 1555840790 1896154124 1710220923
            1995754209 -276955172 -1103992</internalNodes>
          <leafValues>
            -2.1242968738079071e-01 3.5274854302406311e-01</leafValues></_>
        <_>
          <internalNodes>
            0 -1 79 -255865820 1552056608 -644228779 -275129827
            -1338259979 1879252732 -1454035559 -630966913</internalNodes>
          <leafValues>
            -3.4452053904533386e-01 2.1668018400669098e-01</leafValues></_>
        <_>
          <internalNodes>
            0 -1 150 -272650709 208661250 2023851570 -1257325829
            612500427 99875483 1932776881 1649252573</internalNodes>
          <leafValues>
            -4.1608595848083496e-01 1.9075477123260498e-01</leafValues></_>
        <_>
          <internalNodes>
            0 -1 286 -1894383691 -653277091 1677368757 -541155376
            1005895384 -1346699458 -2010875752 -1079900024</internalNodes>
          <leafValues>
            -2.6823762059211731e-01 2.8644910454750061e-01</leafValues></_>
        <_>
          <internalNodes>
            0 -1 133 -21405485 -2005291873 -3560217 -538588290
            -1162086177 -1951791719 -1077114819 407209792</internalNodes>
          <leafValues>
            -3.1002157926559448e-01 2.5424611568450928e-01</leafValues></_>
        <_>
          <internalNodes>
            0 -1 96 1929373577 -1241698582 1048016229 -642777298
            -58794814 -2109866305 -139110213 -116948003</internalNodes>
          <leafValues>
            -1.7373554408550262e-01 4.1614425182342529e-01</leafValues></_>
        <_>
          <internalNodes>
            0 -1 34 -184674566 -797672446 2066623298 1032096445
            -707568147 -177014252 -1245549912 539813471</internalNodes>
          <leafValues>
            -4.0976020693778992e-01 1.8559205532073975e-01</leafValues></_>
        <_>
          <internalNodes>
            0 -1 187 -1285618688 2017152684 148584662 1974043566
            -666743669 1454267567 -618644575 -83790707</internalNodes>
          <leafValues>
            -3.0316853523254395e-01 2.6086926460266113e-01</leafValues></_>
        <_>
          <internalNodes>
            0 -1 104 1287660423 -2072509660 -315072505 -1176422680
            -1694161061 929057331 1428429197 468112191</internalNodes>
          <leafValues>
            -3.5549145936965942e-01 2.1645811200141907e-01</leafValues></_>
        <_>
          <internalNodes>
            0 -1 232 1860085760 1315295720 -542891617 -1900272 557402114
            -80412227 -1976569600 988746550</internalNodes>
          <leafValues>
            -3.7828171253204346e-01 2.1690216660499573e-01</leafValues></_></weakClassifiers></_>
    <!-- stage 12 -->
    <_>
      <maxWeakCount>22</maxWeakCount>
      <stageThreshold>-8.6856722831726074e-01</stageThreshold>
      <weakClassifiers>
        <_>
          <internalNodes>
            0 -1 75 87942396 833236908 -1841823572 -1876891652
            1995915388 19795855 -257035140 1143857407</internalNodes>
          <leafValues>
            -2.6476794481277466e-01 3.7668743729591370e-01</leafValues></_>
        <_>
          <internalNodes>
            0 -1 178 -18096579 -1041760417 2147171257 -5242889
            -906130959 -989859946 -529041547 -96551144</internalNodes>
          <leafValues>
            -2.0566415786743164e-01 3.2766801118850708e-01</leafValues></_>
        <_>
          <internalNodes>
            0 -1 90 1299622706 1360711665 302989393 -1132539116
            -419432449 -2010987033 988836863 -185371537</internalNodes>
          <leafValues>
            -3.0196729302406311e-01 2.4915657937526703e-01</leafValues></_>
        <_>
          <internalNodes>
            0 -1 243 -1006332745 -1545085230 -29101639 -158919977
            -1995187393 -520094206 -1151418637 980972477</internalNodes>
          <leafValues>
            -2.8768828511238098e-01 2.3950786888599396e-01</leafValues></_>
        <_>
          <internalNodes>
            0 -1 193 -637732388 -33744355 290845191 655372580
            -1686499009 -1698626491 -2134681525 1347283935</internalNodes>
          <leafValues>
            -4.2261329293251038e-01 1.5489287674427032e-01</leafValues></_>
        <_>
          <internalNodes>
            0 -1 18 2071289695 585119209 515309439 -1497320806
            1354042961 443840349 -572081032 -82054</internalNodes>
          <leafValues>
            -2.2010727226734161e-01 3.2226145267486572e-01</leafValues></_>
        <_>
          <internalNodes>
            0 -1 263 1917714572 1509837273 -2074202560 1388996894
            -291869512 1539027039 742533722 28455426</internalNodes>
          <leafValues>
            -4.7533190250396729e-01 1.5281179547309875e-01</leafValues></_>
        <_>
          <internalNodes>
            0 -1 147 -1094793 -1696445184 -225228091 -718155187
            452503734 -1782447449 -575769673 1518761470</internalNodes>
          <leafValues>
            -2.8890872001647949e-01 2.4276912212371826e-01</leafValues></_>
        <_>
          <internalNodes>
            0 -1 254 -914364786 921183940 542286888 1361428338
            1843110856 536880852 1441747522 -135790601</internalNodes>
          <leafValues>
            -2.0665740966796875e-01 3.3003255724906921e-01</leafValues></_>
        <_>
          <internalNodes>
            0 -1 159 -276878293 -473443345 1429276576 1629709116
            2009900514 -403537264 -649813624 1093797715</internalNodes>
          <leafValues>
            -3.0428254604339600e-01 2.2771631181240082e-01</leafValues></_>
        <_>
          <internalNodes>
            0 -1 169 -1049423 -353393474 -994054995 -541073729 -69278273
            -1140916548 383123199 -72351799</internalNodes>
          <leafValues>
            -1.9113588333129883e-01 4.2493581771850586e-01</leafValues></_>
        <_>
          <internalNodes>
            0 -1 60 -1358721792 119877960 1366361009 1329542400 59504001
            210210029 1968350641 547600864</internalNodes>
          <leafValues>
            -3.8773319125175476e-01 2.1102173626422882e-01</leafValues></_>
        <_>
          <internalNodes>
            0 -1 179 -900276062 580316407 -1393568591 1349117870
            -499486881 -416164288 978543267 125696131</internalNodes>
          <leafValues>
            -4.7310721874237061e-01 1.4611145853996277e-01</leafValues></_>
        <_>
          <internalNodes>
            0 -1 157 1695946046 -627681449 1974744112 -1520858714
            -585127749 878943139 -3946277 1701247930</internalNodes>
          <leafValues>
            -3.7268298864364624e-01 2.0280233025550842e-01</leafValues></_>
        <_>
          <internalNodes>
            0 -1 139 1851008641 -2121789005 -306183482 -1178013045
            -549798119 373964158 1442373551 195174275</internalNodes>
          <leafValues>
            -3.6918225884437561e-01 2.0302642881870270e-01</leafValues></_>
        <_>
          <internalNodes>
            0 -1 181 -143896056 -1783934189 -108378796 -170764335
            -67218325 -443512127 -68347078 -175832924</internalNodes>
          <leafValues>
            -2.9022696614265442e-01 2.5139427185058594e-01</leafValues></_>
        <_>
          <internalNodes>
            0 -1 35 -800208941 212103426 1394163562 -1244555363
            1620310235 1425861762 1919166970 9752170</internalNodes>
          <leafValues>
            -3.8262903690338135e-01 1.8366947770118713e-01</leafValues></_>
        <_>
          <internalNodes>
            0 -1 283 -249692978 1475730519 1651120842 -2117130615
            2002443660 1624761812 -284890197 -243014961</internalNodes>
          <leafValues>
            -2.0003832876682281e-01 3.7960061430931091e-01</leafValues></_>
        <_>
          <internalNodes>
            0 -1 77 -837189136 1912327965 703405551 2145330826 794814137
            -415356164 -1449705809 -1045484542</internalNodes>
          <leafValues>
            -2.4279968440532684e-01 3.0154427886009216e-01</leafValues></_>
        <_>
          <internalNodes>
            0 -1 225 -1083701694 -500593642 -749474689 -622134895
            -1750358065 1890698207 -280005841 -207970079</internalNodes>
          <leafValues>
            -2.8597605228424072e-01 2.6951923966407776e-01</leafValues></_>
        <_>
          <internalNodes>
            0 -1 279 1524514828 295673383 -1061063846 1907973696
            -346546456 2013267456 -624666242 873874464</internalNodes>
          <leafValues>
            -4.8979347944259644e-01 1.6101157665252686e-01</leafValues></_>
        <_>
          <internalNodes>
            0 -1 185 -830769486 638441112 -330934249 -169739562
            676412016 161713024 -1271422457 -1327930810</internalNodes>
          <leafValues>
            -3.7999269366264343e-01 1.9550907611846924e-01</leafValues></_></weakClassifiers></_>
    <!-- stage 13 -->
    <_>
      <maxWeakCount>23</maxWeakCount>
      <stageThreshold>-8.7156051397323608e-01</stageThreshold>
      <weakClassifiers>
        <_>
          <internalNodes>
            0 -1 196 717106368 -1564856436 1878732479 -2026222932
            251604437 -1090797571 -268499780 -1970338588</internalNodes>
          <leafValues>
            -2.7414330840110779e-01 3.8154807686805725e-01</leafValues></_>
        <_>
          <internalNodes>
            0 -1 116 -157315572 -718274657 -1108353147 -32653605
            1728051191 -335548417 1174394257 -18907269</internalNodes>
          <leafValues>
            -2.2654098272323608e-01 3.1668326258659363e-01</leafValues></_>
        <_>
          <internalNodes>
            0 -1 224 -49404348 -74516491 -808293637 992524856 -24245073
            -325707885 -808861471 2112283062</internalNodes>
          <leafValues>
            -4.0359276533126831e-01 1.6564682126045227e-01</leafValues></_>
        <_>
          <internalNodes>
            0 -1 33 1502825796 -1088301355 -252505505 -1243738616
            -123840132 -1132728398 1524897912 -1279381952</internalNodes>
          <leafValues>
            -3.1209188699722290e-01 2.0732483267784119e-01</leafValues></_>
        <_>
          <internalNodes>
            0 -1 162 -773984308 276009918 467143448 -15164690 -216926989
            888782589 -695267117 1006589277</internalNodes>
          <leafValues>
            -2.9644992947578430e-01 2.1822883188724518e-01</leafValues></_>
        <_>
          <internalNodes>
            0 -1 225 -329993 2029124903 2046492319 -67272793 -276824453
            -218103809 -147457041 -3232841</internalNodes>
          <leafValues>
            -1.8467275798320770e-01 4.4771391153335571e-01</leafValues></_>
        <_>
          <internalNodes>
            0 -1 56 -1179278432 -587089527 502089009 990852408 71963904
            674412014 -1694459507 -1462764278</internalNodes>
          <leafValues>
            -2.5017189979553223e-01 2.7426239848136902e-01</leafValues></_>
        <_>
          <internalNodes>
            0 -1 259 -525383695 -1326235659 -860144739 -1287192079
            -1974487051 -387088847 226630144 -1157691615</internalNodes>
          <leafValues>
            -2.9202294349670410e-01 2.3439647257328033e-01</leafValues></_>
        <_>
          <internalNodes>
            0 -1 42 155561399 1952497596 753415991 9284370 1601286054
            1012703800 -1924280463 -95568134</internalNodes>
          <leafValues>
            -2.4519225955009460e-01 2.6576432585716248e-01</leafValues></_>
        <_>
          <internalNodes>
            0 -1 246 1981804505 -539230256 -102760661 -1111507030
            1056427775 -1158468621 -156041933 -921936039</internalNodes>
          <leafValues>
            -1.7765438556671143e-01 3.7476256489753723e-01</leafValues></_>
        <_>
          <internalNodes>
            0 -1 216 -1150352544 -1760376474 -1420925746 815408012
            1914784628 660490539 497176109 816308687</internalNodes>
          <leafValues>
            -3.8764908909797668e-01 1.8019701540470123e-01</leafValues></_>
        <_>
          <internalNodes>
            0 -1 15 -1735414730 -1786588532 -234684374 337411328
            1973096031 -199876471 -1278789094 1344095256</internalNodes>
          <leafValues>
            -4.0753102302551270e-01 1.6411219537258148e-01</leafValues></_>
        <_>
          <internalNodes>
            0 -1 61 1430200992 1641013067 1644697856 1415786444
            1926634451 -758173068 -724234867 -1718092849</internalNodes>
          <leafValues>
            -2.7516034245491028e-01 2.4988244473934174e-01</leafValues></_>
        <_>
          <internalNodes>
            0 -1 206 173970985 -1060557298 738789167 -492151785
            328874807 -1938109855 -216324267 -1940213283</internalNodes>
          <leafValues>
            -3.5627120733261108e-01 2.0692239701747894e-01</leafValues></_>
        <_>
          <internalNodes>
            0 -1 27 1402999208 -136609408 373315643 -106622336 969050270
            1909989481 -1690289173 -1691735621</internalNodes>
          <leafValues>
            -2.7811279892921448e-01 2.5853425264358521e-01</leafValues></_>
        <_>
          <internalNodes>
            0 -1 219 -933186557 -1149700805 -570736869 -1879396549
            -318806877 1807121916 -379080791 -302058467</internalNodes>
          <leafValues>
            -2.4025638401508331e-01 2.8698503971099854e-01</leafValues></_>
        <_>
          <internalNodes>
            0 -1 159 -83888981 -22544593 -51833374 -178032739 -103895069
            -272991361 -810750545 -68180021</internalNodes>
          <leafValues>
            -1.1914091557264328e-01 5.4508233070373535e-01</leafValues></_>
        <_>
          <internalNodes>
            0 -1 175 -1068596595 -1783536289 -686805927 -1760378747
            1198222333 1206925960 1200695695 -875280522</internalNodes>
          <leafValues>
            -2.9454421997070312e-01 2.4391411244869232e-01</leafValues></_>
        <_>
          <internalNodes>
            0 -1 251 -747634709 1040055998 861409038 -1326774708
            -1906012616 826273184 -1208713418 -672924349</internalNodes>
          <leafValues>
            -2.3411759734153748e-01 3.2714775204658508e-01</leafValues></_>
        <_>
          <internalNodes>
            0 -1 177 -890333775 -1532306949 -1984209647 -1539329419
            -1981547556 -862340802 -1829043136 -907088311</internalNodes>
          <leafValues>
            -2.4895532429218292e-01 2.8524377942085266e-01</leafValues></_>
        <_>
          <internalNodes>
            0 -1 222 1666251641 869614487 -1475283670 -212673072
            39070057 1123728080 690875648 -277521995</internalNodes>
          <leafValues>
            -2.7019581198692322e-01 2.6356479525566101e-01</leafValues></_>
        <_>
          <internalNodes>
            0 -1 272 -757072577 1356670734 511994410 -1261193342
            -988419625 238327326 -757599166 -135799037</internalNodes>
          <leafValues>
            -1.7318461835384369e-01 4.0867263078689575e-01</leafValues></_>
        <_>
          <internalNodes>
            0 -1 106 -856806784 88255136 1397170819 1364672517
            -1982713611 -1926435879 -2141714987 172957988</internalNodes>
          <leafValues>
            -4.5148482918739319e-01 1.7099708318710327e-01</leafValues></_></weakClassifiers></_>
    <!-- stage 14 -->
    <_>
      <maxWeakCount>23</maxWeakCount>
      <stageThreshold>-8.9029330015182495e-01</stageThreshold>
      <weakClassifiers>
        <_>
          <internalNodes>
            0 -1 141 481168948 503234317 -973144653 -1406226944
            367965569 1006237449 230620669 -51480764</internalNodes>
          <leafValues>
            -1.7180952429771423e-01 4.0874552726745605e-01</leafValues></_>
        <_>
          <internalNodes>
            0 -1 207 1854350991 121586652 -2067466977 1024672902
            1669327647 1130488162 1968002399 1240299027</internalNodes>
          <leafValues>
            -3.6762574315071106e-01 1.9331668317317963e-01</leafValues></_>
        <_>
          <internalNodes>
            0 -1 291 -880818036 1394592270 147556974 2092143 -68402454
            1943816755 720158922 1925391874</internalNodes>
          <leafValues>
            -3.1347131729125977e-01 2.0329624414443970e-01</leafValues></_>
        <_>
          <internalNodes>
            0 -1 125 1811346211 684430759 1601850671 845870539
            -1795854170 -827350373 1399132603 -738917643</internalNodes>
          <leafValues>
            -2.7650582790374756e-01 2.3432224988937378e-01</leafValues></_>
        <_>
          <internalNodes>
            0 -1 170 -1130140185 1586754002 -2050661713 -1427647445
            -166506599 -7642710 -468494452 -858171205</internalNodes>
          <leafValues>
            -2.7394142746925354e-01 2.3834520578384399e-01</leafValues></_>
        <_>
          <internalNodes>
            0 -1 127 1650426875 1895812734 341692834 -1127395390
            444766418 1925124857 778091440 -17463823</internalNodes>
          <leafValues>
            -2.7125263214111328e-01 2.4105937778949738e-01</leafValues></_>
        <_>
          <internalNodes>
            0 -1 78 -974269084 -1326599791 -799431787 -442986763
            -1996494281 -328738381 -255483416 1215668272</internalNodes>
          <leafValues>
            -3.2035988569259644e-01 2.1281372010707855e-01</leafValues></_>
        <_>
          <internalNodes>
            0 -1 218 -612406700 -780156034 -1521841571 -571383873
            -1329532078 -1182018566 -1473530884 -1074077963</internalNodes>
          <leafValues>
            -3.1438976526260376e-01 2.1640178561210632e-01</leafValues></_>
        <_>
          <internalNodes>
            0 -1 152 -631823580 1932767842 289871388 366997744
            1315931541 -624980038 1162830197 410497745</internalNodes>
          <leafValues>
            -3.1214216351509094e-01 2.2053268551826477e-01</leafValues></_>
        <_>
          <internalNodes>
            0 -1 122 -555618579 2105406449 -83927331 -1074974801
            2094902527 -886795 1827985118 -1146423315</internalNodes>
          <leafValues>
            -1.6176249086856842e-01 4.0458297729492188e-01</leafValues></_>
        <_>
          <internalNodes>
            0 -1 131 -657931533 -75790497 1052635127 -1545505867
            -589152033 -353185538 -879832977 -891104857</internalNodes>
          <leafValues>
            -2.3160807788372040e-01 2.9552415013313293e-01</leafValues></_>
        <_>
          <internalNodes>
            0 -1 128 123060215 651575142 2044091924 -66014022 511651254
            -1975716639 -36767245 -13239570</internalNodes>
          <leafValues>
            -1.8558190762996674e-01 3.2379901409149170e-01</leafValues></_>
        <_>
          <internalNodes>
            0 -1 92 -1354855896 -1281967087 -1689268128 -128374590
            -1337067685 -1572699952 1615200235 -261782143</internalNodes>
          <leafValues>
            -3.0613818764686584e-01 2.0753252506256104e-01</leafValues></_>
        <_>
          <internalNodes>
            0 -1 137 977100457 -1702061333 1128287439 -134157800
            -1089912581 302033615 -687204573 1817141258</internalNodes>
          <leafValues>
            -2.9802912473678589e-01 2.2021810710430145e-01</leafValues></_>
        <_>
          <internalNodes>
            0 -1 281 -501224451 -732001503 2024746271 2008887198
            -1451267347 -1343380289 -1560902930 -3675185</internalNodes>
          <leafValues>
            -1.7435795068740845e-01 3.8594028353691101e-01</leafValues></_>
        <_>
          <internalNodes>
            0 -1 110 -1359283271 1531750884 852404733 -784402446
            -222629461 -284515013 -1778510575 -613035529</internalNodes>
          <leafValues>
            -2.2399093210697174e-01 3.0385521054267883e-01</leafValues></_>
        <_>
          <internalNodes>
            0 -1 130 -633896766 1563504335 -506466802 -5420627
            -810885183 1190400387 -1490423329 1604549583</internalNodes>
          <leafValues>
            -2.5897806882858276e-01 2.6238030195236206e-01</leafValues></_>
        <_>
          <internalNodes>
            0 -1 114 1875895070 -142606530 -806313168 -1178418409
            2120166327 -1300333900 1276476591 -272152713</internalNodes>
          <leafValues>
            -2.2014905512332916e-01 3.3148214221000671e-01</leafValues></_>
        <_>
          <internalNodes>
            0 -1 97 1620363300 1426373458 961899876 -779587582 526105051
            2028964650 -1078606928 2043479383</internalNodes>
          <leafValues>
            -3.4483811259269714e-01 2.0256355404853821e-01</leafValues></_>
        <_>
          <internalNodes>
            0 -1 257 -2010451576 -360084121 152894554 425826458
            -1354907744 -1013860867 -1626885710 -1075957452</internalNodes>
          <leafValues>
            -2.8626522421836853e-01 2.4332669377326965e-01</leafValues></_>
        <_>
          <internalNodes>
            0 -1 190 434616079 1674009470 -1078153450 -1141374234
            1897294841 567637116 266165918 -14851</internalNodes>
          <leafValues>
            -2.2607815265655518e-01 3.0474406480789185e-01</leafValues></_>
        <_>
          <internalNodes>
            0 -1 183 -656441938 1146055200 1575506259 -406150805
            50917795 -232805400 -326836051 -1141861010</internalNodes>
          <leafValues>
            -2.6170539855957031e-01 2.6846957206726074e-01</leafValues></_>
        <_>
          <internalNodes>
            0 -1 198 478161044 243665286 -225946679 680558738
            -1105772031 -389732727 -1417004630 -1433842776</internalNodes>
          <leafValues>
            -4.5180007815361023e-01 1.8369971215724945e-01</leafValues></_></weakClassifiers></_>
    <!-- stage 15 -->
    <_>
      <maxWeakCount>23</maxWeakCount>
      <stageThreshold>-8.2017296552658081e-01</stageThreshold>
      <weakClassifiers>
        <_>
          <internalNodes>
            0 -1 53 985575473 27704888 -2038434884 -134252760 -88437314
            -1751491738 -1180033659 -709689462</internalNodes>
          <leafValues>
            -3.0191287398338318e-02 4.8108723759651184e-01</leafValues></_>
        <_>
          <internalNodes>
            0 -1 210 1319243438 1153763828 -20430409 -151822290
            1572206635 1849926549 -1186710741 934230783</internalNodes>
          <leafValues>
            -4.1834676265716553e-01 1.6574786603450775e-01</leafValues></_>
        <_>
          <internalNodes>
            0 -1 214 1196294111 1348307786 249031590 615328510
            2045194732 -1365534369 -1895980640 -1073758334</internalNodes>
          <leafValues>
            -2.5454267859458923e-01 2.4554353952407837e-01</leafValues></_>
        <_>
          <internalNodes>
            0 -1 215 796761414 1588799049 2071901482 -317283 -1409443896
            -70471758 397374867 -4211233</internalNodes>
          <leafValues>
            -1.7904889583587646e-01 3.5497707128524780e-01</leafValues></_>
        <_>
          <internalNodes>
            0 -1 120 -12853601 1466892094 -2276 -756033665 2136893358
            -816841245 -34265168 -1078528526</internalNodes>
          <leafValues>
            -1.9315245747566223e-01 3.3925077319145203e-01</leafValues></_>
        <_>
          <internalNodes>
            0 -1 80 126555786 46501097 138647748 293292141 1360510982
            1166780553 -1333935160 16241883</internalNodes>
          <leafValues>
            -5.0251376628875732e-01 1.2930606305599213e-01</leafValues></_>
        <_>
          <internalNodes>
            0 -1 49 -192991362 1029439776 -846525948 -1074849280
            1480588255 -120524171 -1442259157 565505643</internalNodes>
          <leafValues>
            -3.3145940303802490e-01 1.7676469683647156e-01</leafValues></_>
        <_>
          <internalNodes>
            0 -1 2 -84214401 -84152961 -1362268177 -1948716777
            -1334600597 -455973739 -811189975 -25200833</internalNodes>
          <leafValues>
            -1.6826379299163818e-01 3.6965218186378479e-01</leafValues></_>
        <_>
          <internalNodes>
            0 -1 295 389879655 -2039095409 -1364983890 -1393152816
            972518263 1541007355 -1480659275 -21319696</internalNodes>
          <leafValues>
            -2.4403239786624908e-01 2.6621085405349731e-01</leafValues></_>
        <_>
          <internalNodes>
            0 -1 237 -445187586 -137133255 -1148173733 -1242966482
            -1080647772 330516916 -1519191113 1433796595</internalNodes>
          <leafValues>
            -2.5675341486930847e-01 2.5248941779136658e-01</leafValues></_>
        <_>
          <internalNodes>
            0 -1 140 -1615081824 -103781740 -53558595 -548757307
            -1148534254 965994081 1073730558 -1617408803</internalNodes>
          <leafValues>
            -2.6561447978019714e-01 2.4387142062187195e-01</leafValues></_>
        <_>
          <internalNodes>
            0 -1 280 1801611253 1431905213 -422145477 823389557
            1056857340 -72159237 409373660 -536919981</internalNodes>
          <leafValues>
            -2.4063852429389954e-01 2.8184238076210022e-01</leafValues></_>
        <_>
          <internalNodes>
            0 -1 94 39290402 291734480 -2016670959 -50450232 2052988603
            -1162933574 -1332400799 826368258</internalNodes>
          <leafValues>
            -3.6458629369735718e-01 1.9609579443931580e-01</leafValues></_>
        <_>
          <internalNodes>
            0 -1 135 -857028125 -1641480753 1277718334 1285328683
            162264435 -5012742 323232889 225658531</internalNodes>
          <leafValues>
            -3.2809183001518250e-01 1.8658347427845001e-01</leafValues></_>
        <_>
          <internalNodes>
            0 -1 25 1417046580 -1617993906 675436325 146807284
            1774549582 -1212557188 -631080696 682125070</internalNodes>
          <leafValues>
            -3.3149522542953491e-01 2.0316876471042633e-01</leafValues></_>
        <_>
          <internalNodes>
            0 -1 101 -1878375004 243415779 559585418 -309350097
            1959668004 -292042135 1540086016 1472389274</internalNodes>
          <leafValues>
            -3.1506824493408203e-01 2.0762819051742554e-01</leafValues></_>
        <_>
          <internalNodes>
            0 -1 294 1259869344 1490516591 547539016 -1026368446
            591401600 -1286297297 -1736131954 21565698</internalNodes>
          <leafValues>
            -3.6931508779525757e-01 1.8439705669879913e-01</leafValues></_>
        <_>
          <internalNodes>
            0 -1 91 909681295 2132977150 -91429977 -456983898 -361748945
            1713400633 -703384551 1979160871</internalNodes>
          <leafValues>
            -3.6744785308837891e-01 1.6575108468532562e-01</leafValues></_>
        <_>
          <internalNodes>
            0 -1 269 1173136167 1364050005 -498693337 1036808402
            -292043024 1074621859 783855274 292646562</internalNodes>
          <leafValues>
            -3.1052505970001221e-01 2.1402354538440704e-01</leafValues></_>
        <_>
          <internalNodes>
            0 -1 54 1890282356 -506165164 1165068255 -1047571688
            44967131 -646542381 -341181277 1967617762</internalNodes>
          <leafValues>
            -3.1261327862739563e-01 2.2417066991329193e-01</leafValues></_>
        <_>
          <internalNodes>
            0 -1 102 -701516427 -736813391 -2123144533 -1150169318
            -1338640495 -1191920185 -2086674209 -799674865</internalNodes>
          <leafValues>
            -2.0983731746673584e-01 3.2746613025665283e-01</leafValues></_>
        <_>
          <internalNodes>
            0 -1 95 -1072760 1119424036 -1372609280 -781724307
            1726528950 751611668 -1739377 -1666395191</internalNodes>
          <leafValues>
            -2.5370270013809204e-01 2.7192932367324829e-01</leafValues></_>
        <_>
          <internalNodes>
            0 -1 227 420348468 -2071055656 376727250 2038171284
            -1599143915 -333041580 1095717135 1164333939</internalNodes>
          <leafValues>
            -4.8935773968696594e-01 1.5426485240459442e-01</leafValues></_></weakClassifiers></_>
    <!-- stage 16 -->
    <_>
      <maxWeakCount>25</maxWeakCount>
      <stageThreshold>-8.4408855438232422e-01</stageThreshold>
      <weakClassifiers>
        <_>
          <internalNodes>
            0 -1 146 939492034 1442512887 112883447 -1170227242
            2145193523 1193180118 -151206927 1001735867</internalNodes>
          <leafValues>
            -1.1872456222772598e-01 4.1340950131416321e-01</leafValues></_>
        <_>
          <internalNodes>
            0 -1 145 -1083508743 1542414013 -16859151 -147280071
            -1579228161 1593040745 -1396900619 -538055427</internalNodes>
          <leafValues>
            -1.6850569844245911e-01 3.4266215562820435e-01</leafValues></_>
        <_>
          <internalNodes>
            0 -1 231 235538132 583710526 -28554027 1659799177 2106680265
            -72363600 1506408959 548493895</internalNodes>
          <leafValues>
            -5.2926516532897949e-01 1.1781764030456543e-01</leafValues></_>
        <_>
          <internalNodes>
            0 -1 32 496869054 1039121143 119385614 217361128 -1823097366
            -1432048993 -1178927244 540065636</internalNodes>
          <leafValues>
            -3.8352015614509583e-01 1.4895164966583252e-01</leafValues></_>
        <_>
          <internalNodes>
            0 -1 188 1631264607 -9553516 -1196642113 -1108345909 -8713
            -336413072 -38666365 -571214518</internalNodes>
          <leafValues>
            -1.6733734309673309e-01 3.4036633372306824e-01</leafValues></_>
        <_>
          <internalNodes>
            0 -1 244 1583056081 2144591871 -404758571 1515424344
            -8450113 -1078298625 -67334432 -77728683</internalNodes>
          <leafValues>
            -1.8367712199687958e-01 3.2411032915115356e-01</leafValues></_>
        <_>
          <internalNodes>
            0 -1 278 -2105595551 834211061 -239348835 1555039640
            -2103662340 -1464163711 184158220 1339514224</internalNodes>
          <leafValues>
            -3.5652264952659607e-01 1.6020210087299347e-01</leafValues></_>
        <_>
          <internalNodes>
            0 -1 202 -805905755 -303040009 -1010905295 -481666700
            -536973442 -1090637835 1937143799 -4655139</internalNodes>
          <leafValues>
            -2.2429960966110229e-01 2.9059815406799316e-01</leafValues></_>
        <_>
          <internalNodes>
            0 -1 93 -1562892672 1908998618 -300044360 1354496559
            1597932083 -1546939629 -1718353088 1356888422</internalNodes>
          <leafValues>
            -4.9428409337997437e-01 1.2026068568229675e-01</leafValues></_>
        <_>
          <internalNodes>
            0 -1 167 2141611079 -852554936 -288217461 1635895045
            -101525077 -887143800 -293668727 -1981323665</internalNodes>
          <leafValues>
            -2.5070071220397949e-01 2.4898862838745117e-01</leafValues></_>
        <_>
          <internalNodes>
            0 -1 217 366338606 1343752240 54693802 185446030 1732337094
            20136756 1234309802 551528715</internalNodes>
          <leafValues>
            -3.7190932035446167e-01 1.6228358447551727e-01</leafValues></_>
        <_>
          <internalNodes>
            0 -1 8 -636321 -37781641 -24640369 -83399050 -135601921
            -352594785 -1342242758 -356550853</internalNodes>
          <leafValues>
            -1.4904366433620453e-01 3.9807054400444031e-01</leafValues></_>
        <_>
          <internalNodes>
            0 -1 1 238959439 -1879051307 -422097922 -386466733
            -1243678095 -823148838 -154533033 -521343376</internalNodes>
          <leafValues>
            -2.5149524211883545e-01 2.5301975011825562e-01</leafValues></_>
        <_>
          <internalNodes>
            0 -1 257 1275466952 -292873721 64233310 -674424329
            -1423327758 -297360159 1495120600 -13105230</internalNodes>
          <leafValues>
            -2.5152254104614258e-01 2.5144350528717041e-01</leafValues></_>
        <_>
          <internalNodes>
            0 -1 7 1987403479 -1369045908 -52795017 -425533698
            1985218377 -458865999 1302664617 -1897466914</internalNodes>
          <leafValues>
            -2.4410645663738251e-01 2.5551989674568176e-01</leafValues></_>
        <_>
          <internalNodes>
            0 -1 55 -691539198 -1610358855 -788466228 168021931
            -436010882 150034 1947406616 336457183</internalNodes>
          <leafValues>
            -4.4077625870704651e-01 1.4080208539962769e-01</leafValues></_>
        <_>
          <internalNodes>
            0 -1 76 -998453810 1970727231 1653807873 138777088
            1301146619 358310767 1166569611 20228286</internalNodes>
          <leafValues>
            -3.9378154277801514e-01 1.6109055280685425e-01</leafValues></_>
        <_>
          <internalNodes>
            0 -1 285 -1179613263 -323337584 -1644885167 -1648545708
            -1588679744 -1262568232 501924047 -1650491180</internalNodes>
          <leafValues>
            -2.1406842768192291e-01 3.0535981059074402e-01</leafValues></_>
        <_>
          <internalNodes>
            0 -1 124 -293764319 -1415473276 -392694144 1077498652
            -156733401 -165234748 2051849190 -1312548991</internalNodes>
          <leafValues>
            -2.9615300893783569e-01 2.1128986775875092e-01</leafValues></_>
        <_>
          <internalNodes>
            0 -1 88 151555506 354193432 -1030815495 13384896 175978832
            -851406458 -1464096283 1359310896</internalNodes>
          <leafValues>
            -4.0176045894622803e-01 1.7316374182701111e-01</leafValues></_>
        <_>
          <internalNodes>
            0 -1 161 -1233244796 -219709725 -1975066590 2042961093
            -512576865 -818898077 -1574237237 -631682304</internalNodes>
          <leafValues>
            -2.6579427719116211e-01 2.5209823250770569e-01</leafValues></_>
        <_>
          <internalNodes>
            0 -1 48 1039032060 300169140 -936287576 537035600 350019320
            234824490 2126322204 -1125778518</internalNodes>
          <leafValues>
            -2.7612027525901794e-01 2.3635800182819366e-01</leafValues></_>
        <_>
          <internalNodes>
            0 -1 121 1677127479 862157970 -1879265363 2146351778
            1626699635 -1560285786 1496672105 -67160198</internalNodes>
          <leafValues>
            -2.0247189700603485e-01 3.4145438671112061e-01</leafValues></_>
        <_>
          <internalNodes>
            0 -1 81 59755428 -1851503196 639304201 -738110720 519866532
            -960935528 1478298260 1087890735</internalNodes>
          <leafValues>
            -4.0771007537841797e-01 1.6628006100654602e-01</leafValues></_>
        <_>
          <internalNodes>
            0 -1 240 -170405170 -2143445937 137047926 1976281706
            1934504071 79417158 -92831042 -1256468561</internalNodes>
          <leafValues>
            -2.0511798560619354e-01 3.3184653520584106e-01</leafValues></_></weakClassifiers></_>
    <!-- stage 17 -->
    <_>
      <maxWeakCount>25</maxWeakCount>
      <stageThreshold>-7.2792804241180420e-01</stageThreshold>
      <weakClassifiers>
        <_>
          <internalNodes>
            0 -1 203 613949505 -1396093749 2130653031 -1458365
            -1419984902 -17301537 -1235323425 2014336857</internalNodes>
          <leafValues>
            -1.6787697374820709e-01 3.8476374745368958e-01</leafValues></_>
        <_>
          <internalNodes>
            0 -1 103 -793970512 283939031 -1222970965 -1249619551
            -1026972448 1632424507 23022114 1660386496</internalNodes>
          <leafValues>
            -3.6688280105590820e-01 1.6450697183609009e-01</leafValues></_>
        <_>
          <internalNodes>
            0 -1 235 -1171875664 -330139030 71347931 215932637
            -340790810 -206690108 797616070 2129064768</internalNodes>
          <leafValues>
            -3.9170530438423157e-01 1.4886873960494995e-01</leafValues></_>
        <_>
          <internalNodes>
            0 -1 107 1780164546 -268724253 1994054345 -96252753
            843469674 -1915105088 2102071401 -58470833</internalNodes>
          <leafValues>
            -2.4640700221061707e-01 2.3416575789451599e-01</leafValues></_>
        <_>
          <internalNodes>
            0 -1 156 -905551340 767225640 -905767531 -382955186
            -119674149 791047778 2072540150 1918251815</internalNodes>
          <leafValues>
            -3.8654398918151855e-01 1.5313774347305298e-01</leafValues></_>
        <_>
          <internalNodes>
            0 -1 261 2071914356 1006065737 1778104910 991465960
            708278970 -1145367810 1379518532 -1678157475</internalNodes>
          <leafValues>
            -2.9760441184043884e-01 1.9387120008468628e-01</leafValues></_>
        <_>
          <internalNodes>
            0 -1 282 -70396444 1538347646 1701880102 282929902
            1654287652 1851660334 -85151778 -154951254</internalNodes>
          <leafValues>
            -2.7857473492622375e-01 2.1149304509162903e-01</leafValues></_>
        <_>
          <internalNodes>
            0 -1 36 1697980960 2121094018 -99913576 1355149768 929070361
            1198352961 2046576703 1689203714</internalNodes>
          <leafValues>
            -3.3472469449043274e-01 1.9489358365535736e-01</leafValues></_>
        <_>
          <internalNodes>
            0 -1 50 786579220 1998338608 -434103037 2076317010
            1782557687 281817376 -893276497 -1949906449</internalNodes>
          <leafValues>
            -2.5980877876281738e-01 2.3443739116191864e-01</leafValues></_>
        <_>
          <internalNodes>
            0 -1 212 566591752 853832156 1393561600 969537236 1175037516
            -79410028 1853952389 900551876</internalNodes>
          <leafValues>
            -3.9405164122581482e-01 1.4126649498939514e-01</leafValues></_>
        <_>
          <internalNodes>
            0 -1 142 -893666205 -429156990 1965375187 -5811773
            1056175594 145955169 1844770779 -97913088</internalNodes>
          <leafValues>
            -2.3028221726417542e-01 2.5840285420417786e-01</leafValues></_>
        <_>
          <internalNodes>
            0 -1 17 1296923439 41218469 243086964 -27280142 1419834151
            476739024 -85755018 -521360864</internalNodes>
          <leafValues>
            -2.7745023369789124e-01 2.1647533774375916e-01</leafValues></_>
        <_>
          <internalNodes>
            0 -1 129 -2122341854 1949032738 84152384 -26742623 823060354
            564881521 -772251667 1880164224</internalNodes>
          <leafValues>
            -3.2995417714118958e-01 1.9002488255500793e-01</leafValues></_>
        <_>
          <internalNodes>
            0 -1 191 2051591293 -12410657 -1601041629 85984170
            -1281967667 -399865983 34557145 184501329</internalNodes>
          <leafValues>
            -3.6275243759155273e-01 1.7553076148033142e-01</leafValues></_>
        <_>
          <internalNodes>
            0 -1 6 470483554 278449264 -1394999294 462547093 1147398125
            1365195377 2056444186 1111813891</internalNodes>
          <leafValues>
            -3.9596617221832275e-01 1.5068869292736053e-01</leafValues></_>
        <_>
          <internalNodes>
            0 -1 211 -16868378 -286081924 1986543168 -536881579
            1031178914 -361182 -2884689 -18093318</internalNodes>
          <leafValues>
            -2.2086086869239807e-01 2.9561156034469604e-01</leafValues></_>
        <_>
          <internalNodes>
            0 -1 239 -940232835 1893413725 -50450648 1408234060
            113091481 736065085 -990473409 -239075461</internalNodes>
          <leafValues>
            -1.8541705608367920e-01 3.6053282022476196e-01</leafValues></_>
        <_>
          <internalNodes>
            0 -1 73 -2001754860 275510736 472586543 -1994010160
            1119266832 320867623 -592486995 136404436</internalNodes>
          <leafValues>
            -4.5029276609420776e-01 1.4050227403640747e-01</leafValues></_>
        <_>
          <internalNodes>
            0 -1 200 1846101417 792700367 -2133500159 2124790820
            1787025557 514369791 622571795 -277651529</internalNodes>
          <leafValues>
            -2.5800126791000366e-01 2.4996006488800049e-01</leafValues></_>
        <_>
          <internalNodes>
            0 -1 143 912704567 307724430 -1341200750 2076304950
            1202638391 36463504 1231997787 703513034</internalNodes>
          <leafValues>
            -3.2243719696998596e-01 2.1886365115642548e-01</leafValues></_>
        <_>
          <internalNodes>
            0 -1 0 -2146798377 919788527 1615627299 419310387
            -1073644668 1618319726 619985523 -2107617484</internalNodes>
          <leafValues>
            -3.3219361305236816e-01 1.9574111700057983e-01</leafValues></_>
        <_>
          <internalNodes>
            0 -1 13 2039113790 -6356648 -2047062064 626670782 2132967674
            -1229635562 526545050 909729658</internalNodes>
          <leafValues>
            -3.2692652940750122e-01 2.0176842808723450e-01</leafValues></_>
        <_>
          <internalNodes>
            0 -1 186 124885366 279979042 -1690066050 910772954
            -1752710707 1605792699 -1938048888 -287351461</internalNodes>
          <leafValues>
            -3.0209153890609741e-01 2.2757038474082947e-01</leafValues></_>
        <_>
          <internalNodes>
            0 -1 241 -19468553 -865937741 -109643397 -13312014
            -1615356421 -1439607576 393975807 -821051925</internalNodes>
          <leafValues>
            -1.5288187563419342e-01 4.5838445425033569e-01</leafValues></_>
        <_>
          <internalNodes>
            0 -1 119 -743514090 -2089294090 -76038193 -1417240721
            2120738799 -1280524443 -1216925364 -1549306289</internalNodes>
          <leafValues>
            -2.3914006352424622e-01 2.9302510619163513e-01</leafValues></_></weakClassifiers></_>
    <!-- stage 18 -->
    <_>
      <maxWeakCount>25</maxWeakCount>
      <stageThreshold>-7.8893214464187622e-01</stageThreshold>
      <weakClassifiers>
        <_>
          <internalNodes>
            0 -1 226 776472782 1122964700 -17498369 199585727 796803039
            -1023410177 980827485 462454613</internalNodes>
          <leafValues>
            -2.8996539115905762e-01 3.4567749500274658e-01</leafValues></_>
        <_>
          <internalNodes>
            0 -1 178 -289257864 -974578929 1502814513 -72057989
            -879669967 -1032387826 -494203343 -163829152</internalNodes>
          <leafValues>
            -2.9708847403526306e-01 1.9574642181396484e-01</leafValues></_>
        <_>
          <internalNodes>
            0 -1 66 1214600802 1832865103 -108912822 184593576
            1651930558 953643391 -1344765148 265269887</internalNodes>
          <leafValues>
            -2.7790471911430359e-01 2.1703132987022400e-01</leafValues></_>
        <_>
          <internalNodes>
            0 -1 205 -1789958665 -1856990474 -1650008792 1542875246
            1332687333 -805339153 1317363578 -823036617</internalNodes>
          <leafValues>
            -2.2783938050270081e-01 2.5647050142288208e-01</leafValues></_>
        <_>
          <internalNodes>
            0 -1 63 252105650 674754631 -8503016 -1872570164 -347628752
            -461321977 -1477240824 359074450</internalNodes>
          <leafValues>
            -3.9283055067062378e-01 1.4203397929668427e-01</leafValues></_>
        <_>
          <internalNodes>
            0 -1 28 1404766288 -550501307 526051775 356633951 404243990
            -68143055 997866143 840587432</internalNodes>
          <leafValues>
            -2.9245465993881226e-01 1.9857634603977203e-01</leafValues></_>
        <_>
          <internalNodes>
            0 -1 184 1397591426 -85021810 290941497 -69865136 -499453286
            -1201993287 -237171266 -135953276</internalNodes>
          <leafValues>
            -2.3557768762111664e-01 2.5372180342674255e-01</leafValues></_>
        <_>
          <internalNodes>
            0 -1 223 1999036611 2009850029 -542576175 -543172404
            -1960514573 -1697668215 469235899 -76356621</internalNodes>
          <leafValues>
            -1.7551407217979431e-01 3.4525325894355774e-01</leafValues></_>
        <_>
          <internalNodes>
            0 -1 253 330219254 1413866355 -872241498 212762780
            1264142404 1417345844 -440081430 1441253062</internalNodes>
          <leafValues>
            -3.3395290374755859e-01 1.9332033395767212e-01</leafValues></_>
        <_>
          <internalNodes>
            0 -1 144 -528482026 -2000772554 -864882638 -1305022422
            1271024987 1117955126 1339447305 501709422</internalNodes>
          <leafValues>
            -3.9758378267288208e-01 1.2774817645549774e-01</leafValues></_>
        <_>
          <internalNodes>
            0 -1 236 1419410160 294293310 -1430588294 2110175852
            -54883729 -1065306467 -68956535 -223136443</internalNodes>
          <leafValues>
            -3.1413456797599792e-01 1.9764129817485809e-01</leafValues></_>
        <_>
          <internalNodes>
            0 -1 171 1560206769 171652624 -94387047 -245367933
            -758910045 -2104503305 -152338067 -1232305769</internalNodes>
          <leafValues>
            -2.5887659192085266e-01 2.2688320279121399e-01</leafValues></_>
        <_>
          <internalNodes>
            0 -1 289 -1426096139 335366989 849845053 1820412223
            -1948116282 -1416000375 785558540 1330009924</internalNodes>
          <leafValues>
            -2.8796201944351196e-01 2.2281858325004578e-01</leafValues></_>
        <_>
          <internalNodes>
            0 -1 117 -304377296 835649318 -268477224 -1661599890
            -487605355 1234108371 -36344261 -103844777</internalNodes>
          <leafValues>
            -2.2894383966922760e-01 2.6608338952064514e-01</leafValues></_>
        <_>
          <internalNodes>
            0 -1 68 -365077260 1956158493 -2067039701 447665485
            -1059224847 1752285813 1193528635 -631408028</internalNodes>
          <leafValues>
            -2.8283226490020752e-01 2.1775574982166290e-01</leafValues></_>
        <_>
          <internalNodes>
            0 -1 197 -346033200 1264424287 1616324083 293964244
            153311643 -2008432571 -1569994214 -993197165</internalNodes>
          <leafValues>
            -2.4360285699367523e-01 2.5277751684188843e-01</leafValues></_>
        <_>
          <internalNodes>
            0 -1 263 -75503364 1360625403 1756130847 2118283933
            -576520197 -1258307617 -332763906 -1514224886</internalNodes>
          <leafValues>
            -2.2566165030002594e-01 2.9158982634544373e-01</leafValues></_>
        <_>
          <internalNodes>
            0 -1 290 -790354480 1926590752 1912643686 2011767447
            -639300992 313532758 -1919530814 1901453442</internalNodes>
          <leafValues>
            -3.1786996126174927e-01 2.1657891571521759e-01</leafValues></_>
        <_>
          <internalNodes>
            0 -1 4 792677887 -1388417281 -227029133 -830670289
            -756648099 278891991 -16720 -558313608</internalNodes>
          <leafValues>
            -2.3196916282176971e-01 2.8164693713188171e-01</leafValues></_>
        <_>
          <internalNodes>
            0 -1 225 -1423544220 -84157017 -1283672841 515094485
            -1895923841 -1025507337 -281567462 -278090025</internalNodes>
          <leafValues>
            -2.3486179113388062e-01 2.6421383023262024e-01</leafValues></_>
        <_>
          <internalNodes>
            0 -1 57 -272130528 -133317462 -549384876 1441739041
            566883275 -1710767328 2010601929 1420775883</internalNodes>
          <leafValues>
            -2.7246397733688354e-01 2.3336787521839142e-01</leafValues></_>
        <_>
          <internalNodes>
            0 -1 126 -336607354 -224397266 1635657512 -1108369206
            -437268326 -193605814 -428671289 -102446447</internalNodes>
          <leafValues>
            -2.2249695658683777e-01 2.9156166315078735e-01</leafValues></_>
        <_>
          <internalNodes>
            0 -1 293 131665813 845747 499239173 77646119 795730224
            -657802302 1036734983 276105813</internalNodes>
          <leafValues>
            -3.2985305786132812e-01 2.0657770335674286e-01</leafValues></_>
        <_>
          <internalNodes>
            0 -1 169 -1078133319 -789648851 -1665337202 1529831358
            -1183537833 -1426609167 -2137031123 -71524492</internalNodes>
          <leafValues>
            -2.5104653835296631e-01 2.6033586263656616e-01</leafValues></_>
        <_>
          <internalNodes>
            0 -1 5 993693654 -1795382083 -1754513010 -806558381
            1450963847 16031941 -1037639757 2006740827</internalNodes>
          <leafValues>
            -2.9219260811805725e-01 2.2996996343135834e-01</leafValues></_></weakClassifiers></_>
    <!-- stage 19 -->
    <_>
      <maxWeakCount>26</maxWeakCount>
      <stageThreshold>-8.5614085197448730e-01</stageThreshold>
      <weakClassifiers>
        <_>
          <internalNodes>
            0 -1 149 -1326707632 351091143 -1082442565 2105156596
            -1426065245 -1393690693 -705965007 -1000145136</internalNodes>
          <leafValues>
            -1.2035333365201950e-01 3.9619353413581848e-01</leafValues></_>
        <_>
          <internalNodes>
            0 -1 228 36831819 -999157937 1922136209 -1032091769
            843281271 -1061604846 581059431 1059090765</internalNodes>
          <leafValues>
            -4.4587677717208862e-01 1.3261105120182037e-01</leafValues></_>
        <_>
          <internalNodes>
            0 -1 165 -1727286322 -570475557 -596550530 -61768999
            -1917219146 -1946690057 -1410353270 463698491</internalNodes>
          <leafValues>
            -1.9856783747673035e-01 2.7958896756172180e-01</leafValues></_>
        <_>
          <internalNodes>
            0 -1 172 224530729 1105914652 -251157843 -5001214 122035192
            -2128135407 -417677607 1312844868</internalNodes>
          <leafValues>
            -4.3904745578765869e-01 1.0839241743087769e-01</leafValues></_>
        <_>
          <internalNodes>
            0 -1 99 1450059040 1805543929 -644443308 804950534 -95560233
            -1157757046 -48204865 635762367</internalNodes>
          <leafValues>
            -3.4877929091453552e-01 1.5648552775382996e-01</leafValues></_>
        <_>
          <internalNodes>
            0 -1 173 -1038618906 61632423 1679069217 1208425172
            -633460970 -1822700157 -157031961 816140183</internalNodes>
          <leafValues>
            -4.0577450394630432e-01 1.2971675395965576e-01</leafValues></_>
        <_>
          <internalNodes>
            0 -1 45 2020340128 -1001727742 1708694509 2099200192
            -1727288583 -1482357803 619601327 202347016</internalNodes>
          <leafValues>
            -3.0019161105155945e-01 1.7601060867309570e-01</leafValues></_>
        <_>
          <internalNodes>
            0 -1 273 2002774218 -1597733854 -458984446 1889393654
            1912646566 335682050 629779210 -245377569</internalNodes>
          <leafValues>
            -2.3844219744205475e-01 2.2864699363708496e-01</leafValues></_>
        <_>
          <internalNodes>
            0 -1 16 -260081746 -1340341366 -1833539693 -607234779
            -1331744740 -39801602 1912290184 1659826875</internalNodes>
          <leafValues>
            -2.8280526399612427e-01 1.9647112488746643e-01</leafValues></_>
        <_>
          <internalNodes>
            0 -1 255 -39069935 -1724933966 -1280133185 -101058375
            -546513521 1494523827 463986463 -1918248559</internalNodes>
          <leafValues>
            -1.9594088196754456e-01 2.9094487428665161e-01</leafValues></_>
        <_>
          <internalNodes>
            0 -1 24 -715129251 353251667 459010271 507213069 957996074
            1842118650 1598685099 -7379013</internalNodes>
          <leafValues>
